{"learner":{"attributes":{"scikit_learn":"{\"_estimator_type\": \"classifier\"}"},"feature_names":[],"feature_types":[],"gradient_booster":{"model":{"gbtree_model_param":{"num_parallel_tree":"1","num_trees":"1"},"iteration_indptr":[0,1],"tree_info":[0],"trees":[{"base_weights":[-9.857098E-10,1.1941621E0,-5.562183E-1,-1.1417788E0,1.3047355E0,1.0736401E0,-7.151118E-1,1.4293548E0,-5.8878505E-1,-5.739131E-1,1.3549975E0,-5.85965E-1,1.5831223E0,-1.8528945E0,-5.3611976E-1,5.613502E-1,-4.0000004E-1,9.582331E-1,1.7225384E0,1.7235658E0,-5.4285717E-1,1.0391434E0,-5.9846056E-1,-1.49737E0,-2.9338428E-1,-4.215107E-1,1.2721119E0,1.7626923E0,-5.3333336E-1,-4.8000002E-1,1.786049E0,-4.666667E-1,5.078286E-1,-3.18123E-2,-1.7375245E0,1.2004418E-1,-8.351213E-1,-5.8878505E-1,6.4662963E-1,-5.612903E-1,1.3577123E0,1.7946705E0,-5.172414E-1,-3.6E-1,1.8100243E0,1.1454828E0,-5.7931036E-1,-2.5670213E-1,-5.9843546E-1,8.604078E-1,-3.3229545E-1,3.154162E-1,-1.2501305E0,-5.6E-1,3.688101E-1,-5.4285717E-1,4.2487985E-1,-4.8000002E-1,5.44627E-1,4.826486E-1,5.808141E-1,4.8238197E-1,-5.1428574E-1,-5.8356166E-1,4.9782667E-1,-5.8695656E-1,3.5405472E-1,-3.3308434E-1,1.270863E-1,-5.868132E-1,2.5336304E-1,-5.492894E-1,-1.7181382E-1],"categories":[],"categories_nodes":[],"categories_segments":[],"categories_sizes":[],"default_left":[0,0,0,0,0,0,0,0,0,0,0,0,0,0,0,0,0,0,0,0,0,0,0,0,0,0,0,0,0,0,0,0,0,0,0,0,0,0,0,0,0,0,0,0,0,0,0,0,0,0,0,0,0,0,0,0,0,0,0,0,0,0,0,0,0,0,0,0,0,0,0,0,0],"id":0,"left_children":[1,3,5,7,9,11,13,15,-1,-1,17,-1,19,21,23,-1,-1,25,27,29,-1,31,-1,33,35,37,39,41,-1,-1,43,-1,-1,45,47,49,51,-1,53,-1,55,57,-1,-1,59,61,-1,63,-1,65,67,69,71,-1,-1,-1,-1,-1,-1,-1,-1,-1,-1,-1,-1,-1,-1,-1,-1,-1,-1,-1,-1],"loss_changes":[3.2138035E3,3.9862305E2,8.556325E2,1.5058987E2,2.4009619E2,4.5589584E2,6.116688E2,2.3884548E1,0E0,0E0,2.092893E2,0E0,1.2312982E2,1.6981055E2,6.064096E2,0E0,0E0,3.027569E2,1.0849829E2,5.319043E1,0E0,3.6168808E1,0E0,1.8441003E2,4.654452E2,2.1540279E2,1.555669E2,8.579053E1,0E0,0E0,1.9237366E1,0E0,0E0,1.6948314E2,1.7103198E2,3.952229E2,4.2985864E2,0E0,1.15923805E2,0E0,1.0535394E2,5.4713135E1,0E0,0E0,2.8912354E0,6.466371E1,0E0,2.225805E2,0E0,4.0543478E2,4.3139746E2,2.891783E2,2.5911377E2,0E0,0E0,0E0,0E0,0E0,0E0,0E0,0E0,0E0,0E0,0E0,0E0,0E0,0E0,0E0,0E0,0E0,0E0,0E0,0E0],"parents":[2147483647,0,0,1,1,2,2,3,3,4,4,5,5,6,6,7,7,10,10,12,12,13,13,14,14,17,17,18,18,19,19,21,21,23,23,24,24,25,25,26,26,27,27,30,30,33,33,34,34,35,35,36,36,38,38,40,40,41,41,44,44,45,45,47,47,49,49,50,50,51,51,52,52],"right_children":[2,4,6,8,10,12,14,16,-1,-1,18,-1,20,22,24,-1,-1,26,28,30,-1,32,-1,34,36,38,40,42,-1,-1,44,-1,-1,46,48,50,52,-1,54,-1,56,58,-1,-1,60,62,-1,64,-1,66,68,70,72,-1,-1,-1,-1,-1,-1,-1,-1,-1,-1,-1,-1,-1,-1,-1,-1,-1,-1,-1,-1],"split_conditions":[4.023587E-2,-4.4739533E-2,-4.9083557E-2,9.5161565E-2,6.1137706E-2,-6.826009E-2,-6.549357E-2,-1.7191429E-2,-5.8878505E-1,-5.739131E-1,3.8749475E-3,-5.85965E-1,2.7708441E-2,-6.565343E-2,-1.0336456E-2,5.613502E-1,-4.0000004E-1,-3.2198075E-2,8.9404E-2,-7.0475214E-3,-5.4285717E-1,1.8184127E-2,-5.9846056E-1,-7.072519E-2,4.33301E-3,1.7685797E-2,-1.920529E-2,4.0410526E-2,-5.3333336E-1,-4.8000002E-1,-4.1830055E-2,-4.666667E-1,5.078286E-1,5.860564E-2,1.2430003E-2,9.957678E-3,-2.4657277E-4,-5.8878505E-1,-2.5520012E-2,-5.612903E-1,-6.7646824E-2,7.709178E-4,-5.172414E-1,-3.6E-1,2.7327263E-3,-2.198448E-2,-5.7931036E-1,1.1159061E-2,-5.9843546E-1,1.3044187E-1,1.6366817E-2,1.7933372E-3,4.254761E-2,-5.6E-1,3.688101E-1,-5.4285717E-1,4.2487985E-1,-4.8000002E-1,5.44627E-1,4.826486E-1,5.808141E-1,4.8238197E-1,-5.1428574E-1,-5.8356166E-1,4.9782667E-1,-5.8695656E-1,3.5405472E-1,-3.3308434E-1,1.270863E-1,-5.868132E-1,2.5336304E-1,-5.492894E-1,-1.7181382E-1],"split_indices":[1823,1053,497,1292,178,1817,2312,30,0,0,2304,0,2463,21,96,0,0,557,375,1403,0,1317,0,345,929,1221,742,523,0,0,2333,0,0,2239,304,2408,1630,0,1384,0,1112,231,0,0,0,1450,0,2087,0,700,180,806,1996,0,0,0,0,0,0,0,0,0,0,0,0,0,0,0,0,0,0,0,0],"split_type":[0,0,0,0,0,0,0,0,0,0,0,0,0,0,0,0,0,0,0,0,0,0,0,0,0,0,0,0,0,0,0,0,0,0,0,0,0,0,0,0,0,0,0,0,0,0,0,0,0,0,0,0,0,0,0,0,0,0,0,0,0,0,0,0,0,0,0,0,0,0,0,0,0],"sum_hessian":[4.8365E3,1.53653E3,3.29997E3,6.9024025E1,1.467506E3,2.9262238E2,3.0073477E3,1.6524025E1,5.25E1,2.2E1,1.445506E3,4.175E1,2.5087238E2,4.0752402E2,2.5998235E3,1.4524024E1,2E0,6.9685284E2,7.4865314E2,2.4137238E2,9.5E0,1.8774025E1,3.8875E2,5.231081E2,2.0767156E3,1.2908409E2,5.677688E2,7.4065314E2,8E0,4E0,2.3737238E2,3.5E0,1.5274024E1,7.381006E1,4.4929803E2,1.1782831E3,8.9843243E2,5.25E1,7.658408E1,1.45E1,5.532688E2,7.3440314E2,6.25E0,1.5E0,2.3587238E2,4.581006E1,2.8E1,6.679805E1,3.825E2,4.4652853E2,7.317545E2,2.3822823E2,6.602042E2,1.4E1,6.2584084E1,9.5E0,5.437688E2,4E0,7.3040314E2,9.614414E1,1.3972823E2,3.981006E1,6E0,3.55E1,3.1298048E1,4.5E1,4.0152853E2,3.6038214E2,3.7137238E2,4.45E1,1.9372823E2,3.5452402E2,3.0568018E2],"tree_param":{"num_deleted":"0","num_feature":"2560","num_nodes":"73","size_leaf_vector":"1"}}]},"name":"gbtree"},"learner_model_param":{"base_score":"5E-1","boost_from_average":"1","num_class":"0","num_feature":"2560","num_target":"1"},"objective":{"name":"binary:logistic","reg_loss_param":{"scale_pos_weight":"29.048048"}}},"version":[2,1,4]}