accession,0,1,2,3,4,5,6,7,8,9,10,11,12,13,14,15,16,17,18,19,20,21,22,23,24,25,26,27,28,29,30,31,32,33,34,35,36,37,38,39,40,41,42,43,44,45,46,47,48,49,50,51,52,53,54,55,56,57,58,59,60,61,62,63,64,65,66,67,68,69,70,71,72,73,74,75,76,77,78,79,80,81,82,83,84,85,86,87,88,89,90,91,92,93,94,95,96,97,98,99,100,101,102,103,104,105,106,107,108,109,110,111,112,113,114,115,116,117,118,119,120,121,122,123,124,125,126,127,128,129,130,131,132,133,134,135,136,137,138,139,140,141,142,143,144,145,146,147,148,149,150,151,152,153,154,155,156,157,158,159,160,161,162,163,164,165,166,167,168,169,170,171,172,173,174,175,176,177,178,179,180,181,182,183,184,185,186,187,188,189,190,191,192,193,194,195,196,197,198,199,200,201,202,203,204,205,206,207,208,209,210,211,212,213,214,215,216,217,218,219,220,221,222,223,224,225,226,227,228,229,230,231,232,233,234,235,236,237,238,239,240,241,242,243,244,245,246,247,248,249,250,251,252,253,254,255,256,257,258,259,260,261,262,263,264,265,266,267,268,269,270,271,272,273,274,275,276,277,278,279,280,281,282,283,284,285,286,287,288,289,290,291,292,293,294,295,296,297,298,299,300,301,302,303,304,305,306,307,308,309,310,311,312,313,314,315,316,317,318,319,320,321,322,323,324,325,326,327,328,329,330,331,332,333,334,335,336,337,338,339,340,341,342,343,344,345,346,347,348,349,350,351,352,353,354,355,356,357,358,359,360,361,362,363,364,365,366,367,368,369,370,371,372,373,374,375,376,377,378,379,380,381,382,383,384,385,386,387,388,389,390,391,392,393,394,395,396,397,398,399,400,401,402,403,404,405,406,407,408,409,410,411,412,413,414,415,416,417,418,419,420,421,422,423,424,425,426,427,428,429,430,431,432,433,434,435,436,437,438,439,440,441,442,443,444,445,446,447,448,449,450,451,452,453,454,455,456,457,458,459,460,461,462,463,464,465,466,467,468,469,470,471,472,473,474,475,476,477,478,479,480,481,482,483,484,485,486,487,488,489,490,491,492,493,494,495,496,497,498,499,500,501,502,503,504,505,506,507,508,509,510,511,512,513,514,515,516,517,518,519,520,521,522,523,524,525,526,527,528,529,530,531,532,533,534,535,536,537,538,539,540,541,542,543,544,545,546,547,548,549,550,551,552,553,554,555,556,557,558,559,560,561,562,563,564,565,566,567,568,569,570,571,572,573,574,575,576,577,578,579,580,581,582,583,584,585,586,587,588,589,590,591,592,593,594,595,596,597,598,599,600,601,602,603,604,605,606,607,608,609,610,611,612,613,614,615,616,617,618,619,620,621,622,623,624,625,626,627,628,629,630,631,632,633,634,635,636,637,638,639,640,641,642,643,644,645,646,647,648,649,650,651,652,653,654,655,656,657,658,659,660,661,662,663,664,665,666,667,668,669,670,671,672,673,674,675,676,677,678,679,680,681,682,683,684,685,686,687,688,689,690,691,692,693,694,695,696,697,698,699,700,701,702,703,704,705,706,707,708,709,710,711,712,713,714,715,716,717,718,719,720,721,722,723,724,725,726,727,728,729,730,731,732,733,734,735,736,737,738,739,740,741,742,743,744,745,746,747,748,749,750,751,752,753,754,755,756,757,758,759,760,761,762,763,764,765,766,767,768,769,770,771,772,773,774,775,776,777,778,779,780,781,782,783,784,785,786,787,788,789,790,791,792,793,794,795,796,797,798,799,800,801,802,803,804,805,806,807,808,809,810,811,812,813,814,815,816,817,818,819,820,821,822,823,824,825,826,827,828,829,830,831,832,833,834,835,836,837,838,839,840,841,842,843,844,845,846,847,848,849,850,851,852,853,854,855,856,857,858,859,860,861,862,863,864,865,866,867,868,869,870,871,872,873,874,875,876,877,878,879,880,881,882,883,884,885,886,887,888,889,890,891,892,893,894,895,896,897,898,899,900,901,902,903,904,905,906,907,908,909,910,911,912,913,914,915,916,917,918,919,920,921,922,923,924,925,926,927,928,929,930,931,932,933,934,935,936,937,938,939,940,941,942,943,944,945,946,947,948,949,950,951,952,953,954,955,956,957,958,959,960,961,962,963,964,965,966,967,968,969,970,971,972,973,974,975,976,977,978,979,980,981,982,983,984,985,986,987,988,989,990,991,992,993,994,995,996,997,998,999,1000,1001,1002,1003,1004,1005,1006,1007,1008,1009,1010,1011,1012,1013,1014,1015,1016,1017,1018,1019,1020,1021,1022,1023,1024,1025,1026,1027,1028,1029,1030,1031,1032,1033,1034,1035,1036,1037,1038,1039,1040,1041,1042,1043,1044,1045,1046,1047,1048,1049,1050,1051,1052,1053,1054,1055,1056,1057,1058,1059,1060,1061,1062,1063,1064,1065,1066,1067,1068,1069,1070,1071,1072,1073,1074,1075,1076,1077,1078,1079,1080,1081,1082,1083,1084,1085,1086,1087,1088,1089,1090,1091,1092,1093,1094,1095,1096,1097,1098,1099,1100,1101,1102,1103,1104,1105,1106,1107,1108,1109,1110,1111,1112,1113,1114,1115,1116,1117,1118,1119,1120,1121,1122,1123,1124,1125,1126,1127,1128,1129,1130,1131,1132,1133,1134,1135,1136,1137,1138,1139,1140,1141,1142,1143,1144,1145,1146,1147,1148,1149,1150,1151,1152,1153,1154,1155,1156,1157,1158,1159,1160,1161,1162,1163,1164,1165,1166,1167,1168,1169,1170,1171,1172,1173,1174,1175,1176,1177,1178,1179,1180,1181,1182,1183,1184,1185,1186,1187,1188,1189,1190,1191,1192,1193,1194,1195,1196,1197,1198,1199,1200,1201,1202,1203,1204,1205,1206,1207,1208,1209,1210,1211,1212,1213,1214,1215,1216,1217,1218,1219,1220,1221,1222,1223,1224,1225,1226,1227,1228,1229,1230,1231,1232,1233,1234,1235,1236,1237,1238,1239,1240,1241,1242,1243,1244,1245,1246,1247,1248,1249,1250,1251,1252,1253,1254,1255,1256,1257,1258,1259,1260,1261,1262,1263,1264,1265,1266,1267,1268,1269,1270,1271,1272,1273,1274,1275,1276,1277,1278,1279
A1002KPN,0.003600037,-0.05172907,-0.008849144,0.060819164,-0.07424242,-0.015023551,0.007754343,-0.059934165,-0.0076824855,0.06438934,-0.019421257,-0.0070258994,0.11364993,0.09941049,-0.025514252,0.08040149,0.048199747,0.05950817,-0.008370426,-0.0387518,0.05503309,-0.056040995,0.052281596,0.024056684,-0.00584407,0.0028621596,0.0010883156,-0.017378025,-0.0063881334,-0.12662725,-0.012822644,0.012787598,0.09089269,0.045359373,-0.0049713086,0.015150946,-0.01996912,-0.023592003,-0.014349695,-0.012101352,0.03216305,0.040951855,0.12960108,0.016240593,-0.03815778,-0.066711366,-0.088291615,0.036626767,-0.0042074453,-0.049132556,-0.03507693,0.04876845,0.05963711,0.04204574,0.025811106,0.0014961422,0.009296273,0.031372476,0.02782837,0.0039818985,-0.14720258,-0.010129757,-0.060245976,0.06828651,-0.0035903743,0.021388983,0.08408669,-0.06212209,0.0600511,-0.03474893,-0.00025548085,-0.06539919,-0.015405778,-0.07654452,0.01243063,-0.02534171,0.02055331,0.15623567,0.023329077,0.048830602,-0.0112479245,0.014273739,-0.07306377,0.10683,-0.026584709,0.004752916,0.0770621,0.0643971,0.106730096,0.026970038,0.06986901,0.06922935,0.004450217,-0.03328964,-0.035597336,-0.03107604,-0.010901025,0.016758133,0.07645005,0.03574918,0.044203408,-0.01595492,-0.044254486,-0.05814304,-0.00966002,-0.04180349,-0.03889745,0.019332433,-0.04855758,-0.024572033,-0.01706896,-0.002159045,-0.028469272,0.034349363,-0.017771188,0.017184317,-0.15864511,-0.08804852,0.0029720943,0.079772025,-0.03331752,-0.005622876,0.06710693,-0.004999048,-0.025236772,-0.066109635,0.0509212,0.0042054676,-0.07751277,0.05725933,-0.018282069,-0.03194606,-0.02032583,-0.045369133,0.011955286,0.08347211,-0.004152245,0.10726896,0.034298796,-0.035895076,0.045634445,-0.08823398,-0.021826968,-0.0056009865,0.044028472,0.19292782,-0.070944324,0.039457086,-0.04020121,0.025854997,0.08276076,-0.004828576,0.017374484,0.03204514,0.01884038,-0.1368603,0.08021596,0.076095924,0.032915846,0.0571358,-0.03742133,0.08886956,0.06765877,-0.056792293,-0.021117942,0.0116238855,0.069018595,0.018549804,0.097711556,0.009630554,-0.028254472,-0.013301224,0.089691974,-0.043042466,-0.08062065,-0.0183594,0.009101381,0.060492236,0.060960248,0.0052187596,0.012517311,-0.011527593,0.024098022,0.024823325,0.016067041,-0.047126286,-0.06098787,-0.014572065,-0.067280896,-0.029087232,0.007103443,0.11474938,0.047073554,-0.043720875,0.12148803,0.018196898,0.020836312,0.058664586,-0.07582528,-0.029515054,0.043277796,0.032382086,-0.072740056,0.060211763,-0.017292954,0.013675802,-0.013177986,-0.03125044,-0.11100538,-0.13929401,0.09239958,0.029076615,0.011539323,0.06937981,-0.056169793,-0.020830385,0.012602006,0.016929036,0.1074928,0.020520665,-0.026763966,-0.054359846,0.038806986,-0.06304538,-0.014481772,-0.07563157,-0.16717036,0.052530322,-0.13438103,0.06361874,0.10308462,0.016522096,-0.06064822,0.0361318,-1.1713613,0.03548413,0.18990095,0.019163003,-0.045870464,-0.06121581,-0.029504133,0.073516905,-0.019130815,0.02844421,0.028376082,0.04281581,0.043281484,0.0150566185,0.028845115,0.045112126,-0.11360142,-0.010750275,-0.095807254,-0.02627299,-0.022150517,0.06673973,-0.006911742,0.0028138566,-0.035664372,-0.1667081,0.09479983,0.02673457,0.05528077,0.06712768,-0.042410478,-0.04926837,-0.064074524,-0.07915438,-0.0028908039,-0.013096551,-0.029895494,0.05178169,-0.015249646,0.020089291,0.012866793,-0.014424328,0.030161954,0.036490288,0.024186773,-0.03149073,0.0044355043,0.0051614097,0.11060229,-0.004835259,0.014695065,-0.10374705,0.022072684,0.030942596,0.0150837,0.06362066,-0.0038685417,-0.0057109403,-0.06609912,-0.09206876,-0.0332781,-0.015192624,-0.018517474,0.0656344,0.08676792,0.013495073,0.110094845,0.013908197,-0.08837441,0.05326212,0.024850717,0.017803231,-2.5327836e-06,0.046525806,-0.00199687,-0.06254575,-0.016501607,0.016916733,0.032274902,-0.03466584,0.007482151,0.028143333,-0.034529205,-0.032623656,0.006706078,-0.017147547,0.028852198,-0.009858324,-0.04189462,-0.0083598625,-0.04093074,0.049184497,0.011371989,0.031448584,-0.055049077,-0.0228635,-0.03801133,-0.01422137,0.10190853,0.03591066,-0.10966714,0.006040986,0.13359374,0.0012627547,0.048020843,0.017953988,0.029865086,-0.046370666,-0.06953357,-0.022952147,-0.09927493,-0.06509795,-0.053297408,0.024946988,-0.01718788,-0.078250095,0.060732022,-0.02571597,0.023728132,-0.018834893,0.10486579,-0.015711652,-0.015065093,-0.01962405,-0.039013844,0.007000694,-0.025203884,-0.016543932,-0.010718647,0.032143146,-0.017354378,0.024520852,0.10523219,-0.03333731,0.009503864,-0.05398846,0.08992389,0.10195946,-0.04821339,-0.03623919,0.04783512,0.08321729,0.0003797708,0.116726145,0.07513185,0.043672536,-0.009606239,-0.119054705,-0.06030516,0.0064425264,0.018251056,-0.02982111,-0.050103016,0.0016349196,0.006973929,0.037396386,-0.0032325154,-0.021557748,0.045716457,0.08516819,-0.037678644,-0.08874137,0.070205584,-0.0018078131,0.01957303,-0.000109218265,-0.015020121,-0.0035810256,-0.048384324,0.06795134,0.008998096,0.03073337,0.031178027,0.0047006235,0.019464,-0.10945962,0.07178331,0.0034872852,0.06746165,-0.056363616,-0.008839609,0.026664926,0.11279203,0.13184659,0.059983287,0.029380394,-0.037354033,0.023116523,-0.020376883,0.11258553,-0.008551861,-0.024163224,0.019988552,0.042535294,0.07327919,0.011923892,-0.044202812,0.06588449,0.004444901,-0.009535917,0.02336962,0.032161396,-0.0027347866,-0.008514311,-0.030083034,0.021529047,0.026615098,0.04702309,0.038207665,-0.10182677,0.03658621,-0.02550195,0.06361945,-0.032092944,0.039116718,0.041874364,0.056258116,-0.005905661,-0.0254331,-0.007763783,0.03017266,0.012339219,0.007856721,0.007770896,-0.02484145,0.16852564,0.06960864,0.006161403,0.026747664,-0.0741494,0.053854316,-0.033093095,0.02936677,0.05370045,0.075748995,0.090228036,-0.05128868,-0.0132177565,0.07246007,-0.005614684,0.03655106,-0.06010489,-0.05021852,0.007024572,-0.045498326,-0.028691772,-0.05441313,-0.037539676,-0.0087415315,-0.024079144,0.07271172,-0.022975307,-0.00025776005,0.004017273,0.051512524,0.03551528,-0.0019058543,-0.040005557,-0.077999815,-0.012210198,-0.019267555,0.060035124,-0.014589649,-0.043023266,-0.057749517,-0.038384333,-0.073585615,-0.07498532,-0.09617588,-0.014455738,-0.05894219,0.03806437,0.021846138,0.11417336,-0.03366907,-0.008345429,0.042711783,0.0062565124,0.029041873,-0.07255013,-0.003110622,-0.043786567,0.013441353,-0.081281774,0.018325858,-0.06847575,0.008331005,-0.053139284,-0.022374857,0.03441284,-0.04389573,-0.116484866,0.032412343,0.01101466,-0.00717978,-0.044894017,0.018576298,0.09821053,-0.0022179955,-0.0275407,0.028654685,-0.016110953,0.040688038,-0.036016274,-0.17501643,0.04154563,-0.062146552,-0.016417805,-0.013652886,0.107399695,-0.052052863,-0.024383944,0.05034616,-0.04678406,0.013452474,0.0030539492,0.0064428374,0.012278585,-0.12474986,0.13939434,-0.020564178,-0.064459056,-0.17293334,-0.026761476,-0.010328894,0.032403633,0.01753173,0.032834187,0.031093724,-0.025751093,0.16457641,-0.0637452,0.04899972,0.06996739,0.09335472,0.033322882,0.014394505,0.15713154,-0.032967627,0.017877687,-0.03206268,0.112143956,0.0045322385,0.05784675,0.051750105,-0.015487309,0.04250084,-0.048753094,0.012670225,0.0683933,0.01798394,0.060258284,0.020495333,0.012138688,-0.037817433,0.08671822,0.030562345,-0.06370679,0.054252725,0.061971698,0.09422339,0.04290175,-0.041432653,0.008316688,0.06119109,-0.06429715,0.028262513,0.009945565,0.028484456,0.028885867,0.031675644,0.088849515,-0.010839117,0.0009890681,-0.036999926,-0.011517797,0.015027449,0.009900268,-0.036476906,-0.044835135,0.013933829,-0.0012712231,0.0030388625,0.009577423,0.0360675,0.006049205,-0.01035589,0.008958592,-0.033834733,-0.04417654,-0.009993168,0.09812032,0.029845642,0.010276545,0.06178924,-0.030643977,0.0038006364,0.018578976,-0.00061737583,-0.0042742696,0.04841167,0.018802622,-0.003362087,0.017268205,-0.040256936,-0.0322732,-0.12902683,-0.05244753,0.019208886,0.0024263908,0.06601006,-0.04131388,0.05319032,-0.013683202,-0.039206598,0.023101104,-0.025542296,0.17326014,0.050635055,-0.017384244,0.02095576,0.017943865,0.03156991,0.073074974,-0.072344854,0.13786353,-0.0056924,0.006636281,-0.052694473,0.05963792,0.062218104,-0.0056982148,-0.0132452,0.007405512,0.044259444,0.019642843,0.018308323,-0.078808375,0.015985066,0.031644583,0.004427138,-0.010924631,-0.017955717,-0.0019957104,-0.004806016,-0.021303335,0.014653653,0.006373333,-0.06312716,0.15360856,0.07214288,-0.08622453,0.006531982,0.091211036,0.010396685,-0.010666322,-0.11533553,0.003771074,-0.043713756,0.0069665452,0.054429155,0.026235571,-0.047633525,-0.05950754,0.07284755,-0.07522677,0.12809294,0.055545554,0.037786264,-0.018174598,0.026112063,0.004852975,0.089099675,-0.027953003,0.0015962627,0.096536614,-0.027674202,-0.08497237,-0.09437245,-0.0016199925,0.032810304,-0.026642062,0.008149854,0.056199737,-0.0044099744,0.05549683,0.03408513,0.015130775,0.0044058897,0.04068157,-0.034342356,-0.09376698,0.0035478745,0.008505431,0.0038297272,0.035383426,-0.062268496,0.008457566,0.078046456,0.031926047,-0.01580775,0.061989494,0.013283739,-0.010481292,-0.0138160605,-0.062239032,-0.039079476,0.05642111,-0.013014055,-0.018479543,-0.040048942,-0.07120189,0.03471413,-0.029674266,0.07916974,0.10818719,0.015352992,0.08463621,0.06985,-0.043318793,-0.01755152,-0.0074340757,0.06530767,0.0053338422,0.008419539,-0.047176536,-0.1012609,0.06799244,0.06849344,-2.810897e-05,-0.06441985,0.03576452,-0.019717773,-0.024722237,0.021858513,0.038167972,0.05169244,-0.046746053,0.01308373,-0.0056914506,-0.061967593,0.08988944,0.005104231,-0.01805524,0.03520797,-0.018219179,-0.025184141,0.03484235,-0.025367364,-0.016089447,-0.02773004,-0.021593936,0.20375896,-0.08010403,0.054562137,0.071327776,0.023472758,0.028260533,0.0036281694,0.1329505,-0.060026363,0.023498407,0.033531383,-0.04130451,-0.10610306,0.002904083,-0.014394383,0.035261128,0.013545319,-0.06162809,0.024395324,-0.025669646,-0.008215871,-0.030507157,0.0055292863,-0.06619084,0.059293773,-0.064047694,0.059144836,-0.0420884,0.029879225,-0.024725333,0.008091781,-0.016925462,0.047627494,-0.040585887,0.03335423,0.031289466,-0.083485626,0.0065011242,-0.07453449,0.008272785,0.036146127,-0.06845555,0.02594739,-0.015111932,-0.09552327,-0.08821411,-0.056105144,0.036098618,0.07082093,0.015471561,0.10578421,0.03716393,-0.020242425,-0.031730697,-0.113566704,-0.024424417,0.030336525,0.05583798,0.026574917,0.05217177,-0.0822657,-0.009742256,0.054483622,-0.022352586,0.0767276,-0.11497263,0.015400774,0.0005294428,-0.012347774,0.02116394,0.04894401,0.0895588,0.03064347,-0.025033891,0.031372454,0.025956227,0.0005730349,-0.025469128,-0.04668549,0.015436541,0.048598852,-0.081872165,0.01822897,0.056395404,0.002589402,0.034677926,0.13399845,-0.00036000647,0.026575608,0.024037816,-0.09705277,-0.025520688,0.058149353,-0.058545258,0.084622435,-0.016676575,0.041927025,-0.049427476,-0.032148387,-0.06982558,-0.005860612,-0.03909953,0.007747384,0.019352708,0.006422738,0.029650893,0.04911661,0.14732677,-0.08221392,0.025365999,-0.022415752,-0.0670078,-0.04224928,0.07201787,-0.0025450315,0.02735273,0.03478076,0.0033368175,0.02189762,0.025244433,-0.017759748,0.031841144,0.011502294,-0.045354225,-0.045900807,0.046548475,-0.06257854,-0.07163415,0.010444576,-0.026497602,-0.023368537,0.020088725,-0.0017319241,0.04636546,0.10589686,-0.04320973,0.026534,0.05050893,-0.07848473,-0.012029823,0.02688605,-0.036571532,0.0012934937,0.00053699315,0.0757239,-0.0404909,-0.061725125,-0.088660374,0.011211381,-0.017294407,0.10386459,0.14436011,0.058923475,0.0021839088,0.027694851,-0.018319024,0.10570074,0.06124733,-0.020461503,-0.022041954,0.045844894,-0.019527595,-0.046479955,-0.02720093,0.10513019,-0.0036761074,0.01583009,-0.024954814,-0.038408317,-0.07169363,-0.074588805,-0.036444854,-0.029583212,0.03465851,0.0041678357,0.07023805,-0.031922486,-0.011972412,0.001617308,-0.008274178,0.003630123,0.10392746,0.052913778,-0.019438311,-0.040754225,0.1150621,0.04138996,0.042279545,0.008679178,0.03980996,-0.00066440203,-0.027176984,0.040434435,-0.022025473,-0.05854799,-0.0127395885,-0.03351793,-0.03232044,-0.015859326,0.08448158,-0.049889274,-0.004294524,-0.048153874,0.044834085,0.0025355588,-0.032860655,0.042067416,-0.007361014,-0.058189776,-0.0043381928,-0.004812913,-0.00602722,0.08298904,-0.009421325,-0.050033186,0.01070319,-0.012141797,-0.023268526,0.0073084617,0.02741944,-0.0437038,0.0060098907,-0.036645938,-0.018828921,0.06645311,-0.02090121,0.01772538,0.038158804,0.030850682,0.057541415,-0.02011574,0.019949147,0.01921736,0.06852537,-0.07780346,0.11528489,0.06455703,0.035958644,0.028222684,-0.039860472,-0.07041479,-0.0027729308,0.0044964924,-0.050962884,-0.029081546,-0.034777522,0.029466566,0.0019034842,0.0056906734,0.14494568,0.025603507,0.008595038,0.0014544094,0.038791355,-0.028646436,0.0036457058,0.043798286,0.00989024,-0.03597742,0.004950852,0.023387652,0.051369317,0.014683046,-0.07323902,-0.062269542,-0.034346916,0.07281624,-0.051015276,-0.046539698,0.03709358,-0.006865493,0.08234033,-0.061724,-0.10644128,-0.046771716,0.01637778,-0.03334035,0.08712396,-0.036085878,0.003757258,-0.010568637,0.072443575,-0.010319214,-0.024566654,-0.017591156,-0.034490302,0.032393657,-0.028927006,0.094461784,-0.014454331,0.0091903405,0.06568757,-0.069710374,0.078921035,0.05941487,0.015292251,-0.09544464,-0.1180955,0.09454398,-0.015003918,-0.056948006,0.062482134,0.07502912,0.011037737,-0.026357898,0.016795171,0.07085146,-0.14194347,0.052440133,0.030571295,-0.034933526,-0.07875822,0.08516975,0.06558693,0.0010023669,0.0024854045,0.04622265,-0.12092532,-0.052957717,0.0007152009,0.020927664,0.05398634,0.0076023093,-0.060613044,0.0034425256,0.111439295,-0.067646824,-0.050186127,0.057225686,0.058932357,0.040522493,0.035986815,-0.002197152,-0.0055709463,0.08479409,-0.08407005,-0.026814597,-0.11733907,0.032683212,-0.0022906032,-0.0677327,0.051941205,-0.031885125,0.023397814,0.0056010387,-0.08800188,-0.018771382,0.073526084,-0.054849856,-0.11376715,-0.008047223,0.010080973,-0.011156689,0.010075975,-0.0286931,0.04635255,-0.0398774,0.012766525,-0.09977114,0.078478485,0.058503374,0.00010182336,-0.027620582,0.029738877,0.0058934665,0.017701464,0.0018918057,-0.039537758,0.0022954424,-0.009368271,-0.059032228,0.0006775425,-0.082252294,0.073529966,-6.2332354,-0.051810894,0.038824923,-0.02928351,-0.008814947,-0.022055585,-0.050777003,-0.056330323,0.09406849,-0.022691704,0.0732239,-0.007869863,0.042739104,-0.033098433,0.006370843,0.00023907154,0.024236389,0.017470557,-0.020240441,0.08068659,0.046690386,-0.020047262,-0.014688905,0.118260235,0.012719038,-0.009196099,0.022772394,0.0037453962,0.04020562,0.13259158,0.015837342,0.028457662,-0.058938026,0.09016065,0.040396724,0.13328403,0.038332257,-0.001401213,0.18538415,-0.062040992,0.033884484,-0.0684741,-0.029282548,-0.019933514,0.005139404,0.006026287,-0.03500709,-0.0767664,0.014740961,0.036533818,0.026565913,-0.0141629195,-0.013142453,-0.08721913,0.07003245,-0.0035520522,-0.027734645,0.10359954,0.05651366,0.07899054,0.064361185,0.023325585,-0.03517352,0.0491774,-0.008921868,-0.027960777,-0.051638395,-0.0038376648,0.010131429,-0.030590849,0.056466024,0.029195994,-0.011137518,0.0606557,0.033955645,-0.027196797,-0.0352129,-0.07675947,0.13969941,0.029517481,-0.121423125,0.08305395,-0.050394174,0.077483304,0.0879678,-0.03527883,0.07465747,0.09579033,-0.024991315,0.068419784,0.10253666,0.09978067,-0.022872804,-0.0034845322,0.031482965,-0.013821464,-0.066470556,0.038609687,0.04515098,0.02466204,0.02169708,0.035548262,-0.013377209,0.06443918,0.0077073434,-0.004996188,-0.03892256,0.040995806,0.036753595,0.08494177,0.023047416,-0.07012345,-0.06280157,0.017370638,-0.01957755,0.03895733,0.0838851,-0.10103232,-0.02284568,0.0548369
E0204,0.008684381,-0.054998625,-0.017633934,0.052549176,-0.08080331,-0.012068303,0.016531076,-0.07309261,-0.0011439696,0.054929506,-0.013065658,-0.016004859,0.11436051,0.10355021,-0.022259574,0.072918326,0.04314343,0.036035866,0.0022089856,-0.034684964,0.06186155,-0.051131837,0.051078517,0.026033685,-0.018326387,0.01949347,0.0025575447,-0.023441894,0.005765914,-0.13404296,-0.015735274,0.011503629,0.08418015,0.04440148,0.00083890645,0.009369803,-0.012484157,-0.011367763,-0.02965432,-0.006999663,0.025718825,0.026589701,0.13374302,0.0013112657,-0.04263111,-0.06915792,-0.06017078,0.05560271,0.0017607296,-0.050992757,-0.055624086,0.036689453,0.04771947,0.040680993,0.02464535,0.00051788136,-0.0008583612,0.019586079,0.017379077,0.016152367,-0.123992026,0.0020470214,-0.04008979,0.07634996,-0.009962339,0.034257025,0.08243012,-0.064077,0.08107981,-0.043251485,-0.0051321164,-0.07401329,-0.0044436427,-0.051665097,0.00498492,-0.016680082,0.024636805,0.16615157,0.023582593,0.06011186,-0.007677062,0.008052978,-0.07784295,0.10801699,-0.031069951,-0.005078019,0.06665576,0.054123834,0.09245676,0.019171217,0.07046331,0.07336296,0.009634377,-0.040697955,-0.03538961,-0.039036546,-0.0070537855,0.021858683,0.082531184,0.03684887,0.04778489,-0.013475318,-0.03299598,-0.06562331,-0.020553144,-0.04698541,-0.02946144,0.014694935,-0.042020302,-0.030246167,-0.0065171025,-0.012821187,-0.035577495,0.018668585,-0.020111281,0.021569777,-0.14774902,-0.083135165,0.0013453182,0.06954394,-0.03592562,0.0034361454,0.058338873,0.002779356,-0.026238754,-0.06116384,0.059185427,0.013209042,-0.077271275,0.053754717,-0.015377581,-0.023048427,-0.030367479,-0.04884607,0.0046563656,0.10271107,0.0074221236,0.1090896,0.024319574,-0.032338846,0.03818353,-0.07883729,-0.02711992,-0.0073182085,0.058097266,0.20733885,-0.060500056,0.043508854,-0.05029115,0.026477547,0.09608156,-0.015755812,0.011233396,0.03202624,0.020191245,-0.13102435,0.087831624,0.077292636,0.040624566,0.040532175,-0.04218923,0.08890009,0.055566214,-0.06619171,-0.008575144,0.033015598,0.08057283,0.015839126,0.098147236,0.017812891,-0.03605001,-0.0007855366,0.08437106,-0.039520662,-0.067175314,-0.017690836,0.0123843,0.05092141,0.079158284,0.0041639153,0.01764787,-0.01048811,0.0072147604,0.024722526,-0.005926261,-0.047363203,-0.059797622,-0.016346501,-0.061062932,-0.043110933,0.0045257392,0.10041469,0.038915463,-0.052773636,0.12449624,0.03398783,0.023995623,0.052669853,-0.08296732,-0.017238315,0.043668773,0.044777766,-0.075945534,0.05850361,-0.0201124,0.018505404,-0.011534754,-0.036325324,-0.13144809,-0.13699111,0.09014824,0.03425271,0.018276194,0.065874316,-0.08457773,-0.0066365846,0.023480043,0.005799531,0.110526286,0.01710792,-0.0155284945,-0.053141184,0.061977115,-0.058750935,-0.005841381,-0.06642157,-0.16206086,0.058120847,-0.13201067,0.06355238,0.098942645,0.0075825765,-0.07079174,0.036154665,-1.0409833,0.033333577,0.16819121,0.02782224,-0.05604369,-0.0793754,-0.02003563,0.058817584,-0.017943043,0.035812404,0.016392067,0.03478789,0.051773082,0.0272549,0.034866188,0.03143255,-0.11902402,-0.011471283,-0.0848976,-0.02731941,-0.030676652,0.067024715,0.00060853857,-0.0012980739,-0.03823646,-0.15918246,0.09482166,0.03300836,0.03628272,0.075237885,-0.049285673,-0.061895933,-0.0693789,-0.073787026,-0.01291725,-0.016778095,-0.021506583,0.05694601,-0.022840895,0.022253582,0.012039186,-0.006573031,0.04076485,0.035300963,0.018728996,-0.03402949,-0.0029810742,0.011935177,0.11077218,0.0028082293,0.01916886,-0.1054248,0.020720175,0.04490853,0.027122144,0.061333053,0.0002997294,-0.009877334,-0.05536247,-0.08075261,-0.04559012,-0.012246134,-0.014893518,0.08106104,0.100119434,0.010642734,0.11224547,0.019442985,-0.08483046,0.04888937,0.020896861,0.023515427,-0.0041801175,0.052827336,-0.0028535482,-0.06540265,-0.040917654,0.014061264,0.020341739,-0.026717553,0.013395508,0.027175015,-0.044071004,-0.036181558,0.0041672876,-0.016992692,0.016523413,-0.010628713,-0.02950956,-0.0043631196,-0.049201075,0.02516447,0.00898651,0.01952174,-0.06503912,-0.02528098,-0.032246787,-0.016277572,0.10433871,0.03774086,-0.11851355,0.0050264904,0.1263223,-0.011927895,0.043701317,0.018600002,0.037494976,-0.041633174,-0.08618625,-0.017079582,-0.09050578,-0.06424838,-0.042607907,0.025381718,-0.014314635,-0.06348415,0.042444907,-0.032439392,0.014312706,-0.035982113,0.1142918,-0.011752536,-0.0041530514,-0.01696564,-0.039943118,0.013971821,-0.029997729,-0.011847147,-0.020067612,0.040082105,-0.01105146,0.021127746,0.10692945,-0.029734423,0.020601777,-0.05534779,0.10904308,0.09047868,-0.027376147,-0.034497086,0.034429934,0.0740828,0.0037630717,0.117340766,0.0897501,0.04193393,-0.006603974,-0.10832481,-0.059752256,0.017358726,0.01973919,-0.018358054,-0.04886498,-0.011267258,0.0037451233,0.04039802,-0.0128209535,-0.018034805,0.029900495,0.07389803,-0.029333944,-0.07775679,0.095202655,0.003144535,0.019150522,-0.015764458,-0.014163378,-0.0060426104,-0.052210398,0.064012356,0.009305712,0.035952576,0.029368058,-0.016876506,0.016268067,-0.1058285,0.06604423,-0.004047524,0.06859037,-0.049444687,-0.0015028786,0.03653502,0.104861975,0.12462541,0.059703533,0.018031089,-0.04224472,0.033347297,-0.01632735,0.098946355,-0.004254377,-0.01989457,0.014235922,0.0456034,0.088012315,0.02261066,-0.026727103,0.06323105,0.008836237,0.008280417,0.0165045,0.021707946,0.0032252003,-0.0018562804,-0.03322401,0.0128826685,0.0132452985,0.04841423,0.028323375,-0.0984507,0.047121078,-0.03310007,0.059407342,-0.038902514,0.048003968,0.02348608,0.06332783,-0.020395286,-0.015330938,-0.002124374,0.036981832,0.016003963,0.030075891,0.021989616,-0.025417773,0.17955978,0.058605544,0.019044986,0.02196733,-0.07143666,0.043020807,-0.03446462,0.027776865,0.04076579,0.07203198,0.07477434,-0.047569823,-0.008564089,0.08184145,-0.0036356775,0.043130666,-0.05721552,-0.03937966,-0.004520766,-0.047606878,-0.020259103,-0.049483236,-0.035627864,-0.009270571,2.8475055e-05,0.04625195,-0.02274072,-0.009710786,0.00692716,0.0540363,0.033103533,-0.02246789,-0.045663603,-0.089342006,-0.006260083,-0.011179601,0.0794893,-0.005491307,-0.042596087,-0.0507253,-0.030388216,-0.07890166,-0.085513495,-0.07587961,-0.011609085,-0.056300335,0.04172714,0.008085035,0.12844092,-0.022977175,0.0053528124,0.03391158,0.002177915,0.018702168,-0.0719704,0.016918644,-0.03764584,0.023737755,-0.08984975,0.02179005,-0.074415006,0.01793881,-0.056256633,-0.022026885,0.035988923,-0.0496886,-0.131834,0.03455773,0.0194711,-0.002329673,-0.041136045,0.030332435,0.10677535,0.0054502445,-0.021791216,0.022730265,-0.013693319,0.047379307,-0.048376746,-0.17607196,0.042615835,-0.054198653,-0.029905677,0.0020366544,0.106685944,-0.047838587,-0.036879722,0.044445924,-0.04022423,0.006188169,-0.0010112406,0.013504551,0.026902143,-0.11981727,0.1593209,-0.006815696,-0.0823313,-0.18005718,-0.026748175,0.0008571116,0.021807006,0.015787624,0.039794426,0.018026317,-0.00766864,0.16840604,-0.05690591,0.046703227,0.058701117,0.0728685,0.027678445,0.011030276,0.16283171,-0.036138464,0.01038543,-0.027551688,0.107119106,-0.0034897598,0.056778464,0.047606353,-0.022423396,0.032845452,-0.050395966,0.010572298,0.10862608,0.0061550597,0.06273552,0.018579029,0.012392546,-0.039222997,0.07914774,0.017764704,-0.06320149,0.06841505,0.06199247,0.09508306,0.054218736,-0.038211253,0.0064794044,0.051428556,-0.07629823,0.0041897274,0.007210711,0.0044590887,0.013586017,0.012986632,0.08734174,-0.014485029,0.0052202367,-0.029275917,-0.0083688265,0.011494343,0.011756984,-0.04539393,-0.034558825,0.015493594,-0.008243556,0.014814745,0.0074124592,0.046673436,0.005009904,-0.012453648,0.010571432,-0.037794095,-0.035232954,0.008398083,0.111482404,0.0301903,0.008488064,0.08095565,-0.02900906,-8.150031e-05,0.017126331,-0.0037410047,-5.0979e-05,0.051124685,0.015875356,0.0014774319,0.009574743,-0.039330456,-0.023739772,-0.13402793,-0.052116007,0.044990886,0.0026262025,0.06348226,-0.052677665,0.06412436,-0.011030121,-0.045631953,0.015139418,-0.008128298,0.17638552,0.04508092,-0.016817048,0.01345865,0.004825144,0.03886827,0.07300185,-0.090319395,0.13609597,-0.012125289,0.009131042,-0.059040945,0.048926942,0.06837663,-0.014899197,-0.023175841,0.013575088,0.047083173,0.022794675,0.017929483,-0.068560496,0.014843153,0.007574588,0.00046660964,-0.014521008,-0.026330888,0.0047151893,0.0047388296,0.0024503022,0.013825059,-0.00884604,-0.06369113,0.17240742,0.07938468,-0.09032766,-0.0012678424,0.08677725,0.006214603,-0.00902623,-0.076825485,0.005982963,-0.037942596,-0.0045405296,0.05029034,0.03830273,-0.05529743,-0.07301885,0.08431925,-0.07897256,0.13509838,0.038329534,0.039293677,-0.008892945,0.021475237,0.011755367,0.08563372,-0.026552266,0.005333946,0.091139324,-0.017015815,-0.09398187,-0.084841505,-0.000983299,0.046214163,-0.021974321,0.022039108,0.070441626,-0.027060857,0.056314543,0.027553061,0.013522514,0.01703508,0.033945285,-0.024165733,-0.07238091,0.018830981,0.0055300947,0.0119223185,0.046853013,-0.056799356,0.00064983184,0.09056379,0.034853,-0.018202616,0.05688253,0.051677305,0.0022581976,-0.04181797,-0.061152764,-0.039997082,0.058666978,-0.014760873,-0.017983489,-0.023836885,-0.0700136,0.026629874,-0.031872094,0.05825665,0.09207981,0.004050152,0.08003889,0.06965186,-0.05152697,-0.0134353265,-0.018133488,0.072866574,0.0077027963,0.010728866,-0.051503886,-0.11917365,0.068676315,0.060884584,-0.00062375446,-0.06925305,0.033112913,-0.04165551,-0.028638102,0.0068340222,0.0489484,0.046614155,-0.047348015,0.011136867,0.002847809,-0.07094617,0.09707293,0.0035435562,-0.012795413,0.042964283,-0.03951567,-0.023343202,0.061339337,-0.03605349,-0.020786311,-0.048890904,-0.020976808,0.20537099,-0.07481308,0.054554217,0.054218512,0.03693785,0.04036024,-0.014142732,0.12676767,-0.06832791,0.011071608,0.028732618,-0.040002238,-0.08729063,0.0056512067,0.006724883,0.054149326,0.007576012,-0.048024554,0.019435985,-0.036008842,0.0009639412,-0.025927138,-0.0014978424,-0.06886919,0.04756842,-0.06214274,0.051613826,-0.035858,0.012965573,-0.016695602,0.010002095,-0.008084719,0.06590277,-0.033668794,0.024246514,0.037348084,-0.08098995,0.018789116,-0.08118068,0.019888598,0.030858561,-0.084932186,0.023692092,-0.0051978067,-0.07846401,-0.07903602,-0.062091872,0.033121247,0.064855136,0.020607337,0.10735997,0.029737808,-0.020904167,-0.011166028,-0.11399337,-0.033400144,0.028263135,0.055759735,0.032771178,0.049748786,-0.06676229,-0.01834759,0.053660054,-0.03759962,0.07454568,-0.108061254,0.013696511,-0.014032178,-0.025012726,0.011956844,0.05734086,0.06380076,0.03347075,-0.030758338,0.032730244,0.01736622,0.004078033,-0.023910806,-0.03965035,0.017404731,0.04851996,-0.08134836,0.025623998,0.05343833,-0.006268937,0.03418837,0.137264,0.0079901265,0.025656862,0.017949158,-0.084156886,-0.024300644,0.051463917,-0.05725023,0.099469684,-0.012228672,0.03568185,-0.03302631,-0.042280894,-0.076283604,-0.019322079,-0.03293449,0.0074853855,0.021978533,0.0012208534,0.019114695,0.060987994,0.14346868,-0.08181307,0.02833517,-0.018117813,-0.08191323,-0.058453355,0.063560314,0.0020029072,0.02483357,0.034266368,-0.0015790666,0.014221638,0.027776701,-0.037858207,0.04058294,0.018150678,-0.053340204,-0.06211248,0.039370578,-0.052280743,-0.06848657,0.003609146,-0.019969685,-0.017202778,0.01486475,-0.015564082,0.061440207,0.089638755,-0.040968508,0.031246835,0.065138996,-0.06601697,-0.016683105,0.031584777,-0.035234742,0.0028229253,-0.0031867456,0.0636086,-0.04424413,-0.06969011,-0.09633482,0.017096927,-0.031806998,0.11823229,0.15160598,0.055049974,0.006149322,0.020537373,-0.014244167,0.10949699,0.068638824,-0.03259313,-0.028633282,0.05849185,0.0024047184,-0.052270338,-0.025039798,0.11093008,-0.0056288103,0.018810993,-0.007534965,-0.03619427,-0.09168661,-0.07158536,-0.034993127,-0.030689932,0.044489697,0.017447753,0.07615517,-0.052777596,-0.02515839,-0.0021796233,-0.009684546,-0.013849599,0.07701555,0.047544606,-0.022764353,-0.041023564,0.09326677,0.03190843,0.02471957,0.01832381,0.039014917,0.000196818,-0.024465399,0.046063114,-0.041670293,-0.06844746,-0.028413191,-0.030861327,-0.027466416,-0.010484797,0.0746529,-0.050204318,-0.015732706,-0.054925926,0.066044725,0.011420669,-0.034316834,0.04276815,-0.008108934,-0.056328278,-0.0027741257,-0.015106104,-0.012524491,0.083074406,0.013810344,-0.05302581,0.0019017613,-0.012391387,-0.027525323,-0.00067585567,0.03811544,-0.04656171,-0.0054499162,-0.037571263,-0.031360902,0.06964788,-0.03295793,0.025654094,0.033508614,0.032483257,0.06308998,-0.02118597,0.03005069,0.007120822,0.07350937,-0.085209854,0.111178026,0.06058417,0.03437315,0.030384138,-0.047200415,-0.08332996,-0.020187493,-0.00608112,-0.046314232,-0.016719654,-0.036289617,0.037566684,0.02053006,-0.009133508,0.16358079,0.01599111,0.010779821,0.008826958,0.046251092,-0.04056312,0.010913903,0.031117156,0.0072366353,-0.04295526,0.006031891,0.026497677,0.053474467,0.020436296,-0.06792174,-0.06277249,-0.030490296,0.061485678,-0.04057157,-0.04809131,0.03445801,-0.0018876626,0.0838967,-0.046765584,-0.103840984,-0.0552634,0.031823125,-0.026286885,0.088029005,-0.039947815,0.0025424715,-0.0108748805,0.07748058,-0.010535692,-0.034257095,-0.028868195,-0.041789223,0.040195417,-0.02469996,0.07704384,0.0015936019,0.01601864,0.067033336,-0.093090124,0.08416227,0.050672714,0.012522544,-0.08996918,-0.11478816,0.08999018,-0.016901627,-0.04640691,0.06358482,0.08427429,0.0055502383,-0.035784855,0.012279616,0.07898668,-0.13843732,0.049778778,0.030250164,-0.035840783,-0.08635014,0.08209957,0.09079893,-0.0031116416,-0.011655688,0.038907178,-0.11536791,-0.05154863,-6.17364e-05,0.03485782,0.056370758,-0.012283333,-0.06968316,-0.02083139,0.10459271,-0.057740025,-0.052444305,0.046176795,0.052918643,0.037217487,0.055267673,0.0024772824,-0.023306359,0.07558364,-0.07581912,-0.023964986,-0.11401667,0.03858239,-0.016754465,-0.068828754,0.054786354,-0.024501404,0.010999647,-0.00828408,-0.07413364,-0.002834252,0.07478031,-0.045313187,-0.11734737,-0.01695244,0.007218981,-0.003092526,0.02147732,-0.021069087,0.02388836,-0.033794276,0.008379687,-0.088693485,0.065672316,0.053944554,-0.0072665866,-0.02756962,0.02673848,-0.003446923,0.0075245295,0.0063023916,-0.027102515,-0.004103459,-0.015672537,-0.054994352,-0.0051226276,-0.083669834,0.081270345,-6.0556087,-0.08462731,0.03980295,-0.02768944,0.0025724878,-0.021618234,-0.047692627,-0.056648344,0.1052594,-0.030972674,0.07707082,-0.014253958,0.04186483,-0.020095391,-0.0054449164,0.010781265,0.018453712,0.006056706,-0.026270812,0.0734817,0.050852735,-0.016365208,-0.014051927,0.13600235,0.005851126,-0.02144206,0.028829314,0.012069817,0.046356954,0.124251105,0.014155369,0.008593103,-0.0500372,0.08450335,0.0356942,0.13399273,0.040208105,0.0032831992,0.17812777,-0.06208008,0.04699604,-0.09506742,-0.020126171,-0.005184625,0.010996701,0.0058948738,-0.049729235,-0.07670542,0.028047165,0.028964803,0.035908602,-0.0114102485,-0.0030440716,-0.07987672,0.057449386,-0.014194862,-0.020859744,0.11534424,0.04313461,0.08281783,0.06077011,0.006349298,-0.031338006,0.045618407,0.0003606528,-0.034785382,-0.06679554,-0.022737721,0.00551186,-0.04378032,0.056809466,0.013976503,-0.0096696485,0.068741895,0.01666834,-0.011911384,-0.04188455,-0.07687963,0.12925802,0.025405793,-0.11656886,0.07250998,-0.040102355,0.082002416,0.08755763,-0.024496129,0.048754424,0.09742669,-0.03357174,0.07890016,0.12567231,0.08924603,-0.03218074,0.0038375992,0.023271317,-0.023784332,-0.055150848,0.035930045,0.048106022,0.042371638,0.02810339,0.04463574,-0.0049206805,0.06916307,0.025958197,-0.013619054,-0.03659518,0.033502996,0.028794862,0.07077721,0.025794527,-0.062757775,-0.060490675,-0.0014025734,-0.026074268,0.03388412,0.08425335,-0.118207544,-0.014884222,0.06583674
k4159,0.0069990354,-0.068023294,-0.016649662,0.05095616,-0.07460684,-0.01211558,0.01812581,-0.07756505,-0.008568073,0.047908176,-0.011038632,-0.017777346,0.117856026,0.105916955,-0.022719372,0.07597263,0.04829731,0.036636133,-0.0005780676,-0.018689124,0.061537378,-0.051686157,0.040818788,0.012572596,-0.016316233,0.023554303,-0.0007004157,-0.018158933,0.003940401,-0.13269286,-0.023705553,0.018034093,0.092497006,0.031934787,0.0059546004,0.0104837045,-0.011299198,-0.0104398895,-0.035149645,-0.0031308003,0.02470497,0.018673385,0.12689058,0.002589195,-0.038054995,-0.0637652,-0.05709343,0.057802092,-0.006062678,-0.055259578,-0.048004024,0.03616016,0.05049367,0.043372504,0.015098058,0.00025967788,-0.0030047453,0.017343754,0.021697473,0.019270057,-0.121122465,0.0036344733,-0.044373076,0.07586015,-0.003201374,0.039699327,0.078733094,-0.059088428,0.089452654,-0.051837634,-0.0023440167,-0.081515916,-0.007829682,-0.05137825,0.0077688335,-0.011286279,0.028407354,0.16328458,0.023391625,0.059386045,-0.0127314525,0.010216809,-0.0796978,0.09759352,-0.026827276,-0.0034597695,0.06583067,0.06273707,0.09674135,0.013838875,0.073544405,0.070540056,0.00818716,-0.043013785,-0.041773684,-0.03784684,-0.010455356,0.024860715,0.081827156,0.030805722,0.04783278,-0.022453876,-0.039851278,-0.05401836,-0.020464119,-0.04061111,-0.02978099,0.0037832565,-0.037598312,-0.02839749,0.007826345,-0.014808792,-0.038957253,0.027793977,-0.014981426,0.021986637,-0.14582095,-0.078486785,0.003878323,0.07132101,-0.036501013,0.002276211,0.05709397,0.0064106337,-0.0415786,-0.056807775,0.059547257,0.014830214,-0.086361155,0.05687762,-0.025661463,-0.0023667417,-0.028503384,-0.05392716,0.0042346166,0.11336203,0.017665941,0.10744657,0.023349073,-0.04022638,0.039410017,-0.07618148,-0.021444485,-0.011183907,0.055832755,0.20449515,-0.06092263,0.03928566,-0.051732123,0.024743414,0.09331541,-0.013464752,0.013370328,0.03179633,0.012280604,-0.13144499,0.07541625,0.07398314,0.03632676,0.042967416,-0.04489623,0.0800431,0.055979162,-0.06820659,0.00012782216,0.033879858,0.08854977,0.022797808,0.08557046,0.0044422443,-0.037399136,0.009074984,0.07694371,-0.044820797,-0.05313735,-0.023558384,0.016784485,0.044251412,0.07445668,0.0070594503,0.018818365,-0.0073078596,0.012657829,0.021392727,-0.0055111675,-0.04946326,-0.06051653,-0.011211628,-0.0661023,-0.041065685,0.0116026355,0.10074004,0.042477075,-0.055807125,0.12340249,0.03494903,0.023864156,0.053157836,-0.07531151,-0.008132085,0.043809816,0.037248414,-0.06713651,0.06410992,-0.017129961,0.016666163,-0.007549419,-0.035076577,-0.1302596,-0.13635641,0.098393746,0.030196652,0.026441287,0.0731183,-0.08288633,-0.014744642,0.023432802,-0.0014628066,0.10676853,0.021406285,-0.012862809,-0.055282045,0.056578584,-0.056516152,-0.0061800997,-0.068491526,-0.16686161,0.053549808,-0.13634208,0.063208625,0.09693446,-0.0049832324,-0.07766774,0.030583134,-0.9147538,0.033302873,0.16750678,0.039266665,-0.06231029,-0.08518802,-0.017829468,0.060824096,-0.012358705,0.03598768,0.01379551,0.03164921,0.049954582,0.023465637,0.03737653,0.040070973,-0.13281623,-0.01316333,-0.07042911,-0.023303185,-0.03269431,0.059341002,0.0075735166,-0.0054884865,-0.035629246,-0.1658853,0.0912112,0.027535612,0.029346507,0.07370609,-0.042185463,-0.05941415,-0.06065885,-0.07609781,-0.0037788593,-0.011300562,-0.022338863,0.06117494,-0.021567203,0.013129023,0.012326175,-0.011768578,0.045786195,0.037320323,0.018846478,-0.033029817,-5.7300554e-06,0.013826092,0.1088538,0.0056116553,0.020225797,-0.11661588,0.022558508,0.04046482,0.035804693,0.06321778,0.000876303,-0.00069552555,-0.05575184,-0.08453999,-0.029412065,-0.017863996,-0.019119153,0.074963816,0.09565873,0.008313942,0.113870464,0.019432075,-0.090819344,0.044900868,0.01892772,0.018259598,-0.01767475,0.050364286,-0.004532759,-0.06406452,-0.0280617,0.009838155,0.020337788,-0.022408836,0.011513746,0.015150601,-0.04089718,-0.03134337,0.0015423943,-0.018000413,0.02146722,-0.005811979,-0.022011036,-0.011180313,-0.049813412,0.019763222,0.006626883,0.024152962,-0.06339182,-0.032749683,-0.03481208,-0.013901809,0.09869722,0.030777002,-0.12313639,0.0022626244,0.11770592,-0.009082803,0.051986557,0.01923279,0.033125438,-0.046519123,-0.080268815,-0.024967697,-0.09119247,-0.064964235,-0.03697243,0.022776242,-0.015851634,-0.06865813,0.04581093,-0.03327122,0.018640473,-0.036148887,0.11142019,-0.007078535,-0.010048425,-0.019709248,-0.03759326,0.01333496,-0.019211853,-0.010382118,-0.025764525,0.04269172,-0.0145630045,0.019091478,0.101120844,-0.026791623,0.027017757,-0.06201291,0.107223414,0.088961266,-0.022298714,-0.038493544,0.050408155,0.07823453,0.010467739,0.11305106,0.096988365,0.03846792,-0.008420484,-0.10103317,-0.054305248,0.024557075,0.02977601,-0.0203349,-0.053758763,-0.009922776,0.0049485317,0.034023084,-0.0108298035,-0.014577212,0.021319127,0.07521636,-0.035688512,-0.07117981,0.09001343,0.0041337525,0.015170211,-0.022191023,-0.021844644,-0.013126142,-0.046023984,0.070253454,0.0010898398,0.033154063,0.026088092,-0.01711011,0.014857367,-0.09994455,0.059484847,-0.0008607557,0.064155065,-0.05487438,-0.0002368722,0.03249986,0.1081513,0.11576128,0.071737066,0.012037647,-0.041349243,0.029879143,-0.023776617,0.09084734,-0.008244524,-0.020098465,0.014966871,0.040074963,0.083572045,0.022398492,-0.015833601,0.0681172,0.012013647,0.0082580615,0.0030701507,0.021245638,-0.0021594528,0.0034886748,-0.029303271,0.014970114,0.011243075,0.045439675,0.03274632,-0.093954146,0.05381763,-0.035189852,0.05736094,-0.0314019,0.045133926,0.015382406,0.052130334,-0.020207077,-0.014045532,-0.0035766107,0.028971186,0.013351694,0.030765167,0.031966098,-0.029201707,0.17442317,0.06192612,0.01735486,0.019157777,-0.06831935,0.035293676,-0.035252254,0.028648516,0.038863458,0.07326244,0.061402626,-0.039044533,-0.010980846,0.077190794,-0.0017665304,0.047343057,-0.053267866,-0.03771866,-0.008426818,-0.04491491,-0.028116966,-0.049713805,-0.03497395,-0.018258424,0.0143765835,0.04571157,-0.011062908,0.0028336574,0.0034850717,0.04578988,0.03927341,-0.022922626,-0.03561139,-0.09289906,-0.006017839,-0.014594048,0.074716225,-0.016259495,-0.04476596,-0.043768324,-0.03199553,-0.07441679,-0.09218101,-0.0814279,-0.01552974,-0.059913777,0.039233483,0.005221685,0.1241982,-0.016366828,0.008710602,0.03171132,-0.0014878043,0.022347819,-0.070094556,0.009794211,-0.035348732,0.024948088,-0.09817131,0.022261437,-0.074640155,0.010588019,-0.04533919,-0.023989834,0.028867915,-0.040918685,-0.1368145,0.03994547,0.028964922,-0.0068513253,-0.05404566,0.019030584,0.10988222,0.012018705,-0.0135194035,0.016171882,-0.016415749,0.04593744,-0.047959052,-0.16801493,0.04378674,-0.04937034,-0.030483603,0.0014358327,0.0975042,-0.05351147,-0.0335224,0.038912408,-0.039066624,0.0121375,-0.0068231234,0.009638238,0.025778065,-0.119518265,0.16650774,-0.006839926,-0.081403,-0.1710876,-0.030899668,0.0010029655,0.017582884,0.02465495,0.037408907,0.015409035,-0.005115706,0.17589116,-0.06060346,0.0516435,0.057010986,0.07362153,0.025639215,0.012212545,0.1551332,-0.032265328,0.008063341,-0.033488803,0.10516672,0.00062204635,0.05683171,0.045886047,-0.020909641,0.033807278,-0.04881668,0.015914477,0.11892265,0.002784464,0.06431394,0.020526899,0.012074942,-0.0470315,0.082932614,0.017094368,-0.060713947,0.061168134,0.06035059,0.08915823,0.055283822,-0.038040765,0.00443582,0.052170347,-0.07450132,0.011568976,0.006011826,0.014071815,0.014668253,0.0066803033,0.073124975,-0.018446675,0.014491891,-0.018100034,-0.0060482537,0.015609175,0.00718646,-0.043767653,-0.04085061,0.024152517,-0.009119681,0.020554071,0.0039532934,0.043644954,0.0112460535,-0.017072743,0.011274689,-0.037846368,-0.032432377,0.0031259488,0.10405453,0.03286008,0.0046752775,0.08809784,-0.029070165,-0.004364195,0.019027634,-0.020568386,-0.0022437568,0.035920434,0.0146563025,-0.0024999715,0.009124925,-0.04558885,-0.02591447,-0.12993361,-0.05560003,0.042779066,-0.0008522825,0.06328167,-0.05723526,0.06730973,-0.009536689,-0.046538826,0.017006584,-0.019802317,0.17939296,0.039272957,-0.016760007,0.024302835,0.012150754,0.032680783,0.06904591,-0.09445669,0.14157954,-0.010099828,0.012872977,-0.057711404,0.053842146,0.061136354,-0.024486182,-0.020556908,0.012425167,0.054244965,0.02361888,0.015360175,-0.06322195,0.015756201,0.018027633,0.008981619,-0.0072471797,-0.018550798,0.013096025,-0.001837316,-0.0033161405,0.009999612,-0.011634946,-0.056791253,0.17082217,0.076409586,-0.08636014,0.0015286698,0.081684545,-0.012254782,-0.0047401423,-0.07337059,0.006823505,-0.034453444,-0.008254094,0.052172005,0.040943652,-0.049147386,-0.07182629,0.08089907,-0.0881196,0.122796215,0.034524146,0.040039785,0.0017696474,0.026436826,0.0011220302,0.08662235,-0.035014406,0.009006549,0.09172913,-0.014909285,-0.09426974,-0.085460484,-0.0054127113,0.040875405,-0.013655229,0.013873214,0.06887607,-0.027226727,0.050817333,0.025017357,0.011951365,0.032158144,0.03132356,-0.016180743,-0.083388776,0.01602027,0.0031132107,0.0013133119,0.046398487,-0.056900404,0.0013330567,0.08240876,0.03394925,-0.009545824,0.060767494,0.034028776,-0.0040322146,-0.046457186,-0.058643293,-0.0350888,0.06558529,-0.021042388,-0.015193676,-0.019931506,-0.06830159,0.014829578,-0.039571546,0.06244287,0.086753756,0.009963452,0.07775367,0.075907916,-0.044784207,-0.013099974,-0.018873176,0.0726974,0.0006032389,0.016177433,-0.05188837,-0.116254136,0.06566238,0.060304664,0.0008483127,-0.069759294,0.042317968,-0.03565231,-0.031209152,0.009662368,0.05020993,0.04287918,-0.042901717,0.0074585467,0.004626747,-0.06172821,0.09768112,0.009556742,-0.023914898,0.038093306,-0.040488172,-0.021083985,0.05623371,-0.02860012,-0.014045617,-0.041897546,-0.022965897,0.21466672,-0.07701338,0.053152274,0.050256003,0.03690238,0.029097805,-0.028823907,0.11916848,-0.06710754,0.009411389,0.03316971,-0.04374074,-0.091832556,0.004294856,0.006821671,0.058822118,0.0094884755,-0.040068943,0.017634714,-0.047480173,0.002228327,-0.025964629,0.0006938439,-0.07008855,0.04724429,-0.05461956,0.05259188,-0.036583368,0.009731555,-0.013190733,0.0045018764,-0.005496072,0.058676936,-0.029178377,0.02778701,0.035726555,-0.07864904,0.02348016,-0.090891525,0.016770862,0.023697162,-0.07826693,0.024969142,0.0069736615,-0.07978327,-0.08715787,-0.057572044,0.016438901,0.06484817,0.028692614,0.10668026,0.035080127,-0.02234738,-0.006493257,-0.117663145,-0.038201176,0.029054457,0.052758496,0.032486238,0.0448326,-0.064189315,-0.018100208,0.050922703,-0.025869528,0.077335656,-0.108766414,0.019355103,-0.017585192,-0.020835778,0.016664382,0.055506907,0.07680084,0.030964265,-0.030027727,0.025485676,0.018099574,0.003557758,-0.03168396,-0.047923602,0.021294156,0.045194395,-0.07539099,0.018826392,0.057077475,-0.003587439,0.03227722,0.13916513,0.009012841,0.029086936,0.022135917,-0.09090579,-0.023773884,0.048129987,-0.056239884,0.09606303,-0.014152561,0.03722041,-0.03126289,-0.042723846,-0.072571866,-0.01946579,-0.034244306,0.007861422,0.028591692,-0.007788469,0.01624999,0.062150665,0.15061301,-0.08128304,0.0201792,-0.0072093457,-0.085040286,-0.051306255,0.073893026,0.004525551,0.019661577,0.032752927,-0.003549184,0.0169166,0.022702588,-0.035519876,0.033297457,0.02225678,-0.049967196,-0.054500602,0.04802411,-0.04669397,-0.07300408,0.007864051,-0.020219993,-0.021041466,0.015289443,-0.0073824218,0.059146583,0.08648525,-0.040863954,0.032091893,0.07268399,-0.067412354,-0.012930207,0.015938915,-0.03909762,0.009496748,0.008625192,0.062706366,-0.036416747,-0.07514427,-0.09434549,0.0134507045,-0.028043708,0.12063509,0.15705545,0.060070217,0.008293927,0.019099962,-0.021503255,0.112376675,0.061440963,-0.035438053,-0.018282482,0.0518004,0.0030882678,-0.0417721,-0.023851361,0.11525263,-0.0008096956,0.022618925,-0.0011346566,-0.037523933,-0.09406524,-0.075578675,-0.025187384,-0.025473723,0.049179155,0.009279227,0.079866596,-0.051049292,-0.029878339,-0.009523554,-0.005852355,-0.010637666,0.077819094,0.04580047,-0.021629538,-0.04985995,0.08877213,0.025214896,0.019033838,0.014767041,0.04035502,0.0011749535,-0.019413944,0.042501263,-0.03326596,-0.07159974,-0.03000627,-0.0318245,-0.029656539,-0.0069360994,0.07401183,-0.05143466,-0.018366186,-0.048329588,0.059981138,0.013937086,-0.033153642,0.0359692,-0.0051889895,-0.062424093,-0.0003753878,-0.022800708,-0.01910633,0.08265292,0.01645484,-0.055943407,-0.0013570128,-0.02134977,-0.030667687,0.00883434,0.045787144,-0.047565356,-0.0074424124,-0.029298699,-0.03015254,0.06257044,-0.032771178,0.020638956,0.027874708,0.037993394,0.061086405,-0.022855628,0.03168491,0.0006367682,0.07990177,-0.07744626,0.11316617,0.061664265,0.034887474,0.027891297,-0.041748233,-0.08885799,-0.023489064,0.008621233,-0.05581239,-0.018623248,-0.022030104,0.036102206,0.0177301,-0.010072513,0.15204059,0.015379456,0.0034055249,0.010945556,0.03942705,-0.039318755,0.008662442,0.032831766,0.008820396,-0.03420291,0.008587768,0.029503029,0.058889203,0.009481312,-0.060765576,-0.061456043,-0.032489873,0.06245154,-0.029680496,-0.058597423,0.03343285,-0.0023223052,0.08166681,-0.05457989,-0.10474477,-0.056096155,0.032607894,-0.020502979,0.09044388,-0.042508226,0.0023794114,-0.014315109,0.0828,-0.01683273,-0.03724891,-0.015270809,-0.03736581,0.036345035,-0.020809155,0.07297777,-0.0038007163,0.01983029,0.06362868,-0.09845568,0.08195762,0.048001952,0.008492416,-0.08367274,-0.10971817,0.088032916,-0.016583625,-0.04918676,0.058192976,0.098101,0.0065805838,-0.030603528,0.019531174,0.08147656,-0.14058372,0.04558595,0.035858903,-0.028015336,-0.08085014,0.08262655,0.092609696,-0.0047469586,-0.008111777,0.04660424,-0.111114815,-0.04559089,-0.0017099094,0.03890774,0.06662681,-0.012813364,-0.06641339,-0.019345254,0.10764246,-0.052258573,-0.05344639,0.04937549,0.038739376,0.031337176,0.054955423,0.004829108,-0.017408758,0.07823357,-0.07004644,-0.028766666,-0.10750403,0.036419325,-0.012569958,-0.07669365,0.051563717,-0.018496344,0.0048836907,-0.00014739235,-0.06899777,-0.008154223,0.07723561,-0.046339564,-0.129988,-0.016113993,0.011712237,-0.0028714654,0.033101175,-0.023811104,0.029878844,-0.03350066,0.0044741593,-0.09043162,0.073554784,0.04970053,-0.0068261093,-0.035164244,0.03183219,-0.012054516,0.005784304,0.0065134754,-0.021132465,-0.009397918,-0.0063912706,-0.054713685,-0.0074677533,-0.07707456,0.07874923,-6.065411,-0.0953697,0.03779844,-0.026584843,0.0010897262,-0.017295595,-0.04731145,-0.055327374,0.11589812,-0.03748522,0.07909806,-0.011591415,0.041389596,-0.013649742,-0.014563647,-0.00011378713,0.010736862,0.013317871,-0.031000545,0.07712874,0.046146587,-0.0104927365,-0.009123199,0.13713992,-0.00056739745,-0.0135411,0.033428643,0.012290744,0.043281443,0.13164748,0.011030158,0.0056824447,-0.04830955,0.09469833,0.044570472,0.1284998,0.046634056,-0.0041097514,0.1780751,-0.06748081,0.056233156,-0.09680099,-0.015007682,-0.008260173,0.006193455,0.0013894305,-0.050319165,-0.0806529,0.026763836,0.023777159,0.035944883,-0.011984337,-0.0027935,-0.070587404,0.06242343,-0.008149842,-0.015285777,0.11255354,0.04823444,0.07791525,0.054947454,0.0038155846,-0.03167054,0.04630544,0.0013946637,-0.03907726,-0.06591551,-0.016169328,0.006506556,-0.03825935,0.046533506,0.019137774,-0.0012614267,0.07647144,0.020891521,-0.017064514,-0.035420787,-0.076870896,0.12750089,0.026545191,-0.10732257,0.07617678,-0.040590253,0.078025326,0.09639681,-0.021853497,0.047771603,0.08971517,-0.03204196,0.06585337,0.11238885,0.08689902,-0.028265193,-0.0029165251,0.034676123,-0.031839736,-0.0489816,0.039491016,0.049879037,0.04040707,0.028841158,0.038368065,-0.010167574,0.06804439,0.029626254,-0.009151478,-0.028338999,0.03411335,0.027869094,0.06916629,0.02364165,-0.060228962,-0.05889504,-0.0069400975,-0.031242717,0.025801986,0.08844216,-0.13102952,-0.02147288,0.06629747
9517_7_8,0.004959196,-0.06753514,-0.027385198,0.06489966,-0.08267667,-0.012235825,0.031055309,-0.06639043,-0.030360341,0.06324345,-0.012161191,-0.016705519,0.11981372,0.10761206,-0.014526042,0.08040096,0.053694736,0.051405177,-0.014114433,-0.029219756,0.061810907,-0.052825797,0.044541556,0.0018022493,-0.010483509,0.025507981,0.0050375173,-0.018944874,-0.0003639881,-0.1353871,-0.0099258525,0.015023144,0.09851172,0.04841551,0.008648696,0.01576953,-0.029360827,-0.0006237387,-0.029148722,-0.0011778537,0.02921749,0.033742458,0.14699206,0.00991137,-0.02107987,-0.061624955,-0.05810415,0.045131013,-0.0009817152,-0.054070227,-0.058810867,0.044100195,0.05542765,0.04100302,0.02808584,0.014444289,0.0045474432,0.018543646,0.028305963,0.026726324,-0.14162742,0.0032281342,-0.04714829,0.07294168,-0.019154346,0.032566804,0.08186779,-0.06951308,0.092755035,-0.04268712,0.0050505134,-0.070108205,-0.004760237,-0.07565672,0.00312183,-0.02236592,0.023798762,0.16616496,0.023092536,0.05410011,-0.014998552,0.008512907,-0.078675844,0.10570163,-0.02593342,-0.0010731753,0.07289273,0.04759872,0.09875824,0.015770275,0.06905581,0.084518015,0.005634952,-0.042394318,-0.02934211,-0.039451443,-0.0026512789,0.021742184,0.08084148,0.034560148,0.053942606,-0.031432472,-0.0471807,-0.051295288,-0.030024873,-0.03870485,-0.031936113,0.011105166,-0.03884176,-0.034138046,0.010600087,-0.01643529,-0.026326135,0.026246153,-0.01894079,0.013339902,-0.15755518,-0.08514736,-0.006630046,0.08901583,-0.0426165,0.004761117,0.068029426,0.0061392123,-0.037474502,-0.06389777,0.055864215,0.008117355,-0.08309087,0.051796757,-0.018760534,-0.01526223,-0.03341704,-0.063477375,0.0030496493,0.10308906,0.025055608,0.10759169,0.013912472,-0.043052834,0.048655413,-0.09735796,-0.02649432,-0.0076794005,0.057521764,0.19958158,-0.06578221,0.0604804,-0.05202246,0.026952097,0.09874721,-0.019734424,0.017489402,0.024749175,0.01428075,-0.12663718,0.07034058,0.08258853,0.03731092,0.037946302,-0.049421374,0.096025996,0.06212045,-0.07318853,-0.010238411,0.026576148,0.08698948,0.030602694,0.09045163,0.013357324,-0.022033457,0.0020155348,0.08744226,-0.050101683,-0.06767398,-0.03261843,-0.006189844,0.055067163,0.06389875,-0.0036995441,0.014958617,-0.02087596,0.028305631,0.020604141,0.013206377,-0.053763527,-0.07121006,-0.007015906,-0.059174336,-0.04112918,0.014230151,0.100874834,0.053045776,-0.064406246,0.125538,0.042831443,0.025067132,0.046777863,-0.072685175,-0.02748936,0.044416636,0.054708883,-0.07601159,0.052971154,-0.005147619,0.010435198,-0.0070665353,-0.033817846,-0.13235423,-0.14682126,0.07295594,0.03988148,0.030688759,0.06053068,-0.06967492,-0.008588926,0.025970785,0.0022187966,0.11643164,0.014563102,-0.023810888,-0.06272296,0.054721862,-0.06796073,-0.013728035,-0.06453721,-0.17938387,0.059887856,-0.14603072,0.05980179,0.096886456,0.016480925,-0.07187872,0.033876408,-0.85429114,0.038865045,0.19946197,0.035633642,-0.070269145,-0.073783286,-0.026691804,0.076294884,-0.03147507,0.03356046,0.022207357,0.04580958,0.054038532,0.016968835,0.014064384,0.02364126,-0.13701263,0.0072077396,-0.086848736,-0.014199468,-0.03859179,0.06589498,-0.018133795,-0.011521068,-0.039872427,-0.18601446,0.10235601,0.027912736,0.049537774,0.07965973,-0.037184548,-0.05403136,-0.07414588,-0.06947609,-0.0071924445,-0.015703237,-0.023641614,0.054916915,-0.026141454,0.025809746,0.018255394,-0.015812386,0.04182086,0.041049812,0.012949756,-0.0237772,0.006514388,-0.0016546516,0.110425785,-0.0009657845,0.021539604,-0.14546566,0.018739866,0.036344584,0.032427743,0.06894144,0.00096012495,-0.0060570245,-0.06468288,-0.09495039,-0.039992128,-0.01148628,-0.017960481,0.06518311,0.081607915,0.004805904,0.10602287,0.016474191,-0.0855714,0.058621004,0.01793063,0.022426197,-0.012851645,0.04404456,-0.008080569,-0.080723025,-0.026668347,-0.0019840666,0.030683078,-0.018168008,0.0019694637,0.01715444,-0.041386854,-0.036160562,-0.01048814,-0.03142054,0.009421083,-0.0039339974,-0.027825259,-0.005738625,-0.05141579,0.038738396,0.000746039,0.037428126,-0.055744912,-0.03673423,-0.033786405,-0.034691144,0.10450525,0.01872773,-0.12224944,-0.005292987,0.13949461,-0.004379338,0.057387527,0.010778791,0.025016515,-0.057538874,-0.07214878,-0.026283814,-0.09940499,-0.06946392,-0.053758573,0.017424291,-0.019432629,-0.07150217,0.051482067,-0.037164703,0.028161412,-0.024436813,0.11690879,-0.017909769,-0.02746306,-0.017009791,-0.034185756,0.002176859,-0.03146035,-0.0053427964,-0.02160445,0.048928976,-0.018057987,0.018748444,0.11626843,-0.022850104,0.01932247,-0.07613354,0.11396428,0.09123996,-0.023460357,-0.027396418,0.051841956,0.09208006,0.004760608,0.120955884,0.09763852,0.06036244,-0.004444942,-0.093139425,-0.056614034,0.010781592,0.020778894,-0.028420417,-0.049990654,0.0022612433,0.015267482,0.02966734,-0.0034887143,-0.013438947,0.028135905,0.07801915,-0.039190013,-0.0940678,0.08844994,0.0070297625,0.018717607,-0.0070708874,-0.008265407,-0.004935374,-0.064272024,0.086456046,0.0068438547,0.03474461,0.01729923,-0.019327171,0.017771212,-0.08808852,0.06819443,-0.0063122623,0.066096485,-0.062402047,0.006202935,0.037415426,0.11197232,0.14261392,0.06778636,0.022775145,-0.05185132,0.018531153,-0.0046865125,0.10715772,-0.008067451,-0.025112202,0.02148914,0.038164664,0.08221038,0.025154417,-0.018747639,0.07264965,0.005868394,0.0076679243,0.025103936,0.040260445,-0.017933523,-0.017143294,-0.03790539,0.008317274,0.014078514,0.036801934,0.035534583,-0.10255175,0.0408414,-0.03451829,0.06776823,-0.028886117,0.05447308,0.022052476,0.044868015,-0.023387993,-0.019684369,0.00046377964,0.0376915,0.024309421,0.032013636,0.032549273,-0.03184997,0.18578546,0.06627854,0.013465526,0.022291495,-0.07112684,0.049452096,-0.03553743,0.02965946,0.056063477,0.07074834,0.08107705,-0.043078277,-0.014919501,0.08497837,-0.02788409,0.038732566,-0.0566619,-0.055670224,0.012178228,-0.05808327,-0.046392377,-0.040865626,-0.047654454,-0.030856343,-0.01166531,0.05899142,-0.022805832,0.0047655813,-0.0017081895,0.052748047,0.026180709,-0.0041400446,-0.03914081,-0.078435875,0.006751974,-0.011795804,0.07309314,-0.008224019,-0.03942495,-0.04361813,-0.027827764,-0.08277393,-0.086468995,-0.10439473,-0.01095259,-0.048200566,0.032192286,0.024032667,0.122492224,-0.01761879,0.017521665,0.041422095,0.0038493837,0.013467536,-0.06652246,0.0032662738,-0.047465753,0.014143586,-0.10038203,0.022491995,-0.081705935,0.015898352,-0.047560584,-0.018723575,0.034666494,-0.05030389,-0.12848365,0.038897652,0.0418621,0.00020071589,-0.052928925,0.019705784,0.10082645,0.002482029,-0.03907661,0.01238499,-0.025187379,0.053530052,-0.053662896,-0.17981732,0.051246136,-0.051362228,-0.033673745,0.0025138082,0.11094957,-0.04601796,-0.031762414,0.050648812,-0.034792155,0.00359871,-0.0012890003,0.008558126,0.039947473,-0.12956901,0.16579169,-0.01727964,-0.06964069,-0.18393448,-0.03782198,0.0031672241,0.018482998,0.008112269,0.040773053,0.023511749,-0.014029975,0.18440606,-0.052569076,0.06453867,0.06334466,0.09239609,0.01593549,0.003389473,0.1735694,-0.033534236,0.008700817,-0.04107663,0.12672246,0.008482214,0.06684369,0.04287504,-0.026898906,0.024614329,-0.04696692,0.0147903655,0.09982173,0.012096091,0.060626633,0.021575183,0.016301217,-0.0445895,0.10285398,0.011211441,-0.06309761,0.07433426,0.075577155,0.10100784,0.05640043,-0.026020978,0.0005306574,0.059868842,-0.05278966,0.020109516,0.002389743,0.026188156,0.014490726,0.009822992,0.072693,-0.025320599,0.0061745164,-0.014758684,0.005062273,0.0055034077,0.013244913,-0.035979778,-0.039100777,0.0047632,-0.006860049,0.0038868424,-0.0013210623,0.043588016,-0.010074016,-0.014846377,0.007089641,-0.03169875,-0.03306545,-0.014634561,0.106382184,0.042287756,-8.710454e-05,0.08504076,-0.0218639,-0.004461325,0.027471537,-0.0038862086,0.002106513,0.036213644,0.0009830104,-0.0077523934,0.007196378,-0.025341177,-0.04064315,-0.13400464,-0.052979626,0.045782417,-0.013732772,0.044670474,-0.060532205,0.050810255,-0.01353818,-0.04197735,0.025713397,-0.015446556,0.19461071,0.04639106,-0.029676713,0.023933444,0.012939709,0.023636552,0.07579896,-0.0834164,0.14649004,-0.008759686,-0.0022895175,-0.06684298,0.04664885,0.07289014,-0.027195917,-0.02665996,0.003586768,0.059730455,0.017901046,0.018219043,-0.07786993,0.016184695,0.0040418757,0.014894533,-0.0034853846,-0.017237214,-0.0117996875,0.0021637734,-0.018715695,0.024202723,-0.000650877,-0.071585715,0.17641723,0.08318929,-0.077879645,0.012246405,0.103090264,0.0043592267,-0.0056589628,-0.10336846,0.004981557,-0.026854204,-0.008227797,0.05355401,0.030278003,-0.032701284,-0.09515195,0.08037522,-0.082955755,0.13611484,0.0434406,0.0371675,0.00909118,0.03438762,-0.017044289,0.10179756,-0.028506104,0.019754237,0.0935915,-0.014793468,-0.08437958,-0.09903461,0.0007516616,0.03740829,-0.003873514,0.015572595,0.072321855,-0.018303128,0.047304094,0.0270259,0.013895198,0.018067356,0.034249034,-0.027140135,-0.10057541,0.010750861,0.014345939,0.008121328,0.040795688,-0.06484852,-0.0033162385,0.0817042,0.04106832,-0.009387505,0.06373121,0.014089002,-0.0062705264,-0.03846779,-0.059669055,-0.035636608,0.05865873,-0.010834023,-0.021957858,-0.033641525,-0.062872864,0.028779672,-0.045508258,0.059053715,0.09580788,0.013812012,0.07761121,0.07085933,-0.05291004,-0.0471605,-0.014716346,0.07801046,0.011872697,3.6377656e-05,-0.037370093,-0.1104064,0.07410357,0.08241338,-0.0007467697,-0.06353394,0.03901111,-0.032336976,-0.024261724,0.018266087,0.038056377,0.047607232,-0.044131767,0.01178453,-0.010566703,-0.06341851,0.10867933,0.012032948,-0.015690623,0.04131826,-0.022096667,-0.0408947,0.04678804,-0.049394637,-0.011286192,-0.03802307,-0.016320854,0.2072584,-0.0838669,0.05850836,0.055069182,0.035880968,0.03625661,-0.01817193,0.12839432,-0.07945978,0.024641253,0.039143465,-0.024350317,-0.10520492,-0.0024753113,0.0081450045,0.07151367,0.008140945,-0.044884726,0.018048989,-0.033881534,0.008003525,-0.026567126,-0.01660916,-0.08138019,0.05445851,-0.067826994,0.056643136,-0.033829566,0.0058495114,-0.0107027795,0.0096349595,-0.009502424,0.05418775,-0.02823407,0.027790025,0.038314942,-0.094941474,0.023921773,-0.077548094,0.0056944,0.021561082,-0.08285476,0.022564286,-0.010466419,-0.08701425,-0.08949323,-0.07144677,0.038661133,0.07300708,0.031237746,0.12506033,0.030536203,-0.014011596,-0.0021617282,-0.12252067,-0.04848038,0.036136143,0.057281923,0.023778215,0.060791843,-0.078551,-0.016912604,0.06714934,-0.043467183,0.0873457,-0.11370733,0.024200583,-0.015063011,-0.031487007,0.002965268,0.045814242,0.076977074,0.03150266,-0.03274892,0.029968224,0.018996118,-0.00082308584,-0.03366204,-0.048328746,0.018264996,0.05865565,-0.083273284,0.026505204,0.05876584,0.0076334523,0.035620082,0.118211605,-0.012908199,0.013969578,0.031134577,-0.12566806,-0.034967646,0.046210837,-0.052898735,0.103132926,-0.023972368,0.0330927,-0.04439659,-0.043597136,-0.06934345,-0.0004900522,-0.034281585,0.0076709925,0.019072223,-0.011007402,0.020577138,0.0634311,0.16406627,-0.07699474,0.03500484,-0.023060538,-0.09001641,-0.07301223,0.081102856,0.0035703715,0.026781553,0.044296905,0.00010075302,0.008767148,0.03595224,-0.028725935,0.037235573,0.014904405,-0.060281478,-0.059847344,0.0420069,-0.06623748,-0.08189295,0.015183144,-0.020129278,-0.011810599,0.035976775,0.0014028348,0.060203616,0.11009013,-0.03904562,0.022524938,0.062864594,-0.0867113,-0.014622293,0.025319297,-0.042735655,0.0146093145,0.009424331,0.07702721,-0.05071642,-0.08152872,-0.10982407,0.017542636,-0.024026617,0.11949041,0.15884139,0.05045095,0.012769284,0.021025809,-0.032391172,0.11069289,0.07605009,-0.03750636,-0.016163396,0.047468312,-0.0012893681,-0.037805725,-0.035496,0.11071697,-0.0021973979,0.024828972,-0.008469653,-0.0543823,-0.09618469,-0.08160881,-0.03111156,-0.035643786,0.046968997,0.0072039305,0.08272643,-0.044622928,-0.027030552,0.0005873177,-0.009084904,-0.017103322,0.06327913,0.054506157,-0.03164591,-0.06028861,0.10741819,0.052168593,0.028517641,0.0106439665,0.048330277,-0.008468854,-0.01558768,0.041183375,-0.036397737,-0.08200417,-0.023467934,-0.03871348,-0.031816155,-0.011204822,0.087634444,-0.052372046,-0.014854248,-0.042387217,0.047805235,0.012593879,-0.021397408,0.026764879,-0.008924516,-0.050754797,-0.0026608466,-0.015191183,-0.02341455,0.094179094,0.0026819096,-0.061517753,0.012684769,-0.029285196,-0.040538203,-0.0039798487,0.05066251,-0.051843826,0.0005843492,-0.033504333,-0.047938302,0.06061081,-0.03014615,0.014932211,0.018327413,0.04522225,0.056517493,-0.017335944,0.021660801,0.01076453,0.0904315,-0.08498319,0.11136546,0.06478577,0.03492261,0.028724197,-0.034333896,-0.082420476,-0.024999028,0.01752205,-0.07255919,-0.017331306,-0.022982914,0.026161233,0.008721675,-0.004144989,0.15694478,0.023115613,0.014848493,-0.0016892698,0.04007579,-0.04379907,0.0062584756,0.028381586,-0.00071882195,-0.025074862,0.009181905,0.019499833,0.060782958,0.009955991,-0.07683116,-0.07587979,-0.038350422,0.07478857,-0.03671271,-0.049658436,0.029010102,-0.002135326,0.08048907,-0.06452568,-0.11077769,-0.07153857,0.031528547,-0.038820695,0.099841,-0.05014121,0.0040852996,-0.011833615,0.0965124,-0.0047712405,-0.028633678,-0.03321777,-0.04904114,0.033726145,-0.034627605,0.068048365,-0.013314556,0.0028191467,0.06949658,-0.09559837,0.079481065,0.07670708,0.015497898,-0.08889027,-0.11817943,0.07884143,-0.0154797,-0.06330311,0.08333809,0.10753348,0.008787153,-0.031845655,0.019880777,0.07861185,-0.1486043,0.057250153,0.02398119,-0.03981218,-0.07252266,0.08108523,0.07325281,0.0038235576,0.00935253,0.037996814,-0.12343896,-0.058001667,0.0033964883,0.030855116,0.07259109,-0.012230674,-0.052701805,-0.007864989,0.109879166,-0.06587129,-0.052781142,0.05107215,0.02913299,0.02790221,0.06061662,0.015198866,-0.015647328,0.08206288,-0.10223522,-0.035216838,-0.13019477,0.036544066,-0.019494774,-0.080037616,0.049522426,-0.013225047,0.006288335,-6.365357e-05,-0.09387628,-0.01721544,0.08656232,-0.05558452,-0.11533299,-0.006955391,0.009280049,-0.011071045,0.027801545,-0.030482458,0.025620595,-0.05194792,0.0053555383,-0.10873895,0.06462791,0.06278075,-0.0017729411,-0.03483157,0.042091873,-0.004459535,0.005722817,0.011756429,-0.038105976,-0.009296827,-0.008175783,-0.045269705,-0.003727945,-0.07317652,0.07914235,-5.8680787,-0.07983418,0.045306355,-0.024305394,-0.010270518,-0.026511105,-0.062132906,-0.05725887,0.12317856,-0.03423124,0.082934804,-0.005426919,0.04943447,-0.030887967,0.009527954,-0.0056998916,0.032173246,0.019160714,-0.023212468,0.07271488,0.057755023,-0.011159539,-0.0019126915,0.13715653,0.01557049,-0.0084889745,0.040284052,0.016879696,0.06205195,0.1318874,0.012892342,0.01676401,-0.056492914,0.10364501,0.04075054,0.13813712,0.048322767,-0.00022317852,0.1823639,-0.058208592,0.062217206,-0.09981137,-0.010608312,-0.00576908,0.011538087,-0.00021012784,-0.056971643,-0.08357996,0.020394798,0.030241031,0.029424906,-0.018234337,-0.013885966,-0.090836994,0.065596044,-0.020829152,-0.023391882,0.110185884,0.055668224,0.08828548,0.06285115,0.021055344,-0.060701635,0.04666831,0.0071317153,-0.034472063,-0.06541382,-0.017626138,0.009156823,-0.03728024,0.048880644,0.0065016407,-0.006848012,0.0714427,0.039124552,-0.024544386,-0.046679582,-0.088271596,0.1417972,0.016963521,-0.12027612,0.07827785,-0.063564874,0.081646934,0.1080518,-0.033569943,0.064085945,0.075182594,-0.026125947,0.058522575,0.114421494,0.10451785,-0.005773345,0.00017962702,0.035624467,-0.0245685,-0.04753397,0.036224112,0.048403155,0.05449142,0.026186882,0.031210199,-0.014466774,0.05267688,0.028206533,-0.019937878,-0.03962923,0.042475734,0.028060565,0.074143276,0.022937998,-0.07415563,-0.06679889,0.0008105072,-0.0334799,0.028323704,0.07868514,-0.12938227,-0.023567194,0.07572422
A1009KPN,0.005024308,-0.061967373,-0.026092632,0.056025434,-0.077642314,-0.014061614,0.0334036,-0.08025011,-0.020464817,0.052858744,-0.011331414,-0.0174623,0.11155796,0.11494142,-0.008260842,0.073298834,0.049076203,0.040073916,-0.011618053,-0.019579139,0.06436113,-0.04452233,0.053648785,0.0075976714,-0.011464212,0.015682558,0.007935614,-0.028864117,-0.0004299727,-0.12670915,-0.022591747,0.023283603,0.0987419,0.041954923,0.0090853525,0.017754864,-0.020102045,-0.007434378,-0.04020988,0.0015794238,0.022099117,0.021114608,0.14117318,0.0020643668,-0.030917332,-0.05805627,-0.0613199,0.06455276,-0.004540496,-0.04798888,-0.056951854,0.04810673,0.054593254,0.04467572,0.024623053,0.0053248852,-0.007880746,0.0077731027,0.030386334,0.024047507,-0.13302825,0.0003946214,-0.041539256,0.06917331,-0.01167041,0.03626935,0.08475807,-0.0642317,0.09173269,-0.03837367,0.0036791863,-0.081244074,-0.0044707353,-0.051170807,0.00518087,-0.015531582,0.029510675,0.15380338,0.02562601,0.052424625,-0.0126036955,0.009723616,-0.083234906,0.099934556,-0.034609664,-0.009977243,0.070982136,0.045943607,0.08832312,0.01611462,0.0711396,0.084685475,0.009892172,-0.045231745,-0.03872907,-0.04499087,-0.012193522,0.012175027,0.07121711,0.037046965,0.051458895,-0.026886927,-0.04723443,-0.054004595,-0.03531577,-0.042645425,-0.02824261,0.013782625,-0.041299503,-0.03378734,0.011248392,-0.013029925,-0.037620887,0.02958078,-0.008664536,0.0153420335,-0.14627804,-0.082249805,-0.0002185558,0.07328162,-0.039356694,-0.0019748958,0.06534875,0.0035962593,-0.049337476,-0.056011274,0.06291512,0.009086689,-0.085044414,0.050681785,-0.026596049,-0.03195011,-0.019848159,-0.063343145,0.019805718,0.10483331,0.02835069,0.10123688,0.017661544,-0.043475892,0.050020162,-0.07745228,-0.015266634,-0.007679435,0.05319136,0.20900528,-0.05833934,0.055911705,-0.04326347,0.031044355,0.09014385,-0.022346236,0.020027438,0.031439614,0.01762359,-0.118858345,0.074052535,0.077948205,0.035330497,0.03613941,-0.039720494,0.092826635,0.045756076,-0.07281773,-0.014152986,0.029685741,0.08825907,0.02968651,0.090117455,0.0137864305,-0.03601135,0.003995229,0.08853602,-0.042690393,-0.07240427,-0.03131028,0.004632306,0.04383956,0.07710152,0.0057090186,0.0143551305,-0.009814565,0.023117922,0.02905873,0.0032377262,-0.049728233,-0.061279118,-0.0059045204,-0.056895975,-0.040580336,0.01673798,0.09934204,0.047297347,-0.05814582,0.13450414,0.034752104,0.025637776,0.04443861,-0.08797059,-0.01888636,0.03997638,0.056707203,-0.07295497,0.051967163,-0.012806428,0.006607896,-0.00773681,-0.026650026,-0.13577114,-0.13491501,0.08321903,0.036861666,0.037227888,0.0686168,-0.08174133,-0.004556585,0.028346337,-0.0036764618,0.10527424,0.018490715,-0.01684873,-0.043516885,0.060752798,-0.065181784,-0.008277565,-0.06104638,-0.16926093,0.054496616,-0.13318603,0.06105702,0.094327085,0.015039294,-0.07861404,0.034791768,-0.8437013,0.04062109,0.17565043,0.038051724,-0.06551793,-0.0879176,-0.012119118,0.06685061,-0.020469384,0.038089264,0.008441842,0.04455844,0.05477308,0.017672481,0.020417877,0.036789265,-0.14108567,-0.0033565676,-0.071836,-0.011063366,-0.034221623,0.06390854,-0.004283766,0.0063855965,-0.03441294,-0.16822249,0.09178603,0.035104096,0.025129551,0.07486115,-0.045665488,-0.056212515,-0.064923175,-0.07941706,-0.0039989925,-0.015930397,-0.014746614,0.053681225,-0.033675384,0.018727371,0.00933589,-0.00038877747,0.050256595,0.03995081,0.0085864635,-0.03292143,-0.00042744438,0.0011689024,0.11221068,0.0064838156,0.018111631,-0.13007464,0.014620037,0.034014713,0.046695333,0.07065808,0.0023076236,-0.00088872836,-0.05644657,-0.08825923,-0.038139023,-0.011527845,-0.014904802,0.07928611,0.08721005,0.0073434846,0.10598693,0.02516081,-0.090485536,0.04846868,0.027405752,0.026928065,-0.017782217,0.0452083,-0.009854985,-0.07232034,-0.03336215,0.004420838,0.01703487,-0.021738173,0.010398821,0.008661237,-0.0366537,-0.034235716,-0.013018917,-0.0213255,0.009475742,-0.0046985745,-0.017969841,-0.006946678,-0.05154167,0.019212501,0.011147958,0.033678133,-0.06552605,-0.035760473,-0.035319358,-0.017475607,0.10156683,0.030638896,-0.12549658,-0.0035822978,0.11777557,-0.015226833,0.055892978,0.0109343715,0.036435205,-0.044801816,-0.09049118,-0.023639215,-0.09501288,-0.06975921,-0.04496768,0.02110819,-0.026094303,-0.07134398,0.047363464,-0.026514128,0.027557088,-0.03561142,0.11625903,-0.011771067,-0.016101345,-0.04180811,-0.027465148,0.01095444,-0.023921179,-0.010695271,-0.017709406,0.04241647,-0.021177573,0.022876808,0.11296014,-0.030233564,0.029715834,-0.071680896,0.12707816,0.08808914,-0.022259632,-0.037403967,0.048525248,0.0873507,-0.00079459854,0.11255586,0.10694895,0.04851565,0.0004266412,-0.08515737,-0.051582817,0.018319258,0.020196734,-0.027906023,-0.056558322,-0.00826498,0.017664867,0.034513667,-0.0071426462,-0.006618414,0.020262972,0.07323618,-0.037305404,-0.08323148,0.09220884,0.016676873,0.024196632,-0.022302425,-0.015922168,-0.005754811,-0.056390166,0.07724946,0.010905161,0.03921783,0.02905473,-0.027898723,0.015658,-0.09416089,0.061174374,-0.0014786724,0.06740513,-0.054496378,0.018352615,0.040263724,0.114888154,0.12337617,0.07323288,0.0147121325,-0.052581396,0.022497728,-0.017199183,0.10462201,-0.009000155,-0.019726226,0.011772469,0.054459553,0.097495586,0.025416987,-0.01811437,0.062402014,0.0058835973,0.008795851,0.02025664,0.039225835,-0.0105432095,-0.0043948707,-0.037944328,0.008325667,0.0069521368,0.041009158,0.03460833,-0.100547396,0.046366353,-0.04640155,0.060360853,-0.030414628,0.052647218,0.009348107,0.052564282,-0.015260044,-0.023387099,0.0013830058,0.041669894,0.028537653,0.04244554,0.029114448,-0.031241655,0.18017375,0.07957679,0.021455893,0.019394012,-0.0688147,0.03775031,-0.036296602,0.03016401,0.051541388,0.065814845,0.07020081,-0.04442748,-0.008494073,0.07889297,-0.019423844,0.037752848,-0.053700518,-0.04571468,0.005279059,-0.05429026,-0.02702831,-0.042624447,-0.040766075,-0.02462002,-0.006503535,0.047629442,-0.010550186,0.0013875813,0.0018613121,0.046079833,0.03290337,-0.024362298,-0.043562233,-0.07372572,0.005116089,-0.008145853,0.081945784,-0.00838383,-0.042694364,-0.04601657,-0.033843182,-0.077693656,-0.08934999,-0.096014224,-0.014543924,-0.057800088,0.036588594,0.011305881,0.1294286,-0.021167995,0.008451444,0.034808885,-0.0014364505,0.00981112,-0.06898929,0.01969789,-0.04034001,0.01426664,-0.095788755,0.031625655,-0.07226164,0.018151341,-0.052902922,-0.017014662,0.034695905,-0.044386704,-0.13514891,0.04124101,0.03507365,-0.0015755264,-0.053538714,0.030071234,0.10249274,0.012567073,-0.022080064,0.002428183,-0.019746864,0.058323115,-0.04856722,-0.17046213,0.045875326,-0.0494272,-0.041705105,0.0038030657,0.093569994,-0.04245259,-0.037020247,0.04666793,-0.042828728,0.01684512,-0.005306678,0.01297008,0.03588534,-0.12007383,0.17681693,-0.0037402108,-0.07911235,-0.19438428,-0.031662513,0.0069377623,0.021860851,0.0108168945,0.04130251,0.015066565,-0.0064166747,0.18231332,-0.053952288,0.053947184,0.06278434,0.07482332,0.01856822,0.006267993,0.17499274,-0.0411571,0.001721769,-0.040662322,0.11838982,-0.0008056468,0.057502944,0.04235053,-0.027139023,0.02418342,-0.048004013,0.008740253,0.097103335,0.00686515,0.064079165,0.019636417,0.011522606,-0.040504087,0.08907167,0.0069079306,-0.056198567,0.07134477,0.058708068,0.09812064,0.046358436,-0.03841077,0.0010167629,0.057366576,-0.06358982,0.0042596995,0.0056210565,0.009453962,0.014109072,0.0067150616,0.0753229,-0.019797696,0.0030304713,-0.022459174,-4.3737837e-05,0.013353522,0.016290931,-0.043982863,-0.03478154,0.008656828,-0.01709085,0.0060491613,-0.00091068976,0.04219544,-0.0030700548,-0.01521941,0.0125208525,-0.036792476,-0.03272567,-0.00792013,0.11158491,0.025408164,0.0028476827,0.08823458,-0.025281278,0.00055370945,0.026191475,0.0004459913,0.010908521,0.03581448,0.013651021,-0.013317178,0.0073433113,-0.037241723,-0.034212288,-0.12506327,-0.05312997,0.040670075,-0.007812088,0.051945325,-0.059447106,0.06386206,-0.011372365,-0.04400833,0.02048621,-0.018305024,0.19451636,0.046948384,-0.025623301,0.018562047,0.011580665,0.034456376,0.07061527,-0.09389759,0.1404927,-0.011495431,0.006534388,-0.061603144,0.046515986,0.06283422,-0.026988486,-0.035582833,0.014168669,0.059994187,0.011489461,0.020638913,-0.063383795,0.020012436,0.008975613,0.011362647,-0.011033367,-0.026151,-0.0032059478,0.008824043,-0.016114572,0.010782696,-0.008455317,-0.064293526,0.18020226,0.07731905,-0.08606029,0.008220799,0.09484377,0.00068438024,-0.007772688,-0.07836181,0.018764347,-0.022351196,-0.007870293,0.048900086,0.038414594,-0.046632692,-0.07234415,0.072738834,-0.08458943,0.13488589,0.04373297,0.04270561,0.012363926,0.023631603,-0.014999822,0.087465346,-0.023287036,0.020141324,0.08122984,-0.01738599,-0.09404046,-0.07964765,0.0044257785,0.04742108,-0.002618459,0.02341658,0.07157512,-0.031005567,0.045223475,0.035331633,0.008722301,0.02814092,0.044036206,-0.018180467,-0.08792156,0.018114453,0.009303731,0.0058679148,0.05019283,-0.05827489,-0.0034315784,0.085240014,0.035793345,-0.010320379,0.065966584,0.03380831,0.0028376107,-0.044895057,-0.05762669,-0.042303693,0.06496083,-0.009825472,-0.015295838,-0.026987173,-0.06818621,0.017657222,-0.04544635,0.06364105,0.091457665,0.009783398,0.07994167,0.066456236,-0.05043949,-0.02808354,-0.0109348865,0.07150742,0.0035652604,0.0053926813,-0.052816734,-0.122288756,0.07436108,0.07714123,-0.0096593285,-0.077009164,0.043892916,-0.03175848,-0.028076164,0.010335214,0.049252868,0.039429057,-0.03700942,0.0037046282,-0.007377217,-0.07064534,0.10089028,0.006071323,-0.018236058,0.042254273,-0.041635547,-0.03058468,0.05338459,-0.035405565,-0.014857567,-0.056338128,-0.012493826,0.20858836,-0.08461225,0.0530612,0.051801477,0.042831,0.03591029,-0.029731622,0.12461877,-0.07588927,0.01672445,0.026503243,-0.037242483,-0.093791865,0.005523619,0.015371088,0.06887272,0.014289896,-0.036033034,0.016616194,-0.042812254,0.008023606,-0.034153007,-0.008302851,-0.07053705,0.05516347,-0.058717,0.05465852,-0.021108994,0.00741459,-0.018693121,0.011367266,-0.016914962,0.06787657,-0.033469073,0.0374639,0.03883104,-0.06814953,0.030992461,-0.0858955,0.00945709,0.03046277,-0.07795724,0.027358504,0.0024637897,-0.07879917,-0.07598115,-0.06826921,0.03343882,0.06512692,0.035185885,0.121170126,0.027081251,-0.020237543,-0.00196805,-0.11827156,-0.04131237,0.028106065,0.055183228,0.0295188,0.048368324,-0.075032435,-0.008384887,0.05838767,-0.046108212,0.07556214,-0.10395049,0.023253808,-0.014065159,-0.029769639,-0.0003601107,0.048987668,0.06767269,0.027584286,-0.026595531,0.034236625,0.012696228,-0.0003416605,-0.019975102,-0.05566926,0.015987666,0.053634927,-0.08780304,0.022781445,0.053953547,0.00013542951,0.045827445,0.12355166,-0.004376117,0.011003637,0.02687853,-0.083741955,-0.016290272,0.046323452,-0.044759203,0.104740776,-0.022288537,0.03574751,-0.039746735,-0.039519135,-0.07823566,-0.012553494,-0.03240741,0.005904106,0.038648847,-0.006943797,0.017559862,0.053537127,0.16048853,-0.0843742,0.03257942,-0.01004897,-0.09706583,-0.06428376,0.07846176,0.005887434,0.01668849,0.04526374,-0.0064226245,0.008717291,0.03269853,-0.037899356,0.027956245,0.022945099,-0.07018301,-0.07015621,0.04531158,-0.065932564,-0.0624177,0.012100775,-0.027436981,-0.0164474,0.021815673,-0.008304377,0.0655429,0.09558531,-0.035459146,0.023158781,0.07508751,-0.069323145,-0.014064662,0.030460373,-0.040333398,0.011949384,0.0028545717,0.073570795,-0.045109462,-0.07664375,-0.10550487,0.012646279,-0.027526213,0.117610864,0.15208343,0.044644773,0.007419918,0.014001294,-0.027194418,0.12090844,0.06989702,-0.03264202,-0.015799304,0.062413495,0.005030864,-0.044119373,-0.018721765,0.11320274,-0.0017209874,0.022123905,0.0022628356,-0.038720194,-0.101417206,-0.08459342,-0.036250964,-0.033563506,0.0423602,0.018577017,0.07787581,-0.04809453,-0.02956404,0.008525295,-0.00686157,-0.016649077,0.06500784,0.049601957,-0.029101864,-0.06298792,0.09313065,0.039898615,0.017431254,0.021661272,0.044899326,0.00467532,-0.017602649,0.04458673,-0.032921936,-0.07843798,-0.019089134,-0.032393046,-0.032553345,-0.013114265,0.072299674,-0.058866713,-0.024926657,-0.052037876,0.060782194,0.01330215,-0.030422727,0.028285502,0.0023837395,-0.05730848,-0.008689191,-0.021956114,-0.017460959,0.08783636,0.0069617815,-0.0689983,0.0002910307,-0.020969594,-0.03161895,0.003136986,0.05403945,-0.053374335,-0.0051859957,-0.034812883,-0.026146814,0.06463971,-0.041022755,0.025750497,0.02438301,0.034544606,0.04549026,-0.025712976,0.030343167,0.01338314,0.07976731,-0.08299431,0.11504236,0.06814063,0.02997099,0.02526174,-0.052361414,-0.084394015,-0.022096954,0.0002646876,-0.06332964,-0.013285027,-0.02455873,0.035520904,0.021651158,-0.0076261014,0.15488957,0.011209453,0.0100618275,0.0037956124,0.05123629,-0.04570381,0.005576489,0.028319307,0.0002958953,-0.037614986,0.0054114037,0.024950625,0.05459574,0.008815635,-0.06814127,-0.07112996,-0.03204998,0.071625374,-0.02580441,-0.053987086,0.028228894,0.0002043617,0.07739456,-0.052609447,-0.106553875,-0.05844198,0.030412799,-0.031006305,0.093383074,-0.049088705,-8.591451e-05,-0.012854976,0.08288628,-0.016564464,-0.034222197,-0.024770552,-0.050169498,0.034123693,-0.015261051,0.070401385,-0.0047136457,0.007158362,0.0620922,-0.10374934,0.084482424,0.050106693,0.01656695,-0.07587981,-0.11039165,0.0847468,-0.0068828505,-0.04839049,0.067883916,0.09986738,0.010892246,-0.02884805,0.020746429,0.079051755,-0.14500059,0.053689778,0.040991202,-0.03368272,-0.072791286,0.08605651,0.0810578,-0.007957932,-0.0030803748,0.039716147,-0.123622246,-0.043121513,0.0014606491,0.04299408,0.06983431,-0.013574344,-0.07059483,-0.021322457,0.103495985,-0.061562072,-0.05137584,0.05587095,0.030657612,0.03098406,0.066797465,-0.0022367167,-0.02656584,0.07260844,-0.08751533,-0.034454398,-0.12057459,0.030247862,-0.025457203,-0.083177835,0.056873914,-0.013070087,0.015513447,-0.008235797,-0.077549234,-0.0095065385,0.08347062,-0.04478867,-0.1156112,-0.023381682,-0.00030859164,0.0011464454,0.024229372,-0.03658133,0.01859021,-0.04369314,0.0145194745,-0.09759751,0.063958414,0.056317165,-0.0052799326,-0.038833734,0.040850792,-0.010042021,0.013632252,0.015175327,-0.027447775,-0.010418472,-0.004329846,-0.04427896,-0.0024680675,-0.073015474,0.081366204,-5.9292397,-0.086565234,0.04571794,-0.031653337,-0.004516173,-0.023984639,-0.04749106,-0.065488584,0.11433453,-0.033853907,0.07056431,-0.015884316,0.04712976,-0.016591934,-0.009492454,0.008085844,0.02384158,0.011855827,-0.026456406,0.064879574,0.050011694,-0.01953282,-0.009983004,0.15064667,0.0077999397,-0.011588325,0.042079363,0.010423329,0.05458865,0.11848658,0.010148504,0.0051779123,-0.044362977,0.09896382,0.042339522,0.13331714,0.03674951,0.0064271297,0.18345962,-0.057149213,0.06522093,-0.110030614,-0.013512754,0.00089634693,0.015827727,0.0005667408,-0.064004496,-0.075710006,0.02359686,0.020487577,0.03410088,-0.0218801,-0.008442829,-0.08012278,0.05855756,-0.021408228,-0.02663888,0.10617087,0.050816704,0.088074245,0.04990631,0.010141579,-0.05133826,0.049980447,0.0062509514,-0.04429536,-0.08032668,-0.02842736,0.0073821377,-0.03916079,0.057823215,0.00791354,-0.008479322,0.0770259,0.034216296,-0.02200503,-0.041786436,-0.07940886,0.13381012,0.019559445,-0.111667395,0.07061644,-0.052077096,0.07326962,0.10371634,-0.024840368,0.058103576,0.078095324,-0.036889415,0.061760332,0.113580324,0.08749533,-0.016468406,0.0038173988,0.035143573,-0.029751519,-0.04920942,0.02892196,0.052405164,0.044726193,0.022764295,0.041335605,-0.0028302614,0.06004356,0.036636386,-0.016407281,-0.036815125,0.04202771,0.036842655,0.07365096,0.017899161,-0.067837305,-0.067043826,-0.004224436,-0.03291032,0.022071935,0.07437523,-0.14012955,-0.017530246,0.0650516
K0006KPN,0.003600037,-0.05172907,-0.008849144,0.060819164,-0.07424242,-0.015023551,0.007754343,-0.059934165,-0.0076824855,0.06438934,-0.019421257,-0.0070258994,0.11364993,0.09941049,-0.025514252,0.08040149,0.048199747,0.05950817,-0.008370426,-0.0387518,0.05503309,-0.056040995,0.052281596,0.024056684,-0.00584407,0.0028621596,0.0010883156,-0.017378025,-0.0063881334,-0.12662725,-0.012822644,0.012787598,0.09089269,0.045359373,-0.0049713086,0.015150946,-0.01996912,-0.023592003,-0.014349695,-0.012101352,0.03216305,0.040951855,0.12960108,0.016240593,-0.03815778,-0.066711366,-0.088291615,0.036626767,-0.0042074453,-0.049132556,-0.03507693,0.04876845,0.05963711,0.04204574,0.025811106,0.0014961422,0.009296273,0.031372476,0.02782837,0.0039818985,-0.14720258,-0.010129757,-0.060245976,0.06828651,-0.0035903743,0.021388983,0.08408669,-0.06212209,0.0600511,-0.03474893,-0.00025548085,-0.06539919,-0.015405778,-0.07654452,0.01243063,-0.02534171,0.02055331,0.15623567,0.023329077,0.048830602,-0.0112479245,0.014273739,-0.07306377,0.10683,-0.026584709,0.004752916,0.0770621,0.0643971,0.106730096,0.026970038,0.06986901,0.06922935,0.004450217,-0.03328964,-0.035597336,-0.03107604,-0.010901025,0.016758133,0.07645005,0.03574918,0.044203408,-0.01595492,-0.044254486,-0.05814304,-0.00966002,-0.04180349,-0.03889745,0.019332433,-0.04855758,-0.024572033,-0.01706896,-0.002159045,-0.028469272,0.034349363,-0.017771188,0.017184317,-0.15864511,-0.08804852,0.0029720943,0.079772025,-0.03331752,-0.005622876,0.06710693,-0.004999048,-0.025236772,-0.066109635,0.0509212,0.0042054676,-0.07751277,0.05725933,-0.018282069,-0.03194606,-0.02032583,-0.045369133,0.011955286,0.08347211,-0.004152245,0.10726896,0.034298796,-0.035895076,0.045634445,-0.08823398,-0.021826968,-0.0056009865,0.044028472,0.19292782,-0.070944324,0.039457086,-0.04020121,0.025854997,0.08276076,-0.004828576,0.017374484,0.03204514,0.01884038,-0.1368603,0.08021596,0.076095924,0.032915846,0.0571358,-0.03742133,0.08886956,0.06765877,-0.056792293,-0.021117942,0.0116238855,0.069018595,0.018549804,0.097711556,0.009630554,-0.028254472,-0.013301224,0.089691974,-0.043042466,-0.08062065,-0.0183594,0.009101381,0.060492236,0.060960248,0.0052187596,0.012517311,-0.011527593,0.024098022,0.024823325,0.016067041,-0.047126286,-0.06098787,-0.014572065,-0.067280896,-0.029087232,0.007103443,0.11474938,0.047073554,-0.043720875,0.12148803,0.018196898,0.020836312,0.058664586,-0.07582528,-0.029515054,0.043277796,0.032382086,-0.072740056,0.060211763,-0.017292954,0.013675802,-0.013177986,-0.03125044,-0.11100538,-0.13929401,0.09239958,0.029076615,0.011539323,0.06937981,-0.056169793,-0.020830385,0.012602006,0.016929036,0.1074928,0.020520665,-0.026763966,-0.054359846,0.038806986,-0.06304538,-0.014481772,-0.07563157,-0.16717036,0.052530322,-0.13438103,0.06361874,0.10308462,0.016522096,-0.06064822,0.0361318,-1.1713613,0.03548413,0.18990095,0.019163003,-0.045870464,-0.06121581,-0.029504133,0.073516905,-0.019130815,0.02844421,0.028376082,0.04281581,0.043281484,0.0150566185,0.028845115,0.045112126,-0.11360142,-0.010750275,-0.095807254,-0.02627299,-0.022150517,0.06673973,-0.006911742,0.0028138566,-0.035664372,-0.1667081,0.09479983,0.02673457,0.05528077,0.06712768,-0.042410478,-0.04926837,-0.064074524,-0.07915438,-0.0028908039,-0.013096551,-0.029895494,0.05178169,-0.015249646,0.020089291,0.012866793,-0.014424328,0.030161954,0.036490288,0.024186773,-0.03149073,0.0044355043,0.0051614097,0.11060229,-0.004835259,0.014695065,-0.10374705,0.022072684,0.030942596,0.0150837,0.06362066,-0.0038685417,-0.0057109403,-0.06609912,-0.09206876,-0.0332781,-0.015192624,-0.018517474,0.0656344,0.08676792,0.013495073,0.110094845,0.013908197,-0.08837441,0.05326212,0.024850717,0.017803231,-2.5327836e-06,0.046525806,-0.00199687,-0.06254575,-0.016501607,0.016916733,0.032274902,-0.03466584,0.007482151,0.028143333,-0.034529205,-0.032623656,0.006706078,-0.017147547,0.028852198,-0.009858324,-0.04189462,-0.0083598625,-0.04093074,0.049184497,0.011371989,0.031448584,-0.055049077,-0.0228635,-0.03801133,-0.01422137,0.10190853,0.03591066,-0.10966714,0.006040986,0.13359374,0.0012627547,0.048020843,0.017953988,0.029865086,-0.046370666,-0.06953357,-0.022952147,-0.09927493,-0.06509795,-0.053297408,0.024946988,-0.01718788,-0.078250095,0.060732022,-0.02571597,0.023728132,-0.018834893,0.10486579,-0.015711652,-0.015065093,-0.01962405,-0.039013844,0.007000694,-0.025203884,-0.016543932,-0.010718647,0.032143146,-0.017354378,0.024520852,0.10523219,-0.03333731,0.009503864,-0.05398846,0.08992389,0.10195946,-0.04821339,-0.03623919,0.04783512,0.08321729,0.0003797708,0.116726145,0.07513185,0.043672536,-0.009606239,-0.119054705,-0.06030516,0.0064425264,0.018251056,-0.02982111,-0.050103016,0.0016349196,0.006973929,0.037396386,-0.0032325154,-0.021557748,0.045716457,0.08516819,-0.037678644,-0.08874137,0.070205584,-0.0018078131,0.01957303,-0.000109218265,-0.015020121,-0.0035810256,-0.048384324,0.06795134,0.008998096,0.03073337,0.031178027,0.0047006235,0.019464,-0.10945962,0.07178331,0.0034872852,0.06746165,-0.056363616,-0.008839609,0.026664926,0.11279203,0.13184659,0.059983287,0.029380394,-0.037354033,0.023116523,-0.020376883,0.11258553,-0.008551861,-0.024163224,0.019988552,0.042535294,0.07327919,0.011923892,-0.044202812,0.06588449,0.004444901,-0.009535917,0.02336962,0.032161396,-0.0027347866,-0.008514311,-0.030083034,0.021529047,0.026615098,0.04702309,0.038207665,-0.10182677,0.03658621,-0.02550195,0.06361945,-0.032092944,0.039116718,0.041874364,0.056258116,-0.005905661,-0.0254331,-0.007763783,0.03017266,0.012339219,0.007856721,0.007770896,-0.02484145,0.16852564,0.06960864,0.006161403,0.026747664,-0.0741494,0.053854316,-0.033093095,0.02936677,0.05370045,0.075748995,0.090228036,-0.05128868,-0.0132177565,0.07246007,-0.005614684,0.03655106,-0.06010489,-0.05021852,0.007024572,-0.045498326,-0.028691772,-0.05441313,-0.037539676,-0.0087415315,-0.024079144,0.07271172,-0.022975307,-0.00025776005,0.004017273,0.051512524,0.03551528,-0.0019058543,-0.040005557,-0.077999815,-0.012210198,-0.019267555,0.060035124,-0.014589649,-0.043023266,-0.057749517,-0.038384333,-0.073585615,-0.07498532,-0.09617588,-0.014455738,-0.05894219,0.03806437,0.021846138,0.11417336,-0.03366907,-0.008345429,0.042711783,0.0062565124,0.029041873,-0.07255013,-0.003110622,-0.043786567,0.013441353,-0.081281774,0.018325858,-0.06847575,0.008331005,-0.053139284,-0.022374857,0.03441284,-0.04389573,-0.116484866,0.032412343,0.01101466,-0.00717978,-0.044894017,0.018576298,0.09821053,-0.0022179955,-0.0275407,0.028654685,-0.016110953,0.040688038,-0.036016274,-0.17501643,0.04154563,-0.062146552,-0.016417805,-0.013652886,0.107399695,-0.052052863,-0.024383944,0.05034616,-0.04678406,0.013452474,0.0030539492,0.0064428374,0.012278585,-0.12474986,0.13939434,-0.020564178,-0.064459056,-0.17293334,-0.026761476,-0.010328894,0.032403633,0.01753173,0.032834187,0.031093724,-0.025751093,0.16457641,-0.0637452,0.04899972,0.06996739,0.09335472,0.033322882,0.014394505,0.15713154,-0.032967627,0.017877687,-0.03206268,0.112143956,0.0045322385,0.05784675,0.051750105,-0.015487309,0.04250084,-0.048753094,0.012670225,0.0683933,0.01798394,0.060258284,0.020495333,0.012138688,-0.037817433,0.08671822,0.030562345,-0.06370679,0.054252725,0.061971698,0.09422339,0.04290175,-0.041432653,0.008316688,0.06119109,-0.06429715,0.028262513,0.009945565,0.028484456,0.028885867,0.031675644,0.088849515,-0.010839117,0.0009890681,-0.036999926,-0.011517797,0.015027449,0.009900268,-0.036476906,-0.044835135,0.013933829,-0.0012712231,0.0030388625,0.009577423,0.0360675,0.006049205,-0.01035589,0.008958592,-0.033834733,-0.04417654,-0.009993168,0.09812032,0.029845642,0.010276545,0.06178924,-0.030643977,0.0038006364,0.018578976,-0.00061737583,-0.0042742696,0.04841167,0.018802622,-0.003362087,0.017268205,-0.040256936,-0.0322732,-0.12902683,-0.05244753,0.019208886,0.0024263908,0.06601006,-0.04131388,0.05319032,-0.013683202,-0.039206598,0.023101104,-0.025542296,0.17326014,0.050635055,-0.017384244,0.02095576,0.017943865,0.03156991,0.073074974,-0.072344854,0.13786353,-0.0056924,0.006636281,-0.052694473,0.05963792,0.062218104,-0.0056982148,-0.0132452,0.007405512,0.044259444,0.019642843,0.018308323,-0.078808375,0.015985066,0.031644583,0.004427138,-0.010924631,-0.017955717,-0.0019957104,-0.004806016,-0.021303335,0.014653653,0.006373333,-0.06312716,0.15360856,0.07214288,-0.08622453,0.006531982,0.091211036,0.010396685,-0.010666322,-0.11533553,0.003771074,-0.043713756,0.0069665452,0.054429155,0.026235571,-0.047633525,-0.05950754,0.07284755,-0.07522677,0.12809294,0.055545554,0.037786264,-0.018174598,0.026112063,0.004852975,0.089099675,-0.027953003,0.0015962627,0.096536614,-0.027674202,-0.08497237,-0.09437245,-0.0016199925,0.032810304,-0.026642062,0.008149854,0.056199737,-0.0044099744,0.05549683,0.03408513,0.015130775,0.0044058897,0.04068157,-0.034342356,-0.09376698,0.0035478745,0.008505431,0.0038297272,0.035383426,-0.062268496,0.008457566,0.078046456,0.031926047,-0.01580775,0.061989494,0.013283739,-0.010481292,-0.0138160605,-0.062239032,-0.039079476,0.05642111,-0.013014055,-0.018479543,-0.040048942,-0.07120189,0.03471413,-0.029674266,0.07916974,0.10818719,0.015352992,0.08463621,0.06985,-0.043318793,-0.01755152,-0.0074340757,0.06530767,0.0053338422,0.008419539,-0.047176536,-0.1012609,0.06799244,0.06849344,-2.810897e-05,-0.06441985,0.03576452,-0.019717773,-0.024722237,0.021858513,0.038167972,0.05169244,-0.046746053,0.01308373,-0.0056914506,-0.061967593,0.08988944,0.005104231,-0.01805524,0.03520797,-0.018219179,-0.025184141,0.03484235,-0.025367364,-0.016089447,-0.02773004,-0.021593936,0.20375896,-0.08010403,0.054562137,0.071327776,0.023472758,0.028260533,0.0036281694,0.1329505,-0.060026363,0.023498407,0.033531383,-0.04130451,-0.10610306,0.002904083,-0.014394383,0.035261128,0.013545319,-0.06162809,0.024395324,-0.025669646,-0.008215871,-0.030507157,0.0055292863,-0.06619084,0.059293773,-0.064047694,0.059144836,-0.0420884,0.029879225,-0.024725333,0.008091781,-0.016925462,0.047627494,-0.040585887,0.03335423,0.031289466,-0.083485626,0.0065011242,-0.07453449,0.008272785,0.036146127,-0.06845555,0.02594739,-0.015111932,-0.09552327,-0.08821411,-0.056105144,0.036098618,0.07082093,0.015471561,0.10578421,0.03716393,-0.020242425,-0.031730697,-0.113566704,-0.024424417,0.030336525,0.05583798,0.026574917,0.05217177,-0.0822657,-0.009742256,0.054483622,-0.022352586,0.0767276,-0.11497263,0.015400774,0.0005294428,-0.012347774,0.02116394,0.04894401,0.0895588,0.03064347,-0.025033891,0.031372454,0.025956227,0.0005730349,-0.025469128,-0.04668549,0.015436541,0.048598852,-0.081872165,0.01822897,0.056395404,0.002589402,0.034677926,0.13399845,-0.00036000647,0.026575608,0.024037816,-0.09705277,-0.025520688,0.058149353,-0.058545258,0.084622435,-0.016676575,0.041927025,-0.049427476,-0.032148387,-0.06982558,-0.005860612,-0.03909953,0.007747384,0.019352708,0.006422738,0.029650893,0.04911661,0.14732677,-0.08221392,0.025365999,-0.022415752,-0.0670078,-0.04224928,0.07201787,-0.0025450315,0.02735273,0.03478076,0.0033368175,0.02189762,0.025244433,-0.017759748,0.031841144,0.011502294,-0.045354225,-0.045900807,0.046548475,-0.06257854,-0.07163415,0.010444576,-0.026497602,-0.023368537,0.020088725,-0.0017319241,0.04636546,0.10589686,-0.04320973,0.026534,0.05050893,-0.07848473,-0.012029823,0.02688605,-0.036571532,0.0012934937,0.00053699315,0.0757239,-0.0404909,-0.061725125,-0.088660374,0.011211381,-0.017294407,0.10386459,0.14436011,0.058923475,0.0021839088,0.027694851,-0.018319024,0.10570074,0.06124733,-0.020461503,-0.022041954,0.045844894,-0.019527595,-0.046479955,-0.02720093,0.10513019,-0.0036761074,0.01583009,-0.024954814,-0.038408317,-0.07169363,-0.074588805,-0.036444854,-0.029583212,0.03465851,0.0041678357,0.07023805,-0.031922486,-0.011972412,0.001617308,-0.008274178,0.003630123,0.10392746,0.052913778,-0.019438311,-0.040754225,0.1150621,0.04138996,0.042279545,0.008679178,0.03980996,-0.00066440203,-0.027176984,0.040434435,-0.022025473,-0.05854799,-0.0127395885,-0.03351793,-0.03232044,-0.015859326,0.08448158,-0.049889274,-0.004294524,-0.048153874,0.044834085,0.0025355588,-0.032860655,0.042067416,-0.007361014,-0.058189776,-0.0043381928,-0.004812913,-0.00602722,0.08298904,-0.009421325,-0.050033186,0.01070319,-0.012141797,-0.023268526,0.0073084617,0.02741944,-0.0437038,0.0060098907,-0.036645938,-0.018828921,0.06645311,-0.02090121,0.01772538,0.038158804,0.030850682,0.057541415,-0.02011574,0.019949147,0.01921736,0.06852537,-0.07780346,0.11528489,0.06455703,0.035958644,0.028222684,-0.039860472,-0.07041479,-0.0027729308,0.0044964924,-0.050962884,-0.029081546,-0.034777522,0.029466566,0.0019034842,0.0056906734,0.14494568,0.025603507,0.008595038,0.0014544094,0.038791355,-0.028646436,0.0036457058,0.043798286,0.00989024,-0.03597742,0.004950852,0.023387652,0.051369317,0.014683046,-0.07323902,-0.062269542,-0.034346916,0.07281624,-0.051015276,-0.046539698,0.03709358,-0.006865493,0.08234033,-0.061724,-0.10644128,-0.046771716,0.01637778,-0.03334035,0.08712396,-0.036085878,0.003757258,-0.010568637,0.072443575,-0.010319214,-0.024566654,-0.017591156,-0.034490302,0.032393657,-0.028927006,0.094461784,-0.014454331,0.0091903405,0.06568757,-0.069710374,0.078921035,0.05941487,0.015292251,-0.09544464,-0.1180955,0.09454398,-0.015003918,-0.056948006,0.062482134,0.07502912,0.011037737,-0.026357898,0.016795171,0.07085146,-0.14194347,0.052440133,0.030571295,-0.034933526,-0.07875822,0.08516975,0.06558693,0.0010023669,0.0024854045,0.04622265,-0.12092532,-0.052957717,0.0007152009,0.020927664,0.05398634,0.0076023093,-0.060613044,0.0034425256,0.111439295,-0.067646824,-0.050186127,0.057225686,0.058932357,0.040522493,0.035986815,-0.002197152,-0.0055709463,0.08479409,-0.08407005,-0.026814597,-0.11733907,0.032683212,-0.0022906032,-0.0677327,0.051941205,-0.031885125,0.023397814,0.0056010387,-0.08800188,-0.018771382,0.073526084,-0.054849856,-0.11376715,-0.008047223,0.010080973,-0.011156689,0.010075975,-0.0286931,0.04635255,-0.0398774,0.012766525,-0.09977114,0.078478485,0.058503374,0.00010182336,-0.027620582,0.029738877,0.0058934665,0.017701464,0.0018918057,-0.039537758,0.0022954424,-0.009368271,-0.059032228,0.0006775425,-0.082252294,0.073529966,-6.2332354,-0.051810894,0.038824923,-0.02928351,-0.008814947,-0.022055585,-0.050777003,-0.056330323,0.09406849,-0.022691704,0.0732239,-0.007869863,0.042739104,-0.033098433,0.006370843,0.00023907154,0.024236389,0.017470557,-0.020240441,0.08068659,0.046690386,-0.020047262,-0.014688905,0.118260235,0.012719038,-0.009196099,0.022772394,0.0037453962,0.04020562,0.13259158,0.015837342,0.028457662,-0.058938026,0.09016065,0.040396724,0.13328403,0.038332257,-0.001401213,0.18538415,-0.062040992,0.033884484,-0.0684741,-0.029282548,-0.019933514,0.005139404,0.006026287,-0.03500709,-0.0767664,0.014740961,0.036533818,0.026565913,-0.0141629195,-0.013142453,-0.08721913,0.07003245,-0.0035520522,-0.027734645,0.10359954,0.05651366,0.07899054,0.064361185,0.023325585,-0.03517352,0.0491774,-0.008921868,-0.027960777,-0.051638395,-0.0038376648,0.010131429,-0.030590849,0.056466024,0.029195994,-0.011137518,0.0606557,0.033955645,-0.027196797,-0.0352129,-0.07675947,0.13969941,0.029517481,-0.121423125,0.08305395,-0.050394174,0.077483304,0.0879678,-0.03527883,0.07465747,0.09579033,-0.024991315,0.068419784,0.10253666,0.09978067,-0.022872804,-0.0034845322,0.031482965,-0.013821464,-0.066470556,0.038609687,0.04515098,0.02466204,0.02169708,0.035548262,-0.013377209,0.06443918,0.0077073434,-0.004996188,-0.03892256,0.040995806,0.036753595,0.08494177,0.023047416,-0.07012345,-0.06280157,0.017370638,-0.01957755,0.03895733,0.0838851,-0.10103232,-0.02284568,0.0548369
