accession,0,1,2,3,4,5,6,7,8,9,10,11,12,13,14,15,16,17,18,19,20,21,22,23,24,25,26,27,28,29,30,31,32,33,34,35,36,37,38,39,40,41,42,43,44,45,46,47,48,49,50,51,52,53,54,55,56,57,58,59,60,61,62,63,64,65,66,67,68,69,70,71,72,73,74,75,76,77,78,79,80,81,82,83,84,85,86,87,88,89,90,91,92,93,94,95,96,97,98,99,100,101,102,103,104,105,106,107,108,109,110,111,112,113,114,115,116,117,118,119,120,121,122,123,124,125,126,127,128,129,130,131,132,133,134,135,136,137,138,139,140,141,142,143,144,145,146,147,148,149,150,151,152,153,154,155,156,157,158,159,160,161,162,163,164,165,166,167,168,169,170,171,172,173,174,175,176,177,178,179,180,181,182,183,184,185,186,187,188,189,190,191,192,193,194,195,196,197,198,199,200,201,202,203,204,205,206,207,208,209,210,211,212,213,214,215,216,217,218,219,220,221,222,223,224,225,226,227,228,229,230,231,232,233,234,235,236,237,238,239,240,241,242,243,244,245,246,247,248,249,250,251,252,253,254,255,256,257,258,259,260,261,262,263,264,265,266,267,268,269,270,271,272,273,274,275,276,277,278,279,280,281,282,283,284,285,286,287,288,289,290,291,292,293,294,295,296,297,298,299,300,301,302,303,304,305,306,307,308,309,310,311,312,313,314,315,316,317,318,319,320,321,322,323,324,325,326,327,328,329,330,331,332,333,334,335,336,337,338,339,340,341,342,343,344,345,346,347,348,349,350,351,352,353,354,355,356,357,358,359,360,361,362,363,364,365,366,367,368,369,370,371,372,373,374,375,376,377,378,379,380,381,382,383,384,385,386,387,388,389,390,391,392,393,394,395,396,397,398,399,400,401,402,403,404,405,406,407,408,409,410,411,412,413,414,415,416,417,418,419,420,421,422,423,424,425,426,427,428,429,430,431,432,433,434,435,436,437,438,439,440,441,442,443,444,445,446,447,448,449,450,451,452,453,454,455,456,457,458,459,460,461,462,463,464,465,466,467,468,469,470,471,472,473,474,475,476,477,478,479,480,481,482,483,484,485,486,487,488,489,490,491,492,493,494,495,496,497,498,499,500,501,502,503,504,505,506,507,508,509,510,511,512,513,514,515,516,517,518,519,520,521,522,523,524,525,526,527,528,529,530,531,532,533,534,535,536,537,538,539,540,541,542,543,544,545,546,547,548,549,550,551,552,553,554,555,556,557,558,559,560,561,562,563,564,565,566,567,568,569,570,571,572,573,574,575,576,577,578,579,580,581,582,583,584,585,586,587,588,589,590,591,592,593,594,595,596,597,598,599,600,601,602,603,604,605,606,607,608,609,610,611,612,613,614,615,616,617,618,619,620,621,622,623,624,625,626,627,628,629,630,631,632,633,634,635,636,637,638,639,640,641,642,643,644,645,646,647,648,649,650,651,652,653,654,655,656,657,658,659,660,661,662,663,664,665,666,667,668,669,670,671,672,673,674,675,676,677,678,679,680,681,682,683,684,685,686,687,688,689,690,691,692,693,694,695,696,697,698,699,700,701,702,703,704,705,706,707,708,709,710,711,712,713,714,715,716,717,718,719,720,721,722,723,724,725,726,727,728,729,730,731,732,733,734,735,736,737,738,739,740,741,742,743,744,745,746,747,748,749,750,751,752,753,754,755,756,757,758,759,760,761,762,763,764,765,766,767,768,769,770,771,772,773,774,775,776,777,778,779,780,781,782,783,784,785,786,787,788,789,790,791,792,793,794,795,796,797,798,799,800,801,802,803,804,805,806,807,808,809,810,811,812,813,814,815,816,817,818,819,820,821,822,823,824,825,826,827,828,829,830,831,832,833,834,835,836,837,838,839,840,841,842,843,844,845,846,847,848,849,850,851,852,853,854,855,856,857,858,859,860,861,862,863,864,865,866,867,868,869,870,871,872,873,874,875,876,877,878,879,880,881,882,883,884,885,886,887,888,889,890,891,892,893,894,895,896,897,898,899,900,901,902,903,904,905,906,907,908,909,910,911,912,913,914,915,916,917,918,919,920,921,922,923,924,925,926,927,928,929,930,931,932,933,934,935,936,937,938,939,940,941,942,943,944,945,946,947,948,949,950,951,952,953,954,955,956,957,958,959,960,961,962,963,964,965,966,967,968,969,970,971,972,973,974,975,976,977,978,979,980,981,982,983,984,985,986,987,988,989,990,991,992,993,994,995,996,997,998,999,1000,1001,1002,1003,1004,1005,1006,1007,1008,1009,1010,1011,1012,1013,1014,1015,1016,1017,1018,1019,1020,1021,1022,1023,1024,1025,1026,1027,1028,1029,1030,1031,1032,1033,1034,1035,1036,1037,1038,1039,1040,1041,1042,1043,1044,1045,1046,1047,1048,1049,1050,1051,1052,1053,1054,1055,1056,1057,1058,1059,1060,1061,1062,1063,1064,1065,1066,1067,1068,1069,1070,1071,1072,1073,1074,1075,1076,1077,1078,1079,1080,1081,1082,1083,1084,1085,1086,1087,1088,1089,1090,1091,1092,1093,1094,1095,1096,1097,1098,1099,1100,1101,1102,1103,1104,1105,1106,1107,1108,1109,1110,1111,1112,1113,1114,1115,1116,1117,1118,1119,1120,1121,1122,1123,1124,1125,1126,1127,1128,1129,1130,1131,1132,1133,1134,1135,1136,1137,1138,1139,1140,1141,1142,1143,1144,1145,1146,1147,1148,1149,1150,1151,1152,1153,1154,1155,1156,1157,1158,1159,1160,1161,1162,1163,1164,1165,1166,1167,1168,1169,1170,1171,1172,1173,1174,1175,1176,1177,1178,1179,1180,1181,1182,1183,1184,1185,1186,1187,1188,1189,1190,1191,1192,1193,1194,1195,1196,1197,1198,1199,1200,1201,1202,1203,1204,1205,1206,1207,1208,1209,1210,1211,1212,1213,1214,1215,1216,1217,1218,1219,1220,1221,1222,1223,1224,1225,1226,1227,1228,1229,1230,1231,1232,1233,1234,1235,1236,1237,1238,1239,1240,1241,1242,1243,1244,1245,1246,1247,1248,1249,1250,1251,1252,1253,1254,1255,1256,1257,1258,1259,1260,1261,1262,1263,1264,1265,1266,1267,1268,1269,1270,1271,1272,1273,1274,1275,1276,1277,1278,1279
KP_HGUA02_071,0.0041885134,-0.050827775,-0.007553296,0.050253727,-0.08298824,-0.015299415,0.0206521,-0.05517666,-0.019494433,0.050093345,-0.01485882,-0.016847823,0.1077231,0.097510934,-0.027133256,0.0755341,0.05261193,0.041176144,-0.0132566495,-0.024838824,0.052691236,-0.055731185,0.043019872,0.00933615,-0.025834136,0.011968154,0.010598516,-0.008650609,-0.005651524,-0.13160259,-0.014670442,0.024983672,0.092015244,0.032762382,0.0054314854,0.027204482,-0.015517104,-0.0010157246,-0.020120345,-0.005255447,0.032279193,0.042308446,0.1400876,0.013445391,-0.02902096,-0.06871593,-0.051041707,0.031301584,-0.0029380142,-0.04992251,-0.047018368,0.04535958,0.061035834,0.030182485,0.02191869,0.007637973,0.012474965,0.030769888,0.025988426,0.0167077,-0.12706141,-0.007918183,-0.043528736,0.07449231,-0.013799651,0.028105274,0.071069986,-0.057867948,0.090816036,-0.050368756,-0.003542834,-0.057972006,-9.507057e-05,-0.07179475,0.012543522,-0.019662412,0.031169826,0.16126731,0.023497602,0.06420033,-0.0124310255,0.016399426,-0.0771441,0.111684665,-0.021564953,-0.0068090204,0.057541925,0.049335014,0.09889107,0.010176867,0.06008565,0.07686792,0.009651005,-0.034412257,-0.02469508,-0.033413682,-0.0023519313,0.028576914,0.0842208,0.03665522,0.039386135,-0.027311865,-0.040154792,-0.060834765,-0.01878418,-0.029383149,-0.0285391,0.007884945,-0.043323647,-0.03802416,-0.008261429,-0.010441731,-0.030336518,0.025405157,-0.016244883,0.019394368,-0.1515738,-0.08392071,-0.009509904,0.07423536,-0.036963716,-0.002037813,0.065342054,0.0022551892,-0.01908578,-0.061357632,0.05370595,0.011398061,-0.08043118,0.063290976,-0.011766063,-0.006488086,-0.030814163,-0.054560192,0.00078476174,0.09853994,-0.0014670943,0.10586702,0.013057312,-0.031411443,0.045514133,-0.08816752,-0.020632666,-0.02225397,0.047362667,0.18997428,-0.073142074,0.045263156,-0.040319264,0.020347986,0.101244815,-0.013403021,0.01691772,0.0259299,0.02373907,-0.13317177,0.073335625,0.075861484,0.034515705,0.05007232,-0.03811155,0.0932462,0.055583205,-0.061166838,-0.013676323,0.018818313,0.08665516,0.027962241,0.08575688,0.013057894,-0.015153727,0.0025668421,0.07230004,-0.05515801,-0.047676466,-0.017235368,0.0029558083,0.046660334,0.06950977,0.0066183475,0.026323786,-0.005071878,0.023443073,0.005827318,0.007999651,-0.04759453,-0.065347075,-0.017763231,-0.06222714,-0.03919227,0.007814724,0.09274092,0.041219063,-0.05445998,0.11539402,0.032036133,0.026066437,0.042512372,-0.06426982,-0.009378286,0.041505832,0.030719278,-0.0737136,0.043001782,-0.012364471,0.014350231,-0.0047552213,-0.031025726,-0.115864284,-0.15100667,0.08628612,0.026271593,0.024491128,0.06648137,-0.05167296,-0.012362797,0.019732371,0.00764295,0.10376245,0.0113867065,-0.029911589,-0.06197,0.036994163,-0.063821904,-0.020371865,-0.06852731,-0.17988688,0.056670308,-0.13673049,0.06453135,0.10151723,0.0060239984,-0.05729637,0.054903228,-1.1573924,0.035848007,0.18984075,0.03294301,-0.056338526,-0.07258381,-0.022578096,0.058059122,-0.030170644,0.04156275,0.023468614,0.039278254,0.055319577,0.022913966,0.028526325,0.026142139,-0.11467968,0.0033279764,-0.0827959,-0.029046476,-0.020473303,0.06640687,-0.0148927625,-0.015884079,-0.037181564,-0.16531254,0.10022004,0.020574141,0.05230727,0.071627766,-0.03341604,-0.048103668,-0.060776986,-0.0722831,0.0018035512,-0.011009119,-0.03516609,0.044364747,-0.0012902311,0.0048763976,0.01395418,-0.012181729,0.042011574,0.033281803,0.012546267,-0.025536915,0.005469405,0.007894085,0.10868767,-0.0025711148,0.018913558,-0.12844312,0.022781044,0.02939554,0.01442421,0.061394792,0.004936949,-0.014433478,-0.06872378,-0.08673455,-0.032431755,-0.014696912,-0.021647926,0.06533302,0.07569195,0.001913657,0.098262526,0.014815239,-0.085741766,0.054105222,0.023315566,0.019560453,-0.006106225,0.06367975,-0.011440718,-0.07337062,-0.024167847,0.0034775666,0.02976766,-0.025853878,0.0047334796,0.025446694,-0.035610776,-0.02993602,0.0061100572,-0.025728619,0.023483934,-0.008361768,-0.028805686,-0.00780763,-0.040729083,0.03968879,0.006718926,0.028023817,-0.055569135,-0.03595583,-0.032886174,-0.021545349,0.106448814,0.031345733,-0.12042771,0.0030941668,0.1402354,-0.0063983607,0.052191127,0.022345783,0.018671276,-0.050847,-0.070435755,-0.01747578,-0.08486834,-0.055708893,-0.041140564,0.013528315,-0.018384824,-0.06803641,0.07864478,-0.05160271,0.022089187,-0.030463178,0.11439243,-0.0032671504,-0.02184352,-0.0025916821,-0.042895377,0.008832899,-0.029630788,-0.006740971,-0.022906357,0.042237345,-0.017360244,0.023739487,0.1003964,-0.026294846,0.012270339,-0.061098397,0.097606,0.10244335,-0.034007266,-0.023860201,0.035405815,0.07880725,0.010447994,0.11025491,0.09156641,0.057070613,-0.010043199,-0.13006768,-0.066154234,0.01340555,0.017747827,-0.027339103,-0.047377333,0.00543594,0.012277301,0.02971616,-0.0020406712,-0.016591704,0.027279394,0.07562662,-0.045104533,-0.093193665,0.07292492,0.0026181517,0.0146998,-0.011857909,-0.003446336,-0.0032473288,-0.04304422,0.06699844,0.0038460444,0.04049733,0.03001103,-0.0022913553,0.014043531,-0.108838595,0.07997785,0.0020302797,0.0532148,-0.06153121,0.0024286374,0.03281562,0.11098725,0.15050429,0.05538804,0.030351814,-0.04831379,0.021740267,-0.0012755189,0.10766432,-0.012550946,-0.023836207,0.030375363,0.043915328,0.062328164,0.026614385,-0.042063918,0.07524143,0.0030849676,0.004692841,0.02732647,0.033550978,0.002703916,-0.0052452274,-0.034295145,0.017879093,0.01565536,0.04392592,0.048446614,-0.112153925,0.044662755,-0.024001423,0.058721524,-0.033148132,0.048956875,0.03478642,0.066990055,-0.0087154955,-0.0153386,-0.0022830379,0.042571697,0.013811996,0.005375119,0.016132921,-0.030986633,0.16447204,0.059777595,0.0017601899,0.032740742,-0.0628373,0.06290413,-0.03362082,0.03089757,0.0455865,0.07565173,0.07961003,-0.055350978,-0.017962834,0.07536621,-0.013908133,0.03701129,-0.05523728,-0.051702015,0.017671335,-0.052086797,-0.031981487,-0.04666367,-0.03656612,-0.01630232,-0.008530086,0.06370697,-0.02404683,0.0053064963,0.0017123801,0.05053258,0.040261764,-0.013869381,-0.030436939,-0.083730415,0.0018128185,-0.029156892,0.06826412,-0.013166199,-0.03265659,-0.050574597,-0.041087776,-0.0669935,-0.070978805,-0.08783929,-0.0066545103,-0.05575639,0.032319803,0.014541645,0.117959276,-0.024278792,0.0035840883,0.036197428,-0.0018248855,0.025693953,-0.06696469,-0.005770221,-0.03444392,0.016527899,-0.08798571,0.018081453,-0.06953958,0.0071728127,-0.04300878,-0.015867822,0.037688352,-0.037881617,-0.122991435,0.037803937,0.020640828,-0.00763654,-0.044645205,0.023730388,0.09877505,0.009771602,-0.03184485,0.020667082,-0.015137127,0.0528018,-0.056332506,-0.17591879,0.04885621,-0.046911966,-0.021812027,-0.008750841,0.1157672,-0.058456868,-0.031783685,0.045260783,-0.039353047,0.00017153705,-0.00046394067,0.0056839744,0.023404434,-0.11785664,0.14595826,-0.030737901,-0.063436806,-0.16455588,-0.022307111,-0.00070763845,0.019881837,0.017543705,0.03102138,0.030551076,-0.019736126,0.17922662,-0.052010473,0.061194744,0.05781886,0.08764286,0.0060711345,0.011463661,0.16566405,-0.024718022,0.012462445,-0.033413067,0.11373435,0.008435413,0.054615457,0.040521555,-0.029950416,0.02636838,-0.041839447,0.0005406181,0.096027516,0.017965024,0.05713813,0.024830062,0.006274038,-0.0560878,0.08830126,0.030610284,-0.048584003,0.06568369,0.0765085,0.092653655,0.05382524,-0.033821736,0.0058198613,0.05006562,-0.066274665,0.023298401,-0.0035370002,0.033039354,0.011567739,0.010296621,0.083573595,-0.02104145,-0.003753166,-0.02915997,-0.004134051,0.012510046,-0.0023604413,-0.035519294,-0.033347674,0.018343017,0.0032582232,-0.00846952,0.015240962,0.038420442,-0.005605488,-0.01329449,0.005292319,-0.023738934,-0.03912249,-0.0149544235,0.092787184,0.036885835,-0.003598608,0.074765176,-0.029219288,-0.0037992361,0.022405947,-0.005519271,-0.0036514658,0.039823122,0.010305027,0.005256287,0.012960891,-0.032032613,-0.04365867,-0.1310356,-0.04913386,0.03965544,-0.0060280683,0.055310316,-0.05356573,0.05313034,-0.019831818,-0.051420864,0.028055096,-0.017630493,0.17367695,0.059531204,-0.019752018,0.02188078,0.014964598,0.028093994,0.0688378,-0.08213923,0.13336329,-0.011452889,0.013287855,-0.054119214,0.054422487,0.07323274,-0.025316725,-0.016655553,0.00538152,0.045610573,0.03198993,0.0117837135,-0.07877372,0.01312777,0.028460806,0.010666951,-0.0090363985,-0.01755365,-0.006831475,0.0026157913,-0.019174047,0.024996514,0.0006731034,-0.061954647,0.164426,0.07748787,-0.07323047,0.00855279,0.09840083,-0.004021679,-0.003878971,-0.12675156,-0.00243061,-0.042693112,0.004156993,0.054639302,0.025454745,-0.042861924,-0.08842216,0.080143705,-0.075601734,0.13379349,0.040416505,0.028645396,0.00083543546,0.039991282,-0.0041365386,0.09725639,-0.024168234,0.019769574,0.10055412,-0.014794663,-0.0831188,-0.093751796,-0.0039001943,0.0364897,-0.0224097,0.016222207,0.06182688,-0.011083301,0.054070838,0.029304853,0.022263043,0.006678284,0.026303606,-0.015720446,-0.07035004,0.021379432,0.0067493627,0.009695621,0.035861734,-0.06265347,-0.0046819802,0.07301034,0.03080854,-0.006186509,0.058017924,0.033136833,-0.0019572582,-0.040737327,-0.05602577,-0.0331409,0.06129673,-0.009777241,-0.008819216,-0.030904606,-0.06751095,0.032099046,-0.033937927,0.06228903,0.10707545,0.029014723,0.078804694,0.06099261,-0.07009971,-0.03184422,-0.011406538,0.06507951,0.015078627,0.019435545,-0.048142754,-0.09450513,0.08541843,0.07512342,0.0016445303,-0.059010603,0.040574387,-0.025326576,-0.022272784,0.02530789,0.035104007,0.04965829,-0.05228259,0.0017704066,-0.010080613,-0.061623145,0.09732783,0.009242315,-0.024343131,0.04942505,-0.025479244,-0.03847668,0.036433205,-0.04113307,-0.011355474,-0.037933227,-0.023093356,0.17883456,-0.09186221,0.043927334,0.05108639,0.022483425,0.032408804,-0.0068286844,0.13111536,-0.07557345,0.034702543,0.027131401,-0.035966396,-0.09366703,-0.009965763,0.015264608,0.06503851,0.022817286,-0.05318279,0.03589868,-0.02690119,0.00080496445,-0.029974759,-0.011099882,-0.08091055,0.050951954,-0.0576114,0.062084228,-0.041315705,0.008574858,-0.017628826,0.020896612,-0.012027889,0.048040546,-0.037560068,0.030931532,0.03853772,-0.09872589,0.016850233,-0.082167044,0.005157123,0.029022904,-0.0859081,0.019403402,-0.007234251,-0.088504896,-0.08836781,-0.06197833,0.03121665,0.06094576,0.026604235,0.11699627,0.025446367,-0.018854957,-0.01737871,-0.12123926,-0.03463956,0.03130113,0.053228103,0.03426207,0.066587016,-0.06692471,-0.016175846,0.05561497,-0.036078494,0.085760206,-0.11338628,0.011474392,-0.00658609,-0.024397634,0.015717467,0.045964684,0.08603088,0.04548295,-0.024371536,0.026825687,0.017232573,0.0022701959,-0.015042957,-0.05083337,0.018194884,0.051450223,-0.08204384,0.020911777,0.06548143,0.0023747697,0.025337353,0.124084584,-0.0011897502,0.025193268,0.024688438,-0.1725731,-0.033193998,0.054188643,-0.04509331,0.08258971,-0.014402375,0.042653583,-0.05488279,-0.041992985,-0.07137332,-0.009017387,-0.030472847,0.0005410919,0.014770482,0.0029417838,0.025320748,0.07022494,0.14167339,-0.08325558,0.023064258,-0.011616174,-0.06765364,-0.045016825,0.06028122,0.0017211447,0.016081559,0.03138669,0.0033382797,0.009733591,0.024042184,-0.012272822,0.044957306,0.0100351265,-0.050185017,-0.05981261,0.04630524,-0.056718677,-0.08077914,0.011446445,-0.013524267,-0.015910022,0.018668631,-0.011106361,0.049597472,0.11027499,-0.046593655,0.03410099,0.05732266,-0.08016044,-0.019291878,0.020217929,-0.041643634,0.017064787,0.005229538,0.08714935,-0.028624732,-0.085334994,-0.091702476,0.022970825,-0.016130403,0.114250734,0.1526895,0.054434814,0.004590356,0.023392161,-0.023683582,0.10053523,0.06784118,-0.02260735,-0.011234274,0.06524113,0.0081662955,-0.040866643,-0.043060903,0.10324605,-0.0017001,0.01977139,-0.0062322835,-0.044964917,-0.07965476,-0.07192471,-0.040679898,-0.027570032,0.048698273,0.0061192345,0.08916406,-0.038893394,-0.022996983,-6.746873e-05,-0.0128331315,-0.009080449,0.08565678,0.057717066,-0.017796367,-0.047873855,0.09581147,0.050697416,0.027082339,0.007943583,0.040470477,-0.014191693,-0.017410295,0.04400824,-0.025315195,-0.060332127,-0.022668375,-0.030167423,-0.029612413,-0.017588412,0.07606396,-0.047009267,-0.008891568,-0.033260733,0.041105524,0.013463254,-0.038779393,0.039010655,-0.008764503,-0.05375376,0.00048407353,-0.0168788,-0.017319866,0.08972268,0.0070264847,-0.05237437,0.012415407,-0.02379561,-0.032492235,-4.2907894e-05,0.0492623,-0.047085002,-0.0012098446,-0.024883654,-0.02627988,0.052166894,-0.022305083,0.018488951,0.030675484,0.032151125,0.055083152,-0.019011501,0.02300421,0.023887256,0.069718696,-0.07973004,0.10853394,0.053214677,0.025202848,0.039952658,-0.03012796,-0.06799799,-0.012559597,0.02142376,-0.04788699,-0.022257805,-0.012100503,0.025328968,-0.007625634,-0.0038521225,0.15379764,0.020522237,0.013958089,0.008146755,0.039693676,-0.04684849,0.0021723737,0.025977662,0.009074262,-0.040906925,0.0073391795,0.015809163,0.05562149,0.017047836,-0.073392265,-0.05867821,-0.035179693,0.067312606,-0.036630157,-0.045666873,0.04315129,0.0026998129,0.07499162,-0.051287465,-0.10379639,-0.060265753,0.022827316,-0.031975854,0.09579044,-0.03752046,-0.0048872204,-0.022399116,0.09066071,-0.0026053558,-0.022015346,-0.016411947,-0.040266924,0.042109367,-0.01934644,0.07309629,-0.008493161,-0.00715404,0.059781432,-0.0967016,0.07713428,0.0678705,0.0035447166,-0.090069175,-0.12061388,0.08317478,-0.011415747,-0.058450505,0.06918065,0.089074254,0.012445199,-0.030708065,0.013705663,0.07269433,-0.14637111,0.06055367,0.018272493,-0.026031224,-0.08067482,0.07671793,0.07484865,-0.0081829615,0.0043746773,0.047931578,-0.10789336,-0.046268065,-0.0066055367,0.024981244,0.06252471,-0.0061969543,-0.058998372,-0.0063368697,0.10383532,-0.065990716,-0.05218792,0.0494101,0.03966629,0.041935746,0.05514825,0.00965404,-0.008056892,0.0930143,-0.078786656,-0.01961027,-0.12922356,0.02765022,0.004753489,-0.06780253,0.051309682,-0.025120284,0.004693846,0.003681871,-0.09812128,-0.01266259,0.0917366,-0.04302824,-0.10694039,-0.0028257319,0.009534716,-0.02493846,0.012276459,-0.028861267,0.041412894,-0.05005731,0.013033182,-0.110429265,0.056005873,0.051276375,5.3126947e-05,-0.031828314,0.028099999,0.005740733,0.015399515,0.004210289,-0.042158533,0.0087954225,-0.0067463703,-0.055504736,-0.00597884,-0.07044294,0.07328627,-6.25966,-0.054160394,0.029734066,-0.026544113,-0.009177411,-0.0253109,-0.055351205,-0.061001487,0.10288225,-0.029648371,0.06751438,-0.00025964057,0.050929435,-0.02204838,0.0021731462,-0.004275077,0.02273808,0.00590998,-0.01672852,0.070142664,0.045027625,-0.005616633,-0.012093812,0.13376199,0.009981094,-0.002978295,0.031521205,0.014968771,0.039385296,0.12268404,0.02236486,0.01887786,-0.0669889,0.09124987,0.05109176,0.13422233,0.045209598,-0.0033605606,0.17931844,-0.06324527,0.039147288,-0.0865682,-0.012922937,-0.01830284,0.011372735,0.015756503,-0.04688236,-0.06174317,0.029376931,0.039032474,0.028946638,-0.0015454972,-0.0112072155,-0.09214658,0.060011115,-0.0022167605,-0.017091636,0.11128241,0.049380478,0.07946242,0.06606741,0.018416425,-0.04870908,0.039728805,-0.0098622665,-0.034350105,-0.049453188,-0.0018503042,0.009933036,-0.038775634,0.03707558,0.022769574,-0.005448904,0.072597094,0.028114546,-0.023845287,-0.042195443,-0.06549728,0.12866762,0.02583523,-0.109364316,0.08580698,-0.052121326,0.08025329,0.085855894,-0.033418525,0.05287688,0.09988559,-0.020633306,0.055494927,0.109905995,0.0974719,-0.0073627695,0.006826046,0.03164847,-0.010185537,-0.05567866,0.053732112,0.029618708,0.04431606,0.019516127,0.028687008,-0.010201056,0.053102672,0.026603485,0.0007942198,-0.033242214,0.03742854,0.02259083,0.06648108,0.034146603,-0.07072971,-0.06044162,-0.007548691,-0.024044931,0.035140347,0.06879078,-0.1110554,-0.01854152,0.063740306
205KP-HG,0.0048294794,-0.046680287,-0.011637478,0.054311164,-0.079746276,-0.018294029,0.0072609056,-0.05626315,-0.0038646923,0.057508454,-0.013238963,-0.014273115,0.121587835,0.09710734,-0.018947149,0.07090838,0.04229409,0.046595752,-0.0039641038,-0.049341876,0.055251975,-0.0602191,0.04681875,0.029502315,-0.011069776,0.016392583,0.000217903,-0.023104621,0.001894614,-0.13659877,-0.005062678,0.0071599013,0.07954333,0.04793306,-0.004840795,0.009627613,-0.02865719,-0.011271056,-0.011506429,-0.0067358557,0.039287534,0.03868974,0.12929149,0.016593654,-0.04044952,-0.08209016,-0.07375625,0.028280957,0.01022387,-0.05320069,-0.02915586,0.048532818,0.060239434,0.043033525,0.028974282,0.009288908,0.009452194,0.027638787,0.026855834,0.01662883,-0.13595524,-0.012460839,-0.050339326,0.07305578,-0.01497895,0.032066114,0.0711142,-0.06871388,0.06487145,-0.028435757,-0.0051414166,-0.06799246,-0.0105797015,-0.07588983,0.008381922,-0.023181446,0.013700571,0.15900995,0.015046388,0.054759737,-0.0057037026,0.006509434,-0.069636665,0.10783329,-0.021765972,-0.0059466455,0.07820721,0.055622265,0.10253567,0.022632016,0.07148704,0.07304722,0.0001563463,-0.041437075,-0.03406055,-0.033809364,-0.0025133092,0.017920969,0.07494602,0.036256243,0.0560975,-0.016651878,-0.03447275,-0.07087049,-0.015716387,-0.04180871,-0.042150225,0.015744168,-0.049576163,-0.024069937,-0.022982521,0.001047956,-0.015018349,0.025560893,-0.017449018,0.01991285,-0.15707104,-0.091422014,-0.004813421,0.08161117,-0.03199139,-0.002101208,0.06336211,-0.009819208,-0.023554655,-0.06561197,0.056662604,0.016883234,-0.08330899,0.058594696,-0.010736073,-0.044253476,-0.028532773,-0.045425907,-0.0010341406,0.08839815,0.0029499568,0.10863212,0.02435613,-0.036441926,0.040867556,-0.08760473,-0.031754363,-0.0051455386,0.05856182,0.19949974,-0.070051245,0.049453583,-0.04716783,0.016876496,0.07838037,-0.0032066007,0.012872223,0.04396515,0.022745598,-0.14351578,0.085781045,0.076203376,0.023501603,0.049146403,-0.036257412,0.08920989,0.06445114,-0.05140416,-0.012554027,0.012647469,0.07916728,0.017466787,0.09206007,0.013732131,-0.025829934,-0.008013486,0.08126733,-0.050140306,-0.0757022,-0.010380437,0.0026813233,0.06253283,0.066654325,-0.0010535143,0.016138585,-0.0070285415,0.012027913,0.019640615,0.014485766,-0.053073455,-0.06786642,-0.013090362,-0.06632853,-0.03951625,0.0018321694,0.10333296,0.03315197,-0.044355117,0.115723304,0.030145062,0.020371148,0.05908625,-0.06801394,-0.027382258,0.040710595,0.034822006,-0.06708575,0.051165845,-0.015689608,0.008280681,-0.0023148493,-0.038399443,-0.1110696,-0.1431016,0.09254598,0.02087053,0.016112544,0.07141792,-0.07096649,-0.017000116,0.031415123,0.017584927,0.11431256,0.017847847,-0.028411932,-0.054248165,0.04376815,-0.061476834,-0.014856815,-0.07339211,-0.16670753,0.0597118,-0.1396237,0.0563318,0.1001635,0.017582232,-0.062203705,0.03991483,-1.24537,0.034874067,0.18887615,0.01814558,-0.04892019,-0.058795944,-0.029898213,0.061279748,-0.020769589,0.02474187,0.031852454,0.046717197,0.056726232,0.023449568,0.023350421,0.025154678,-0.10797402,-0.0052932645,-0.10019231,-0.037611667,-0.01918407,0.07328964,-0.009521585,-0.0125637455,-0.03828229,-0.16684355,0.0937153,0.03709407,0.056770597,0.07446626,-0.04544831,-0.05371715,-0.07547222,-0.0687179,-0.014851693,-0.013398411,-0.029374816,0.054913655,-0.011164265,0.021406556,0.011339591,-0.010892858,0.035286967,0.033886336,0.017578911,-0.03646337,0.007466366,0.012813823,0.11167669,-0.0052626124,0.010015074,-0.10331723,0.03232528,0.030082779,0.010893922,0.056712873,0.0035133585,-0.005342858,-0.05265868,-0.08491073,-0.034566294,-0.014957954,-0.017145509,0.05709295,0.09632169,0.010589631,0.10769116,0.011858308,-0.08698638,0.04716453,0.017549405,0.015682973,0.012849953,0.049328275,0.005888199,-0.06713202,-0.03315379,0.019129602,0.030079689,-0.02529145,-9.450865e-05,0.031793997,-0.042770796,-0.030716678,0.0123684555,-0.018393226,0.023147456,-0.014823616,-0.035814762,-0.004073985,-0.05305805,0.045166723,0.01349966,0.019642545,-0.05186461,-0.029895358,-0.047304712,-0.018737275,0.104667395,0.025874857,-0.12735969,0.0015684222,0.13185199,0.004416083,0.043053333,0.014743449,0.025784258,-0.038383715,-0.07333979,-0.021861741,-0.08668432,-0.05946525,-0.062471464,0.028440224,-0.016083183,-0.06846364,0.042381927,-0.032062266,0.017279577,-0.026354691,0.10663859,-0.016254334,-0.008770222,-0.0052489922,-0.05044154,0.00956465,-0.03800302,-0.01712209,-0.012339007,0.035344414,-0.0038331524,0.02811416,0.10852852,-0.030509936,0.012131565,-0.05721328,0.0890601,0.094449215,-0.035391327,-0.029184172,0.03586299,0.06693352,-0.005814329,0.11402929,0.07865837,0.04724801,-0.013089011,-0.12936427,-0.064250655,0.006079463,0.015341716,-0.02779569,-0.043545876,0.0029945548,0.014988388,0.031436786,0.000113801,-0.029030174,0.046724234,0.082749106,-0.03269993,-0.09373334,0.071542054,-0.0075732213,0.011836214,-0.006414587,0.0025802176,-0.008826557,-0.046583574,0.07018736,0.022385491,0.03624194,0.031942174,0.004567122,0.02282789,-0.11690582,0.065639,-0.001670397,0.068733715,-0.06313154,-0.004816957,0.03099216,0.12323219,0.14467975,0.04934798,0.042695012,-0.034779206,0.031432148,-0.0051868022,0.11814804,0.00019696873,-0.024468556,0.022302695,0.052102104,0.07205555,0.02433004,-0.050167874,0.07042437,0.016729493,-0.0008834827,0.029766768,0.032908253,0.0042923177,-0.016221948,-0.038238592,0.011927153,0.018698493,0.055464398,0.037548494,-0.110489115,0.02684615,-0.020723067,0.067341425,-0.037958544,0.03436703,0.045454066,0.056793723,-0.016304964,-0.03660964,-0.010071136,0.042955216,0.014127165,0.017613651,0.01997923,-0.02537971,0.16282654,0.051014543,0.012946278,0.024540408,-0.0805053,0.05829003,-0.028022885,0.038538855,0.052550413,0.06699234,0.07421702,-0.045544013,-0.01870864,0.06547874,-0.0044371616,0.046883617,-0.05626164,-0.0439599,0.0028448817,-0.045774076,-0.02790735,-0.059861615,-0.036116935,-0.0055746343,-0.02218116,0.06729171,-0.03392368,0.00079458836,0.0025468243,0.052197292,0.031025572,-0.008026991,-0.039095733,-0.08921166,-0.0042436975,-0.022918083,0.069569126,-0.0043371283,-0.027709676,-0.05321665,-0.035069495,-0.08727264,-0.0818765,-0.08813591,-0.0065312553,-0.052810553,0.04678417,0.014395005,0.12138861,-0.0268256,-0.0077569284,0.031473674,0.00723134,0.024394425,-0.0687782,0.0018122835,-0.04329475,0.010576028,-0.087343,0.016894553,-0.077963375,0.009503845,-0.05461458,-0.013036794,0.038710937,-0.049777202,-0.12474505,0.031461522,0.009944496,0.006529908,-0.040935706,0.01844512,0.09641641,-0.002437838,-0.029918663,0.016655637,-0.010850549,0.050339267,-0.04745029,-0.17256105,0.048306238,-0.056424543,-0.016588435,-0.0013008275,0.11282411,-0.051925216,-0.031416107,0.063497804,-0.044751257,0.004550411,-0.003529398,0.004961921,0.015347792,-0.12408849,0.14031988,-0.012267013,-0.06817862,-0.1786902,-0.023506232,0.0050561386,0.02401039,0.0069907587,0.033311047,0.017388249,-0.020438114,0.16822246,-0.06406791,0.049927995,0.0649056,0.08486847,0.030127019,0.0048952284,0.16259728,-0.0342622,0.02500865,-0.035073046,0.11490185,0.0063160355,0.0523028,0.04844524,-0.01983622,0.039632965,-0.05200914,0.013788825,0.07872785,0.016602887,0.066699356,0.01962993,0.019663863,-0.035836495,0.090564325,0.023263037,-0.05832253,0.06532356,0.06726,0.09590652,0.06260594,-0.044124834,0.0022024505,0.062487185,-0.06256495,0.016121794,0.0045479024,0.018203488,0.019810814,0.025753098,0.0835298,-0.009414662,-0.004546225,-0.036286052,0.0011116578,0.01731351,0.013640836,-0.033833414,-0.037927955,0.009871802,-0.0027914906,-0.0028124386,0.014785271,0.04692319,-7.02314e-05,-0.0058807707,0.011835481,-0.027689066,-0.042580012,-0.004774302,0.10296082,0.027558569,0.005182652,0.06719008,-0.030167516,0.010754495,0.021656508,0.013099122,-0.015559652,0.05459048,0.01929731,-0.0042892196,0.010233427,-0.033638388,-0.040119678,-0.1326768,-0.040067926,0.04372609,-0.00085932825,0.061820157,-0.03902932,0.04573481,-0.016103782,-0.04170768,0.016121753,-0.011405739,0.16850606,0.04371504,-0.018241001,0.016145123,-0.0015804012,0.02965338,0.07159511,-0.077422775,0.13021837,-0.0051168553,-0.0001898857,-0.06593094,0.06351057,0.07411987,-0.0017161726,-0.017980298,0.01092751,0.0428452,0.04096157,0.026230501,-0.0801997,0.015358274,0.021506716,-0.0047547054,-0.012329129,-0.02505974,-0.003365703,-0.00896894,-0.00943029,0.032351457,-0.0074054333,-0.06952173,0.16025579,0.07433742,-0.08590033,0.00035502244,0.087113336,0.008661227,-0.004345506,-0.083435535,-0.0020595416,-0.040540036,0.0081825815,0.058131192,0.016996032,-0.060634043,-0.07552618,0.08532795,-0.06398128,0.13879201,0.050841328,0.03844139,-0.023492495,0.030907733,0.014773301,0.09172992,-0.016169634,0.0066994447,0.097873144,-0.021945415,-0.08611552,-0.08822449,-0.005477229,0.04998304,-0.026548512,0.017181784,0.057641216,-0.014290899,0.06298984,0.041087016,0.018018872,0.009632817,0.03187825,-0.034190767,-0.09655838,0.01816114,0.0062217712,0.005788738,0.032669242,-0.059056416,0.0015245242,0.0884185,0.040676646,-0.02703478,0.059201393,0.05806205,0.0055484753,-0.019502068,-0.060679104,-0.022433108,0.063849434,-0.01647497,-0.02390451,-0.033694346,-0.06591579,0.024934625,-0.024668956,0.07507377,0.10807536,0.014187004,0.0908382,0.075249,-0.050334733,-0.024422126,-0.0043716324,0.068557255,0.0025057767,0.008685961,-0.033152975,-0.10745149,0.075337425,0.073235594,-0.002570481,-0.07311441,0.033543978,-0.041661993,-0.025559403,0.021150555,0.036614385,0.042858113,-0.0396449,0.021763496,0.0029030824,-0.061476454,0.095549054,0.0040486883,-0.028147439,0.036989905,-0.026190944,-0.015201415,0.042753477,-0.033151243,-0.016749123,-0.029657023,-0.018943507,0.19724865,-0.06986821,0.052185245,0.04847081,0.020769708,0.040022105,-0.0042172354,0.12880065,-0.06413447,0.010982033,0.036406487,-0.038898706,-0.095068336,-0.0056689866,-0.0008013381,0.054611016,0.015185226,-0.06037657,0.027874768,-0.020299528,0.00020814025,-0.035127662,-0.002027939,-0.07127677,0.047686182,-0.06769385,0.0583605,-0.03993334,0.03028824,-0.012150264,0.00785097,-0.011128082,0.056532998,-0.04324544,0.021693727,0.046329066,-0.09907323,0.002705169,-0.0777438,0.010164985,0.028913697,-0.080087334,0.022215499,-0.0131102465,-0.08308395,-0.080349125,-0.055379704,0.0418661,0.059847634,0.010183917,0.11447496,0.030951569,-0.020514898,-0.0365787,-0.11389109,-0.03350486,0.026660798,0.06157814,0.03261056,0.061113827,-0.061870676,-0.022105869,0.05774612,-0.022316556,0.07181825,-0.096559376,0.015857786,-0.0085835215,-0.0155242495,0.013106716,0.0578837,0.07948347,0.025387364,-0.033291243,0.039449673,0.02587547,-0.0018194342,-0.024501532,-0.044468597,0.015176916,0.04504678,-0.0774596,0.023043156,0.055426147,-0.00022640907,0.020466993,0.12985814,0.00390454,0.040785618,0.03151178,-0.119649,-0.030369826,0.06895061,-0.061322734,0.0802743,-0.0126898335,0.042036314,-0.05305431,-0.049831253,-0.06719035,-0.0022149808,-0.032112777,0.005101079,0.0015174802,-0.0019105333,0.030601982,0.05658316,0.13720055,-0.07473169,0.033394616,-0.027866248,-0.058871362,-0.055217,0.060822506,0.0025284034,0.031410087,0.03624782,-0.0017654741,0.0077149454,0.022374563,-0.020789547,0.037941888,0.006999159,-0.042587504,-0.060540438,0.037096247,-0.053020086,-0.07444943,0.009272651,-0.018198699,-0.011413086,0.025572417,-0.0024212173,0.056296833,0.11123567,-0.05665717,0.034104362,0.049711514,-0.07687342,-0.0061953873,0.026822578,-0.032377806,0.007411334,0.0013572398,0.069143325,-0.051187407,-0.06553665,-0.093983226,0.02288372,-0.033009335,0.11325332,0.1427444,0.06244962,0.008532068,0.033705592,-0.011369396,0.10154845,0.06468457,-0.038538337,-0.030929573,0.05345397,-0.014842376,-0.052999232,-0.030913131,0.11426519,-0.01587874,0.011594619,-0.008957461,-0.049052007,-0.07488007,-0.06667805,-0.0357915,-0.030836582,0.045988567,0.016968168,0.07250914,-0.04361548,-0.016775297,0.00064604223,-0.0063206786,-0.0067228517,0.09315173,0.029921515,-0.02504523,-0.041403558,0.10670759,0.04819516,0.033208616,0.009878515,0.0390261,-0.0011557222,-0.028193666,0.039794672,-0.036274526,-0.061017726,-0.028853409,-0.026852356,-0.026855292,-0.017104788,0.08364998,-0.047278073,-0.008102028,-0.05217058,0.052120388,0.0051840288,-0.03156104,0.042470973,-0.014827198,-0.050149303,-0.002577455,-0.0074351854,0.0032426142,0.08006684,0.004478578,-0.05377531,0.005971281,-0.0057326904,-0.016452137,0.0025183426,0.022201532,-0.058047228,0.010885793,-0.039874773,-0.036263973,0.06829619,-0.022235096,0.014119474,0.037937455,0.026638392,0.053351786,-0.015823748,0.034025546,0.01601302,0.07607578,-0.09314864,0.1129266,0.060054235,0.034648936,0.047863144,-0.041387185,-0.06495383,-0.018738164,0.0033165244,-0.036975875,-0.026020069,-0.037973527,0.030538507,0.015208036,-6.840047e-06,0.15544434,0.027876742,0.02058403,0.0025026905,0.04302981,-0.03453062,0.009153098,0.028012348,0.0020999934,-0.030254893,-0.00090802234,0.028436475,0.04174996,0.016749276,-0.07481382,-0.061980143,-0.03090227,0.06281575,-0.05173981,-0.043206096,0.03720183,-0.010111168,0.099053964,-0.057608563,-0.09392638,-0.056543097,0.016003668,-0.033817668,0.09654489,-0.03064053,0.0020329582,-0.013187359,0.07425318,0.00678912,-0.019386407,-0.008612753,-0.032449573,0.03749659,-0.02954834,0.08706609,-0.01229759,0.010639464,0.0647299,-0.08193537,0.09553212,0.06426305,0.0154323615,-0.08916084,-0.1147957,0.09064764,-0.015425661,-0.05582785,0.08226652,0.07652663,0.007829268,-0.04296599,0.0153783,0.071542084,-0.14202414,0.0419165,0.02410005,-0.034477547,-0.08437728,0.08388634,0.071453094,-0.0069067865,0.0064016003,0.03993766,-0.11818136,-0.056486532,-0.0035302502,0.02630164,0.048208516,0.0012572958,-0.053400382,0.001880832,0.10746275,-0.069939665,-0.059531257,0.05319172,0.059388883,0.04464676,0.049881827,0.0023827686,-0.0076936237,0.08310627,-0.07529107,-0.02428172,-0.121563435,0.04033065,-0.011981126,-0.062616594,0.045231108,-0.031723507,0.025060985,0.002537751,-0.104377955,-0.0025591059,0.07250392,-0.047651637,-0.113132544,-0.016287317,0.0070015276,-0.0104268575,0.0027049382,-0.020109808,0.03974798,-0.03494611,0.007184642,-0.107476145,0.059406407,0.055819258,-0.0070285443,-0.024127858,0.018415187,-0.0033668482,0.009562675,6.043166e-05,-0.03343562,-0.0040680477,-0.01661304,-0.06264897,0.002842719,-0.08673796,0.064239174,-6.1730847,-0.050533284,0.033384994,-0.03097956,-0.0060528154,-0.022923429,-0.052573677,-0.0509158,0.09751167,-0.024867363,0.071113974,-0.014551363,0.05265309,-0.028432084,0.0068427227,0.007311403,0.035939015,0.019775905,-0.017749326,0.07047483,0.060278952,-0.017240934,-0.020390743,0.123108305,0.015963811,-0.024534604,0.02331292,0.008961103,0.047552675,0.13244101,0.022997629,0.018697629,-0.051846717,0.08174113,0.022192948,0.14819163,0.040209573,-0.006961752,0.17525178,-0.06546908,0.036432184,-0.074543744,-0.013378132,-0.017740527,0.017410237,0.0032164778,-0.045349684,-0.07970073,0.025809474,0.033569228,0.03966635,0.00034114564,-0.008541999,-0.09014678,0.05876416,-0.01210554,-0.02454047,0.112329334,0.04838603,0.08777071,0.07125363,0.015614486,-0.04494666,0.058546033,-0.005070479,-0.023367157,-0.05161228,-0.0062100682,0.0061071087,-0.049281605,0.0663654,0.022383798,-0.007009978,0.0713086,0.028054204,-0.029048063,-0.040326137,-0.08319182,0.15296033,0.021217741,-0.10639286,0.074576706,-0.050521348,0.07436451,0.08643365,-0.033556923,0.05262133,0.10668916,-0.025198612,0.070986375,0.11736289,0.09608393,-0.03256841,0.006977457,0.020672083,-0.01120466,-0.062026765,0.04561819,0.044370253,0.040945917,0.03507264,0.038239162,-0.016699174,0.057136945,0.01721776,-0.012313755,-0.045742895,0.03387839,0.032730468,0.07436863,0.033841565,-0.06759421,-0.0619363,0.0142381275,-0.015959194,0.05515354,0.08882698,-0.11545314,-0.008907355,0.064446546
52KP-HG,0.0027450442,-0.06316433,-0.021378964,0.06653812,-0.08371672,-0.010313314,0.03311786,-0.06995873,-0.035010107,0.066051185,-0.009519857,-0.020930883,0.1286245,0.11951247,-0.020880206,0.07944574,0.050087582,0.051765986,-0.009131535,-0.028821455,0.06034344,-0.059557945,0.04225792,-0.00285528,-0.012122836,0.026294678,0.0059785624,-0.024767827,-0.0027414777,-0.13069977,-0.01744637,0.014804315,0.09545803,0.051007774,0.006034705,0.011726205,-0.033265654,0.0072316388,-0.025105486,0.0022124082,0.02621649,0.027939998,0.14074247,0.011329605,-0.024848904,-0.06171009,-0.05577789,0.046704147,-0.003839667,-0.059758037,-0.051791932,0.038686186,0.053382546,0.04349477,0.028351044,0.012586614,0.0039431565,0.014173615,0.02118429,0.020255392,-0.14201811,-0.0027424511,-0.049629938,0.067755125,-0.012316417,0.032862537,0.08220707,-0.07039582,0.09452524,-0.043663215,0.005206786,-0.076806925,-0.0011326957,-0.07440158,0.003044569,-0.021063816,0.029643191,0.16062497,0.019209808,0.057824805,-0.011447629,0.0061642057,-0.07978611,0.109217346,-0.02294682,-0.0037294421,0.075206816,0.050541926,0.09765927,0.015062881,0.070484936,0.080808595,0.012318625,-0.035438526,-0.03450549,-0.042127024,-0.005794241,0.018510584,0.079630874,0.030869663,0.054158475,-0.036870472,-0.04752013,-0.05613933,-0.032730274,-0.038563263,-0.03401789,0.0033468306,-0.042271446,-0.03232226,0.006380151,-0.010259849,-0.027555076,0.02651945,-0.011728781,0.0061154645,-0.15297775,-0.08751478,-0.012591793,0.09025557,-0.04005156,0.003674365,0.062338702,0.0057790857,-0.036705147,-0.06743559,0.059517145,0.007792308,-0.08199802,0.055880953,-0.025594722,-0.018926166,-0.033236593,-0.06255859,0.00769946,0.09906086,0.03197037,0.1101103,0.016617008,-0.043618675,0.04762756,-0.09062521,-0.023783559,-0.0138062555,0.059626747,0.19825815,-0.05958295,0.06036289,-0.051321257,0.019507213,0.09080892,-0.020391718,0.012480281,0.025116539,0.0072415806,-0.12715451,0.0735415,0.07920756,0.03772661,0.037389074,-0.047437374,0.10038442,0.064384006,-0.0705205,-0.0060966294,0.0227144,0.08519077,0.03219811,0.09412309,0.008276762,-0.018626938,0.003026837,0.09295716,-0.046970267,-0.06592162,-0.026809033,-0.008263994,0.06480875,0.06643249,0.0020999182,0.015105023,-0.012471428,0.023302115,0.021616628,0.012259734,-0.054400712,-0.07315012,0.000437453,-0.05578949,-0.04411141,0.018995384,0.09846641,0.05106917,-0.06700731,0.12149822,0.038707666,0.029497743,0.04498919,-0.07765455,-0.0241836,0.04378807,0.06183772,-0.071324885,0.04975181,0.00027847613,0.008983111,-0.006635493,-0.029862618,-0.13572496,-0.1457705,0.072901465,0.033853643,0.029181406,0.06941855,-0.07896124,-0.0062873447,0.024682555,0.0027896322,0.120594904,0.01385952,-0.023070965,-0.059403054,0.057067085,-0.06369384,-0.011695388,-0.066394985,-0.1783253,0.06005266,-0.14287047,0.059101056,0.09813215,0.017413247,-0.07796765,0.033474073,-0.8336494,0.037964355,0.19680007,0.041125745,-0.06457316,-0.06684457,-0.027110618,0.07566567,-0.02674316,0.03494953,0.027681584,0.045381535,0.05418514,0.015419907,0.013482186,0.02051404,-0.1453909,0.0061918856,-0.08082337,-0.013522962,-0.036210362,0.064883806,-0.011956793,-0.010646077,-0.040021766,-0.18995646,0.107681386,0.034336444,0.045017574,0.07908093,-0.03706664,-0.053940624,-0.079233505,-0.0692111,-0.007265013,-0.014311334,-0.022337602,0.051776215,-0.026254602,0.030217437,0.015947644,-0.016428836,0.040102094,0.039681513,0.012993919,-0.025356188,0.0051766057,-0.0018858365,0.11258114,-0.0037868796,0.016351175,-0.14480634,0.016072566,0.03156035,0.035228856,0.063867785,0.007424215,-0.004275097,-0.05887691,-0.09515674,-0.041114036,-0.00624759,-0.014312724,0.062615834,0.08718691,-0.005176856,0.10543359,0.016308362,-0.07518257,0.05750568,0.01718649,0.022452349,-0.016236743,0.039235134,0.00025079979,-0.08333492,-0.02900399,-0.00072663923,0.026660081,-0.016302308,0.0064873183,0.014601276,-0.037919495,-0.033560064,-0.009951946,-0.021005023,0.011765967,-0.0058759404,-0.02159191,-0.0013567082,-0.051183272,0.037174262,0.00030576103,0.042494796,-0.06519843,-0.037822254,-0.036369685,-0.037221283,0.101438135,0.01831993,-0.12579626,-0.0049143448,0.1386568,-0.0067714867,0.05774656,0.003268438,0.027215747,-0.05834762,-0.073918596,-0.028499318,-0.09604969,-0.06395363,-0.052796997,0.02209184,-0.014672039,-0.0703937,0.04646153,-0.033844985,0.025983742,-0.026247784,0.113505654,-0.02030581,-0.02594882,-0.01788133,-0.034785338,0.0030575388,-0.024020866,-0.012392557,-0.018582365,0.042836234,-0.01473757,0.017796677,0.11732901,-0.02804377,0.02382589,-0.07259078,0.111455165,0.08873735,-0.018513946,-0.027695358,0.047308743,0.091527134,0.0012213684,0.11792064,0.09388819,0.055610355,-0.0066965707,-0.096468695,-0.05515034,0.010052699,0.020981848,-0.022433378,-0.04037497,0.0008407145,0.02077125,0.0323351,0.0009889606,-0.014372273,0.027827803,0.08046254,-0.043496657,-0.09447069,0.08479019,0.0067690406,0.022576053,-0.011584696,-0.0043812874,-0.004770503,-0.06790426,0.08954481,0.010176602,0.033406526,0.019555043,-0.025206273,0.023866072,-0.08687766,0.06395104,-0.007958937,0.06442102,-0.057253104,0.0064949105,0.032191996,0.10658776,0.14089,0.0686122,0.016587425,-0.047348335,0.027858116,-0.012343289,0.10345918,-0.0080250045,-0.02553932,0.019705907,0.047825668,0.08552106,0.02276426,-0.015944416,0.069686666,0.01323262,0.0051292237,0.030439578,0.048397366,-0.024480004,-0.017149564,-0.03489079,0.001083407,0.02197965,0.034438483,0.03982639,-0.10194404,0.03917989,-0.036997244,0.05972024,-0.0268053,0.054731827,0.015365346,0.038355544,-0.018312564,-0.019892292,-0.0011109366,0.037477475,0.025228366,0.028780222,0.031477094,-0.030604785,0.18827792,0.069622725,0.006907005,0.01899897,-0.07309666,0.049393665,-0.02846544,0.029605862,0.060676876,0.06340526,0.08374721,-0.03530383,-0.011994113,0.08680552,-0.027618602,0.041915264,-0.0607543,-0.049755275,0.010958053,-0.060098078,-0.04236675,-0.036334522,-0.04492796,-0.023743251,-0.0050362153,0.054975215,-0.018657174,0.001158751,-0.0058972966,0.058262028,0.028457412,-0.014972948,-0.037125606,-0.078341305,0.0064715333,-0.015384981,0.06720482,-0.00015366764,-0.046796467,-0.045579124,-0.028976155,-0.087589025,-0.09061735,-0.10123753,-0.016121851,-0.04517253,0.034689922,0.020767685,0.11795207,-0.010630467,0.02138432,0.034066018,-0.0017842636,0.0137851015,-0.06705381,0.007017669,-0.047762405,0.014256122,-0.10219223,0.02058002,-0.08335886,0.019044971,-0.046187613,-0.01767687,0.03466917,-0.049457856,-0.12624559,0.040848505,0.042716816,-0.0013064839,-0.056584947,0.018259455,0.0987775,0.004985165,-0.042191073,0.004929924,-0.02392215,0.055442818,-0.04928319,-0.17708379,0.04296884,-0.053292338,-0.028060578,-0.0018447489,0.109746836,-0.04088846,-0.039332107,0.053074628,-0.0331392,0.0020634395,-0.0056372066,0.014752482,0.0371924,-0.12868822,0.1639092,-0.018773468,-0.057926536,-0.18247114,-0.035565168,-0.0006010866,0.020148499,0.005761315,0.03890287,0.02575899,-0.013191703,0.18703003,-0.05342105,0.062641464,0.057485517,0.08295755,0.022804147,0.006246546,0.17376684,-0.03110245,0.011077934,-0.042505767,0.1251609,0.0113925375,0.06056946,0.049588528,-0.026108887,0.023003394,-0.057666767,0.01962676,0.10713614,0.0056520184,0.0650898,0.02209551,0.015012699,-0.041641403,0.10571309,0.008390292,-0.069051206,0.07006185,0.07597756,0.1022621,0.055873778,-0.0328847,0.00048657233,0.06438496,-0.04720869,0.017871236,-0.0051426324,0.019757247,0.012032127,0.006091524,0.06654376,-0.019948006,0.0036647723,-0.019066403,0.005161181,0.0072689354,0.019245885,-0.04112185,-0.040546644,0.0029115675,-0.011967572,0.009614362,0.0029980845,0.04204207,-0.006302938,-0.0165465,0.012329323,-0.033316914,-0.027621403,-0.015546097,0.10478904,0.040569097,-0.0026822472,0.08972789,-0.01722138,-0.0006434503,0.02996338,-0.0017746736,-0.004735742,0.030871548,-0.0016782206,-0.016396072,0.01084339,-0.026992565,-0.029466845,-0.13022332,-0.051488303,0.053647984,-0.016189009,0.04285961,-0.056638874,0.05334664,-0.012493548,-0.036143374,0.024637775,-0.023151672,0.18715398,0.047426358,-0.030389067,0.025690129,0.013060877,0.024304872,0.07951791,-0.08150949,0.15071397,-0.016028533,-0.008257711,-0.06307996,0.045895554,0.07174534,-0.018608345,-0.030928988,0.00576526,0.059571907,0.0133167235,0.019898178,-0.07128822,0.012338535,0.011254126,0.016293522,-0.005137005,-0.019025395,-0.014760584,0.008249514,-0.018768186,0.029807298,-0.0028274565,-0.06803178,0.17500775,0.0787914,-0.07710439,0.012218453,0.09958694,0.006057891,-0.005990988,-0.093288474,0.0063145324,-0.024151767,-0.007850754,0.052113254,0.03092069,-0.034453735,-0.099972785,0.08053835,-0.0888375,0.13039784,0.046329588,0.046347942,0.0065776054,0.027893694,-0.017765239,0.1007372,-0.033212874,0.023577338,0.09337501,-0.010821499,-0.09156628,-0.09421227,-0.0005122691,0.04345397,0.0016079777,0.015011998,0.07000552,-0.023929505,0.041385148,0.037893765,0.014353475,0.02616494,0.027553594,-0.029212011,-0.1042422,0.006282244,0.009990656,0.008081123,0.03802653,-0.06316431,-0.0018027041,0.081071675,0.036555745,-0.01387598,0.058831032,0.022287477,0.004190254,-0.039410613,-0.056557372,-0.033630878,0.062731266,-0.00970046,-0.016301783,-0.027272578,-0.062698856,0.03145284,-0.051518425,0.06172813,0.097986355,0.018265197,0.08523198,0.072237074,-0.0516226,-0.04671315,-0.018387815,0.08209671,0.008374143,-0.0012202816,-0.03804553,-0.109680355,0.071161166,0.084051274,0.0014233715,-0.070544526,0.044762384,-0.031585433,-0.022000536,0.017093709,0.046253815,0.03978673,-0.040391535,0.009765567,-0.009571433,-0.06444035,0.107684284,0.015144892,-0.024322547,0.037317425,-0.020931946,-0.037480336,0.04142608,-0.050301634,-0.014941134,-0.042175878,-0.017171517,0.21174085,-0.07495427,0.063158885,0.050574012,0.03698807,0.030013304,-0.018956512,0.1284485,-0.079122715,0.023417294,0.04235031,-0.026025131,-0.11024444,-0.0004265585,0.0047515957,0.07119808,0.0071038245,-0.041628744,0.024375256,-0.03335294,0.0056472104,-0.035121094,-0.00930902,-0.084859274,0.056046322,-0.07204888,0.05994362,-0.030500045,0.007279654,-0.0023051805,0.0070524053,-0.012118304,0.06398028,-0.027819565,0.027922178,0.036493823,-0.0852023,0.032300048,-0.07933837,0.006995649,0.02123248,-0.08121818,0.019644367,-0.002513144,-0.08518899,-0.09014386,-0.071973145,0.03991015,0.070641324,0.03385555,0.11973133,0.032087594,-0.018069334,-0.0035350528,-0.116934426,-0.047819287,0.033575144,0.0593451,0.025555694,0.057908982,-0.071166255,-0.01880926,0.0638259,-0.045234397,0.086862154,-0.112133466,0.031464156,-0.014466247,-0.026029069,0.01606528,0.049610816,0.07693223,0.030890241,-0.033903033,0.031702965,0.014652539,-0.0061196685,-0.04119744,-0.053247202,0.019462474,0.059863202,-0.08019944,0.030365549,0.05826413,0.009017142,0.03546877,0.123572275,-0.007084373,0.013157275,0.031367194,-0.092802644,-0.03202601,0.04693547,-0.051386777,0.09660342,-0.031107793,0.04011338,-0.037357792,-0.045839183,-0.07091988,-0.0047685523,-0.035109755,0.0074415444,0.016195353,-0.013601539,0.02013583,0.06934988,0.15417077,-0.0730296,0.036124308,-0.021326166,-0.098217346,-0.07316569,0.08358828,0.012963357,0.019392245,0.047425896,0.005933991,0.006798999,0.038273484,-0.022247786,0.03466084,0.02135037,-0.063662134,-0.06516415,0.044754952,-0.067685544,-0.07949159,0.013611334,-0.021109164,-0.017597362,0.03353086,0.0030540521,0.06867092,0.106553696,-0.035968095,0.027763354,0.059120663,-0.07855073,-0.008557476,0.018726556,-0.039541937,0.026307294,0.009432791,0.080502786,-0.057253312,-0.07987535,-0.0996522,0.009255471,-0.031189097,0.11914867,0.16181862,0.05038702,0.013823834,0.01743872,-0.033501733,0.11692843,0.071825996,-0.046720568,-0.014728613,0.043103218,-0.00048753864,-0.041523367,-0.02998005,0.11832468,0.00020549956,0.02792473,-0.0049013426,-0.05311068,-0.09935523,-0.08795549,-0.029580515,-0.03801057,0.042547423,0.01026874,0.08171329,-0.040590536,-0.03302188,0.0039385697,-0.0017271964,-0.020280277,0.066623054,0.05427761,-0.037400384,-0.05886488,0.10258516,0.04841022,0.025802145,0.012450974,0.049927223,-0.010019372,-0.021300932,0.043523878,-0.036483962,-0.0910536,-0.025329625,-0.043648012,-0.034667607,-0.007360385,0.08534854,-0.04904511,-0.014376028,-0.047188334,0.05536843,0.017808324,-0.021352125,0.026609903,-0.014352334,-0.0575002,-0.0064648353,-0.015643748,-0.025122896,0.09891913,0.005318738,-0.064697504,0.005216016,-0.028763726,-0.031794526,-0.011363797,0.04005457,-0.05897391,-0.0038273714,-0.031166123,-0.043002468,0.062484026,-0.03427281,0.019184263,0.01549776,0.04147297,0.053829897,-0.022676885,0.024578428,0.016349407,0.09376122,-0.08593902,0.10570353,0.06793109,0.029770989,0.033963747,-0.03901117,-0.083508655,-0.026365208,0.019531908,-0.06938757,-0.021920985,-0.023135794,0.028935354,0.008022599,-0.0067769024,0.14658667,0.022483442,0.013656914,0.0035712225,0.03526307,-0.044111878,0.0066971676,0.027018588,-0.003650236,-0.027687637,0.0029091162,0.018576268,0.058848333,0.012478866,-0.07196925,-0.07672888,-0.035654206,0.0686937,-0.03650478,-0.047416687,0.030116467,0.0019602368,0.07908398,-0.07478954,-0.11565887,-0.07252898,0.036164496,-0.039708454,0.103861384,-0.047480226,0.0016612399,-0.007963683,0.09659222,-0.00035212972,-0.018493082,-0.03835946,-0.053526383,0.03716104,-0.03367187,0.07350465,-0.013720953,0.0038491397,0.07252417,-0.09916016,0.085059784,0.067821525,0.013699009,-0.089974135,-0.113445066,0.08265786,-0.022926534,-0.05718513,0.08189445,0.11238751,0.012116495,-0.036130525,0.01700684,0.08449647,-0.14793098,0.05664343,0.029044077,-0.044830058,-0.074072026,0.080815844,0.07916224,-0.0029101525,0.0037439088,0.037853748,-0.12457893,-0.05980287,0.0016701379,0.035242174,0.075099654,-0.013899283,-0.05219004,-0.0046553267,0.111659504,-0.058089186,-0.059505224,0.053155255,0.02815677,0.027291918,0.06528985,0.02348414,-0.021234507,0.07653173,-0.10376292,-0.03608043,-0.13380916,0.039055824,-0.016986525,-0.084435076,0.048963916,-0.014065462,0.008148589,0.0025829377,-0.097663775,-0.017960021,0.08607949,-0.058700293,-0.11144748,-0.015035476,0.0049725687,-0.010841641,0.025769195,-0.027420966,0.017728267,-0.04988039,0.006356166,-0.111766115,0.061012544,0.060491633,-0.005279595,-0.039520904,0.048148468,-0.015709503,0.0038091908,0.008918308,-0.04228357,-0.0097887935,-0.0068568415,-0.048592,0.004556015,-0.073295414,0.074837215,-5.8611755,-0.08276698,0.045136943,-0.020048873,-0.009711405,-0.020644443,-0.06394346,-0.049983278,0.12391826,-0.032757413,0.085554406,-0.009544257,0.051335994,-0.027970957,0.0021199607,-0.008086349,0.027140131,0.017469645,-0.027668223,0.07148156,0.0602631,-0.015512608,-0.007951191,0.14346042,0.016096354,-0.007439319,0.03757342,0.0161952,0.05799889,0.13004704,0.013163294,0.013857387,-0.05685755,0.09990975,0.04505834,0.13890213,0.048861887,0.003260119,0.1776043,-0.0586534,0.05840218,-0.10170157,-0.018832343,-0.0009913545,0.017569948,0.004466307,-0.06283021,-0.08043299,0.014818416,0.022041496,0.03239597,-0.018589748,-0.016658528,-0.09244042,0.06232015,-0.02593016,-0.023535885,0.112360075,0.055536326,0.09258991,0.062139586,0.016277308,-0.06436679,0.04228679,0.004901739,-0.035725936,-0.073869765,-0.021748053,0.007941755,-0.04906201,0.0455004,0.0039262064,-0.0015330194,0.07962519,0.043606564,-0.024487276,-0.04406348,-0.0872288,0.14186402,0.014738996,-0.11505037,0.06897761,-0.06752146,0.07727853,0.10639182,-0.031509034,0.0675895,0.08358565,-0.025877254,0.06391981,0.123956256,0.0954613,-0.010535614,0.0011450772,0.033184946,-0.020335237,-0.044353724,0.036029667,0.04885831,0.052271377,0.025606543,0.033852678,-0.015089278,0.04911261,0.035434052,-0.017858628,-0.032840382,0.04490483,0.03414179,0.072033666,0.018329496,-0.0760259,-0.068327054,0.005099526,-0.029452901,0.033074778,0.078611575,-0.13287948,-0.022984946,0.0801914
Kpcas042,0.008684381,-0.054998625,-0.017633934,0.052549176,-0.08080331,-0.012068303,0.016531076,-0.07309261,-0.0011439696,0.054929506,-0.013065658,-0.016004859,0.11436051,0.10355021,-0.022259574,0.072918326,0.04314343,0.036035866,0.0022089856,-0.034684964,0.06186155,-0.051131837,0.051078517,0.026033685,-0.018326387,0.01949347,0.0025575447,-0.023441894,0.005765914,-0.13404296,-0.015735274,0.011503629,0.08418015,0.04440148,0.00083890645,0.009369803,-0.012484157,-0.011367763,-0.02965432,-0.006999663,0.025718825,0.026589701,0.13374302,0.0013112657,-0.04263111,-0.06915792,-0.06017078,0.05560271,0.0017607296,-0.050992757,-0.055624086,0.036689453,0.04771947,0.040680993,0.02464535,0.00051788136,-0.0008583612,0.019586079,0.017379077,0.016152367,-0.123992026,0.0020470214,-0.04008979,0.07634996,-0.009962339,0.034257025,0.08243012,-0.064077,0.08107981,-0.043251485,-0.0051321164,-0.07401329,-0.0044436427,-0.051665097,0.00498492,-0.016680082,0.024636805,0.16615157,0.023582593,0.06011186,-0.007677062,0.008052978,-0.07784295,0.10801699,-0.031069951,-0.005078019,0.06665576,0.054123834,0.09245676,0.019171217,0.07046331,0.07336296,0.009634377,-0.040697955,-0.03538961,-0.039036546,-0.0070537855,0.021858683,0.082531184,0.03684887,0.04778489,-0.013475318,-0.03299598,-0.06562331,-0.020553144,-0.04698541,-0.02946144,0.014694935,-0.042020302,-0.030246167,-0.0065171025,-0.012821187,-0.035577495,0.018668585,-0.020111281,0.021569777,-0.14774902,-0.083135165,0.0013453182,0.06954394,-0.03592562,0.0034361454,0.058338873,0.002779356,-0.026238754,-0.06116384,0.059185427,0.013209042,-0.077271275,0.053754717,-0.015377581,-0.023048427,-0.030367479,-0.04884607,0.0046563656,0.10271107,0.0074221236,0.1090896,0.024319574,-0.032338846,0.03818353,-0.07883729,-0.02711992,-0.0073182085,0.058097266,0.20733885,-0.060500056,0.043508854,-0.05029115,0.026477547,0.09608156,-0.015755812,0.011233396,0.03202624,0.020191245,-0.13102435,0.087831624,0.077292636,0.040624566,0.040532175,-0.04218923,0.08890009,0.055566214,-0.06619171,-0.008575144,0.033015598,0.08057283,0.015839126,0.098147236,0.017812891,-0.03605001,-0.0007855366,0.08437106,-0.039520662,-0.067175314,-0.017690836,0.0123843,0.05092141,0.079158284,0.0041639153,0.01764787,-0.01048811,0.0072147604,0.024722526,-0.005926261,-0.047363203,-0.059797622,-0.016346501,-0.061062932,-0.043110933,0.0045257392,0.10041469,0.038915463,-0.052773636,0.12449624,0.03398783,0.023995623,0.052669853,-0.08296732,-0.017238315,0.043668773,0.044777766,-0.075945534,0.05850361,-0.0201124,0.018505404,-0.011534754,-0.036325324,-0.13144809,-0.13699111,0.09014824,0.03425271,0.018276194,0.065874316,-0.08457773,-0.0066365846,0.023480043,0.005799531,0.110526286,0.01710792,-0.0155284945,-0.053141184,0.061977115,-0.058750935,-0.005841381,-0.06642157,-0.16206086,0.058120847,-0.13201067,0.06355238,0.098942645,0.0075825765,-0.07079174,0.036154665,-1.0409833,0.033333577,0.16819121,0.02782224,-0.05604369,-0.0793754,-0.02003563,0.058817584,-0.017943043,0.035812404,0.016392067,0.03478789,0.051773082,0.0272549,0.034866188,0.03143255,-0.11902402,-0.011471283,-0.0848976,-0.02731941,-0.030676652,0.067024715,0.00060853857,-0.0012980739,-0.03823646,-0.15918246,0.09482166,0.03300836,0.03628272,0.075237885,-0.049285673,-0.061895933,-0.0693789,-0.073787026,-0.01291725,-0.016778095,-0.021506583,0.05694601,-0.022840895,0.022253582,0.012039186,-0.006573031,0.04076485,0.035300963,0.018728996,-0.03402949,-0.0029810742,0.011935177,0.11077218,0.0028082293,0.01916886,-0.1054248,0.020720175,0.04490853,0.027122144,0.061333053,0.0002997294,-0.009877334,-0.05536247,-0.08075261,-0.04559012,-0.012246134,-0.014893518,0.08106104,0.100119434,0.010642734,0.11224547,0.019442985,-0.08483046,0.04888937,0.020896861,0.023515427,-0.0041801175,0.052827336,-0.0028535482,-0.06540265,-0.040917654,0.014061264,0.020341739,-0.026717553,0.013395508,0.027175015,-0.044071004,-0.036181558,0.0041672876,-0.016992692,0.016523413,-0.010628713,-0.02950956,-0.0043631196,-0.049201075,0.02516447,0.00898651,0.01952174,-0.06503912,-0.02528098,-0.032246787,-0.016277572,0.10433871,0.03774086,-0.11851355,0.0050264904,0.1263223,-0.011927895,0.043701317,0.018600002,0.037494976,-0.041633174,-0.08618625,-0.017079582,-0.09050578,-0.06424838,-0.042607907,0.025381718,-0.014314635,-0.06348415,0.042444907,-0.032439392,0.014312706,-0.035982113,0.1142918,-0.011752536,-0.0041530514,-0.01696564,-0.039943118,0.013971821,-0.029997729,-0.011847147,-0.020067612,0.040082105,-0.01105146,0.021127746,0.10692945,-0.029734423,0.020601777,-0.05534779,0.10904308,0.09047868,-0.027376147,-0.034497086,0.034429934,0.0740828,0.0037630717,0.117340766,0.0897501,0.04193393,-0.006603974,-0.10832481,-0.059752256,0.017358726,0.01973919,-0.018358054,-0.04886498,-0.011267258,0.0037451233,0.04039802,-0.0128209535,-0.018034805,0.029900495,0.07389803,-0.029333944,-0.07775679,0.095202655,0.003144535,0.019150522,-0.015764458,-0.014163378,-0.0060426104,-0.052210398,0.064012356,0.009305712,0.035952576,0.029368058,-0.016876506,0.016268067,-0.1058285,0.06604423,-0.004047524,0.06859037,-0.049444687,-0.0015028786,0.03653502,0.104861975,0.12462541,0.059703533,0.018031089,-0.04224472,0.033347297,-0.01632735,0.098946355,-0.004254377,-0.01989457,0.014235922,0.0456034,0.088012315,0.02261066,-0.026727103,0.06323105,0.008836237,0.008280417,0.0165045,0.021707946,0.0032252003,-0.0018562804,-0.03322401,0.0128826685,0.0132452985,0.04841423,0.028323375,-0.0984507,0.047121078,-0.03310007,0.059407342,-0.038902514,0.048003968,0.02348608,0.06332783,-0.020395286,-0.015330938,-0.002124374,0.036981832,0.016003963,0.030075891,0.021989616,-0.025417773,0.17955978,0.058605544,0.019044986,0.02196733,-0.07143666,0.043020807,-0.03446462,0.027776865,0.04076579,0.07203198,0.07477434,-0.047569823,-0.008564089,0.08184145,-0.0036356775,0.043130666,-0.05721552,-0.03937966,-0.004520766,-0.047606878,-0.020259103,-0.049483236,-0.035627864,-0.009270571,2.8475055e-05,0.04625195,-0.02274072,-0.009710786,0.00692716,0.0540363,0.033103533,-0.02246789,-0.045663603,-0.089342006,-0.006260083,-0.011179601,0.0794893,-0.005491307,-0.042596087,-0.0507253,-0.030388216,-0.07890166,-0.085513495,-0.07587961,-0.011609085,-0.056300335,0.04172714,0.008085035,0.12844092,-0.022977175,0.0053528124,0.03391158,0.002177915,0.018702168,-0.0719704,0.016918644,-0.03764584,0.023737755,-0.08984975,0.02179005,-0.074415006,0.01793881,-0.056256633,-0.022026885,0.035988923,-0.0496886,-0.131834,0.03455773,0.0194711,-0.002329673,-0.041136045,0.030332435,0.10677535,0.0054502445,-0.021791216,0.022730265,-0.013693319,0.047379307,-0.048376746,-0.17607196,0.042615835,-0.054198653,-0.029905677,0.0020366544,0.106685944,-0.047838587,-0.036879722,0.044445924,-0.04022423,0.006188169,-0.0010112406,0.013504551,0.026902143,-0.11981727,0.1593209,-0.006815696,-0.0823313,-0.18005718,-0.026748175,0.0008571116,0.021807006,0.015787624,0.039794426,0.018026317,-0.00766864,0.16840604,-0.05690591,0.046703227,0.058701117,0.0728685,0.027678445,0.011030276,0.16283171,-0.036138464,0.01038543,-0.027551688,0.107119106,-0.0034897598,0.056778464,0.047606353,-0.022423396,0.032845452,-0.050395966,0.010572298,0.10862608,0.0061550597,0.06273552,0.018579029,0.012392546,-0.039222997,0.07914774,0.017764704,-0.06320149,0.06841505,0.06199247,0.09508306,0.054218736,-0.038211253,0.0064794044,0.051428556,-0.07629823,0.0041897274,0.007210711,0.0044590887,0.013586017,0.012986632,0.08734174,-0.014485029,0.0052202367,-0.029275917,-0.0083688265,0.011494343,0.011756984,-0.04539393,-0.034558825,0.015493594,-0.008243556,0.014814745,0.0074124592,0.046673436,0.005009904,-0.012453648,0.010571432,-0.037794095,-0.035232954,0.008398083,0.111482404,0.0301903,0.008488064,0.08095565,-0.02900906,-8.150031e-05,0.017126331,-0.0037410047,-5.0979e-05,0.051124685,0.015875356,0.0014774319,0.009574743,-0.039330456,-0.023739772,-0.13402793,-0.052116007,0.044990886,0.0026262025,0.06348226,-0.052677665,0.06412436,-0.011030121,-0.045631953,0.015139418,-0.008128298,0.17638552,0.04508092,-0.016817048,0.01345865,0.004825144,0.03886827,0.07300185,-0.090319395,0.13609597,-0.012125289,0.009131042,-0.059040945,0.048926942,0.06837663,-0.014899197,-0.023175841,0.013575088,0.047083173,0.022794675,0.017929483,-0.068560496,0.014843153,0.007574588,0.00046660964,-0.014521008,-0.026330888,0.0047151893,0.0047388296,0.0024503022,0.013825059,-0.00884604,-0.06369113,0.17240742,0.07938468,-0.09032766,-0.0012678424,0.08677725,0.006214603,-0.00902623,-0.076825485,0.005982963,-0.037942596,-0.0045405296,0.05029034,0.03830273,-0.05529743,-0.07301885,0.08431925,-0.07897256,0.13509838,0.038329534,0.039293677,-0.008892945,0.021475237,0.011755367,0.08563372,-0.026552266,0.005333946,0.091139324,-0.017015815,-0.09398187,-0.084841505,-0.000983299,0.046214163,-0.021974321,0.022039108,0.070441626,-0.027060857,0.056314543,0.027553061,0.013522514,0.01703508,0.033945285,-0.024165733,-0.07238091,0.018830981,0.0055300947,0.0119223185,0.046853013,-0.056799356,0.00064983184,0.09056379,0.034853,-0.018202616,0.05688253,0.051677305,0.0022581976,-0.04181797,-0.061152764,-0.039997082,0.058666978,-0.014760873,-0.017983489,-0.023836885,-0.0700136,0.026629874,-0.031872094,0.05825665,0.09207981,0.004050152,0.08003889,0.06965186,-0.05152697,-0.0134353265,-0.018133488,0.072866574,0.0077027963,0.010728866,-0.051503886,-0.11917365,0.068676315,0.060884584,-0.00062375446,-0.06925305,0.033112913,-0.04165551,-0.028638102,0.0068340222,0.0489484,0.046614155,-0.047348015,0.011136867,0.002847809,-0.07094617,0.09707293,0.0035435562,-0.012795413,0.042964283,-0.03951567,-0.023343202,0.061339337,-0.03605349,-0.020786311,-0.048890904,-0.020976808,0.20537099,-0.07481308,0.054554217,0.054218512,0.03693785,0.04036024,-0.014142732,0.12676767,-0.06832791,0.011071608,0.028732618,-0.040002238,-0.08729063,0.0056512067,0.006724883,0.054149326,0.007576012,-0.048024554,0.019435985,-0.036008842,0.0009639412,-0.025927138,-0.0014978424,-0.06886919,0.04756842,-0.06214274,0.051613826,-0.035858,0.012965573,-0.016695602,0.010002095,-0.008084719,0.06590277,-0.033668794,0.024246514,0.037348084,-0.08098995,0.018789116,-0.08118068,0.019888598,0.030858561,-0.084932186,0.023692092,-0.0051978067,-0.07846401,-0.07903602,-0.062091872,0.033121247,0.064855136,0.020607337,0.10735997,0.029737808,-0.020904167,-0.011166028,-0.11399337,-0.033400144,0.028263135,0.055759735,0.032771178,0.049748786,-0.06676229,-0.01834759,0.053660054,-0.03759962,0.07454568,-0.108061254,0.013696511,-0.014032178,-0.025012726,0.011956844,0.05734086,0.06380076,0.03347075,-0.030758338,0.032730244,0.01736622,0.004078033,-0.023910806,-0.03965035,0.017404731,0.04851996,-0.08134836,0.025623998,0.05343833,-0.006268937,0.03418837,0.137264,0.0079901265,0.025656862,0.017949158,-0.084156886,-0.024300644,0.051463917,-0.05725023,0.099469684,-0.012228672,0.03568185,-0.03302631,-0.042280894,-0.076283604,-0.019322079,-0.03293449,0.0074853855,0.021978533,0.0012208534,0.019114695,0.060987994,0.14346868,-0.08181307,0.02833517,-0.018117813,-0.08191323,-0.058453355,0.063560314,0.0020029072,0.02483357,0.034266368,-0.0015790666,0.014221638,0.027776701,-0.037858207,0.04058294,0.018150678,-0.053340204,-0.06211248,0.039370578,-0.052280743,-0.06848657,0.003609146,-0.019969685,-0.017202778,0.01486475,-0.015564082,0.061440207,0.089638755,-0.040968508,0.031246835,0.065138996,-0.06601697,-0.016683105,0.031584777,-0.035234742,0.0028229253,-0.0031867456,0.0636086,-0.04424413,-0.06969011,-0.09633482,0.017096927,-0.031806998,0.11823229,0.15160598,0.055049974,0.006149322,0.020537373,-0.014244167,0.10949699,0.068638824,-0.03259313,-0.028633282,0.05849185,0.0024047184,-0.052270338,-0.025039798,0.11093008,-0.0056288103,0.018810993,-0.007534965,-0.03619427,-0.09168661,-0.07158536,-0.034993127,-0.030689932,0.044489697,0.017447753,0.07615517,-0.052777596,-0.02515839,-0.0021796233,-0.009684546,-0.013849599,0.07701555,0.047544606,-0.022764353,-0.041023564,0.09326677,0.03190843,0.02471957,0.01832381,0.039014917,0.000196818,-0.024465399,0.046063114,-0.041670293,-0.06844746,-0.028413191,-0.030861327,-0.027466416,-0.010484797,0.0746529,-0.050204318,-0.015732706,-0.054925926,0.066044725,0.011420669,-0.034316834,0.04276815,-0.008108934,-0.056328278,-0.0027741257,-0.015106104,-0.012524491,0.083074406,0.013810344,-0.05302581,0.0019017613,-0.012391387,-0.027525323,-0.00067585567,0.03811544,-0.04656171,-0.0054499162,-0.037571263,-0.031360902,0.06964788,-0.03295793,0.025654094,0.033508614,0.032483257,0.06308998,-0.02118597,0.03005069,0.007120822,0.07350937,-0.085209854,0.111178026,0.06058417,0.03437315,0.030384138,-0.047200415,-0.08332996,-0.020187493,-0.00608112,-0.046314232,-0.016719654,-0.036289617,0.037566684,0.02053006,-0.009133508,0.16358079,0.01599111,0.010779821,0.008826958,0.046251092,-0.04056312,0.010913903,0.031117156,0.0072366353,-0.04295526,0.006031891,0.026497677,0.053474467,0.020436296,-0.06792174,-0.06277249,-0.030490296,0.061485678,-0.04057157,-0.04809131,0.03445801,-0.0018876626,0.0838967,-0.046765584,-0.103840984,-0.0552634,0.031823125,-0.026286885,0.088029005,-0.039947815,0.0025424715,-0.0108748805,0.07748058,-0.010535692,-0.034257095,-0.028868195,-0.041789223,0.040195417,-0.02469996,0.07704384,0.0015936019,0.01601864,0.067033336,-0.093090124,0.08416227,0.050672714,0.012522544,-0.08996918,-0.11478816,0.08999018,-0.016901627,-0.04640691,0.06358482,0.08427429,0.0055502383,-0.035784855,0.012279616,0.07898668,-0.13843732,0.049778778,0.030250164,-0.035840783,-0.08635014,0.08209957,0.09079893,-0.0031116416,-0.011655688,0.038907178,-0.11536791,-0.05154863,-6.17364e-05,0.03485782,0.056370758,-0.012283333,-0.06968316,-0.02083139,0.10459271,-0.057740025,-0.052444305,0.046176795,0.052918643,0.037217487,0.055267673,0.0024772824,-0.023306359,0.07558364,-0.07581912,-0.023964986,-0.11401667,0.03858239,-0.016754465,-0.068828754,0.054786354,-0.024501404,0.010999647,-0.00828408,-0.07413364,-0.002834252,0.07478031,-0.045313187,-0.11734737,-0.01695244,0.007218981,-0.003092526,0.02147732,-0.021069087,0.02388836,-0.033794276,0.008379687,-0.088693485,0.065672316,0.053944554,-0.0072665866,-0.02756962,0.02673848,-0.003446923,0.0075245295,0.0063023916,-0.027102515,-0.004103459,-0.015672537,-0.054994352,-0.0051226276,-0.083669834,0.081270345,-6.0556087,-0.08462731,0.03980295,-0.02768944,0.0025724878,-0.021618234,-0.047692627,-0.056648344,0.1052594,-0.030972674,0.07707082,-0.014253958,0.04186483,-0.020095391,-0.0054449164,0.010781265,0.018453712,0.006056706,-0.026270812,0.0734817,0.050852735,-0.016365208,-0.014051927,0.13600235,0.005851126,-0.02144206,0.028829314,0.012069817,0.046356954,0.124251105,0.014155369,0.008593103,-0.0500372,0.08450335,0.0356942,0.13399273,0.040208105,0.0032831992,0.17812777,-0.06208008,0.04699604,-0.09506742,-0.020126171,-0.005184625,0.010996701,0.0058948738,-0.049729235,-0.07670542,0.028047165,0.028964803,0.035908602,-0.0114102485,-0.0030440716,-0.07987672,0.057449386,-0.014194862,-0.020859744,0.11534424,0.04313461,0.08281783,0.06077011,0.006349298,-0.031338006,0.045618407,0.0003606528,-0.034785382,-0.06679554,-0.022737721,0.00551186,-0.04378032,0.056809466,0.013976503,-0.0096696485,0.068741895,0.01666834,-0.011911384,-0.04188455,-0.07687963,0.12925802,0.025405793,-0.11656886,0.07250998,-0.040102355,0.082002416,0.08755763,-0.024496129,0.048754424,0.09742669,-0.03357174,0.07890016,0.12567231,0.08924603,-0.03218074,0.0038375992,0.023271317,-0.023784332,-0.055150848,0.035930045,0.048106022,0.042371638,0.02810339,0.04463574,-0.0049206805,0.06916307,0.025958197,-0.013619054,-0.03659518,0.033502996,0.028794862,0.07077721,0.025794527,-0.062757775,-0.060490675,-0.0014025734,-0.026074268,0.03388412,0.08425335,-0.118207544,-0.014884222,0.06583674
HGUA4_08,0.010671391,-0.049121775,-0.0106477905,0.053461187,-0.07974907,-0.013363804,0.022722783,-0.06975597,-0.013438376,0.06093705,-0.01241617,-0.017935408,0.111324415,0.102452196,-0.03313185,0.070122354,0.046897374,0.043822553,-0.0076000583,-0.034428954,0.04869293,-0.06554403,0.03718567,0.01882991,-0.020113796,0.01482884,0.010893883,-0.018125372,-0.007896957,-0.13338383,-0.021207523,0.030972216,0.0950151,0.045479886,0.0011657298,0.015880909,-0.026603317,-0.00027306113,-0.01995988,-0.011731713,0.035240646,0.038827337,0.14230786,0.021283297,-0.042072635,-0.073994495,-0.06845375,0.038296767,0.009215138,-0.046284717,-0.04281944,0.039823048,0.06522081,0.032272644,0.024593337,0.005968078,0.0041894717,0.032929562,0.03041655,0.01359725,-0.13853796,-0.0016389067,-0.047831886,0.06735664,-0.014205002,0.028484536,0.077984214,-0.05633125,0.08958681,-0.05096573,0.0018038183,-0.06853737,0.00042197295,-0.06938461,0.0070691714,-0.02057139,0.016212108,0.16367246,0.023802007,0.0585966,-0.01508373,0.007072491,-0.087066375,0.10797644,-0.026927784,0.007901897,0.08011011,0.042410005,0.10376346,0.016822668,0.05919746,0.079060026,0.012238304,-0.034900174,-0.035308156,-0.032604296,0.0008575735,0.020979764,0.089292936,0.024671676,0.047050685,-0.022383362,-0.03512143,-0.06346848,-0.017006235,-0.026512263,-0.033775173,0.010860027,-0.04996679,-0.03049725,-0.024000214,-0.00588295,-0.028296122,0.02766986,-0.016290385,0.012808494,-0.1544665,-0.08847223,-0.01031427,0.0833125,-0.035079394,0.0078943735,0.06511703,-0.004540599,-0.018315095,-0.060507078,0.053440016,0.0027573877,-0.07928101,0.06267469,-0.015982037,-0.009027562,-0.040438533,-0.05136713,-0.0025150643,0.086827956,0.0005521061,0.12987942,0.023685412,-0.032162387,0.04011042,-0.09024654,-0.029174045,-0.015426846,0.04371374,0.19674231,-0.076617315,0.045593183,-0.037993547,0.01566748,0.08852255,-0.015491674,0.00988151,0.029927937,0.015778756,-0.12898572,0.07600697,0.076971054,0.02878174,0.049553473,-0.043851648,0.09195053,0.06419015,-0.059024226,-0.012602248,0.017397052,0.07747133,0.026078295,0.091343276,0.013694965,-0.012425944,-0.001286242,0.07538408,-0.052592326,-0.071169965,-0.011136933,0.0043831277,0.055927288,0.07000692,0.0050771493,0.015284742,-0.0061503267,0.015829492,0.00394179,0.0101709,-0.05078721,-0.06769234,-0.0054273633,-0.06848062,-0.030859983,0.007830526,0.09104876,0.04623623,-0.056151014,0.11508238,0.036626283,0.025204366,0.045943562,-0.06690599,-0.017701305,0.039021276,0.032018777,-0.07972121,0.059150964,-0.018635776,0.01660837,0.0041646417,-0.040637452,-0.118173435,-0.14402246,0.093421146,0.027716685,0.019903723,0.069844425,-0.057991683,-0.01951318,0.020228526,0.018238295,0.119926505,0.016913263,-0.034658257,-0.054049376,0.032021053,-0.067549534,-0.031224092,-0.07389996,-0.17637989,0.051298887,-0.14370899,0.061626,0.088705756,0.014147522,-0.07334047,0.040046267,-1.1519873,0.020321164,0.19434115,0.034185525,-0.047850315,-0.06690228,-0.033313252,0.057177443,-0.026172176,0.03393183,0.027355302,0.045804773,0.043154556,0.022341197,0.02373797,0.021066103,-0.11921904,0.0041021663,-0.09523408,-0.033582013,-0.027605088,0.064939305,-0.010397733,-0.008442183,-0.04043832,-0.17778662,0.10428261,0.026230648,0.063054144,0.07499517,-0.03386232,-0.042586543,-0.07115495,-0.06992322,-0.0090153795,-0.017534593,-0.045987096,0.040693462,-0.0075266548,0.017562984,0.014175755,-0.023700815,0.032833863,0.045115016,0.021859499,-0.024244437,0.0034304191,0.01721344,0.10978686,-0.0065575945,0.009072878,-0.116672054,0.013859768,0.024385288,0.012478815,0.060260024,0.012509589,-0.024698006,-0.055571813,-0.09024607,-0.034654148,-0.014598593,-0.027591173,0.064200535,0.09097151,0.0063187904,0.09882058,0.013423152,-0.083571926,0.06610438,0.0252523,0.018966075,-0.0023571525,0.06493919,0.0014033563,-0.07562462,-0.030678958,0.0065352437,0.035695005,-0.016681159,0.011241027,0.027187739,-0.04681213,-0.02690269,0.0058078463,-0.025175944,0.02485404,-0.004799745,-0.02671456,-0.016941642,-0.043666087,0.049297243,-0.005169728,0.025235651,-0.061815735,-0.038235717,-0.024419833,-0.016038185,0.11035825,0.025741037,-0.12636901,0.0071491706,0.14794292,-0.0018242958,0.052922606,0.030231474,0.020367382,-0.04343928,-0.076173134,-0.024828404,-0.089637294,-0.05953836,-0.044368822,0.024028406,-0.0046893433,-0.06911565,0.07539561,-0.052034613,0.022996128,-0.02686734,0.110602304,-0.0035647408,-0.017193275,-0.0051197084,-0.053266145,-0.0042226454,-0.03586008,-0.019918425,-0.018827785,0.045847792,-0.006667177,0.029335054,0.103565685,-0.029710123,0.011382685,-0.059259035,0.09834812,0.10157981,-0.029134158,-0.028436068,0.034136172,0.076436855,0.0047282767,0.12048705,0.07908608,0.05620734,-0.013929513,-0.1441679,-0.06743432,0.010585855,0.022855734,-0.016364187,-0.043426413,0.010038474,0.016512733,0.036144864,-0.0011359921,-0.012844689,0.03280525,0.07334221,-0.045436267,-0.08537954,0.06452327,-0.0073705264,0.0125176925,0.0010459007,-0.007871341,-0.004737921,-0.04909962,0.081747904,-0.0014785305,0.04053208,0.032782536,0.00026335142,0.024670396,-0.11001809,0.070623,0.0007644412,0.055834357,-0.061285138,-9.766062e-05,0.028078748,0.100949645,0.1450191,0.05003247,0.02945747,-0.039328426,0.014769043,4.7946614e-05,0.10296118,-0.0022955749,-0.024441736,0.022610495,0.034808923,0.066955484,0.021076094,-0.043359436,0.065067604,0.008275509,-0.004119979,0.020520085,0.02329554,-0.0055741346,-0.007634405,-0.03157924,0.021876203,0.021975864,0.048781812,0.03713635,-0.10648709,0.049538728,-0.026374307,0.057988256,-0.03953316,0.045658294,0.04129196,0.06408195,-0.0060650078,-0.029201139,0.0030144844,0.037003707,0.0070782253,0.021426562,0.008286537,-0.028852595,0.1760099,0.057875186,0.009242572,0.041291174,-0.07015504,0.057993654,-0.028910892,0.037555125,0.04037264,0.07319344,0.083904445,-0.04483607,-0.025889207,0.081750385,-0.0078095132,0.039970893,-0.056503084,-0.05294276,0.008959415,-0.049870882,-0.022797296,-0.03995084,-0.040559057,-0.010629505,-0.021333607,0.06503779,-0.033716,0.0021104023,-0.0022761922,0.055131663,0.031835753,-0.009570009,-0.025939316,-0.08034053,0.0027009111,-0.020254273,0.05807152,-0.010063567,-0.038034767,-0.039075058,-0.045921344,-0.065985344,-0.08103571,-0.076216176,-0.011360957,-0.05387319,0.024963582,0.016132012,0.12011707,-0.021579098,-0.0005920556,0.03505237,0.0031454593,0.031013118,-0.06280272,-0.0075167078,-0.04553104,0.004046882,-0.08059561,0.01712182,-0.073588,0.01447297,-0.04095646,-0.014646339,0.040959336,-0.042058386,-0.12955919,0.041907065,0.013800788,-0.0030495783,-0.04103271,0.019124525,0.0980579,0.00042356603,-0.033632558,0.022109892,-0.009825787,0.047597833,-0.040874075,-0.17442964,0.04970311,-0.05136047,-0.023598025,-0.009099558,0.115843005,-0.04388856,-0.034795754,0.047348548,-0.043970756,0.00021909563,0.0051815133,0.007269163,0.018912992,-0.11673286,0.1443485,-0.028532902,-0.052958746,-0.1778667,-0.026502017,-0.0046844715,0.021364043,0.014410601,0.03839659,0.01652951,-0.017342335,0.17357504,-0.054817583,0.05736438,0.065453574,0.09390501,0.012599496,0.015652854,0.18247923,-0.02609394,0.007579084,-0.023059951,0.108403005,0.00030271444,0.05047668,0.046179347,-0.023858534,0.024681095,-0.040587135,-0.00010034535,0.08955393,0.017018571,0.0587705,0.032300256,0.015013822,-0.060810387,0.0857468,0.023610609,-0.05060141,0.07494382,0.078704305,0.096052706,0.044858724,-0.036402445,0.005099421,0.059411604,-0.06721587,0.019916562,-0.0044798804,0.030422343,0.010823294,0.023830172,0.08830719,-0.01627086,0.0020714158,-0.02563226,-0.0055129537,0.016590126,0.00683567,-0.026582902,-0.036827933,0.01272373,-0.0019477305,0.005880649,0.016128289,0.048201136,-0.0064795613,-0.0025923501,0.009394151,-0.029513525,-0.0473037,-0.010736153,0.09920353,0.033137143,0.002936206,0.07610948,-0.03626581,0.0054743406,0.027891904,-0.0064879474,-0.0026270237,0.035680138,0.0068221395,-0.0022645884,0.006341912,-0.038036052,-0.03344012,-0.13184126,-0.051534884,0.039990015,0.004960191,0.060287077,-0.047745604,0.04978839,-0.017353214,-0.051670812,0.028102979,-0.025436338,0.17146417,0.037802417,-0.01770529,0.027797004,0.0133563755,0.031943254,0.06535621,-0.07915189,0.14026095,-0.005007281,0.0064010224,-0.051080078,0.060179435,0.0695325,-0.013674422,-0.021131,0.003472979,0.04996666,0.031843074,0.016713526,-0.08450029,0.010182685,0.021732552,0.0021004488,-0.019720655,-0.017306993,-0.0033934389,-0.006077762,-0.01004818,0.028148968,-0.00024721396,-0.060803182,0.1687884,0.08055418,-0.08257111,0.010683993,0.101311184,0.0077557336,-0.008620525,-0.12699388,0.002200159,-0.034803804,0.009549272,0.051556356,0.029150387,-0.039877083,-0.0745162,0.08463272,-0.08784665,0.13327317,0.051674254,0.027737692,-0.012192302,0.025293054,0.00492435,0.093959555,-0.027351636,0.021438709,0.09512995,-0.0149657205,-0.074658714,-0.09528147,-0.0052334173,0.04903434,-0.015027053,0.0034670602,0.0502379,-0.006362895,0.057149056,0.042236228,0.022297328,0.0017222384,0.024795713,-0.018156052,-0.09078749,0.01248241,0.0039530336,0.009708225,0.037033323,-0.067509465,0.011733358,0.08767075,0.032511227,-0.019856837,0.047673028,0.025643528,0.0019409487,-0.036584537,-0.06121822,-0.032379963,0.05572036,-0.007187713,-0.009429246,-0.029552834,-0.07652961,0.035430327,-0.030518059,0.06182828,0.10170787,0.023399642,0.082918346,0.06717411,-0.05890355,-0.02971712,-0.003126804,0.07161198,0.0077461516,0.02117008,-0.04748454,-0.09723765,0.07658015,0.071564294,-0.0012974904,-0.06005906,0.03347455,-0.030174324,-0.01963505,0.022290986,0.03618622,0.052669264,-0.048247747,0.015590938,-0.0023945156,-0.069795884,0.10075916,0.009428643,-0.029466493,0.040476914,-0.02647858,-0.035200376,0.04417067,-0.042773616,-0.012553864,-0.025197664,-0.026478412,0.1716005,-0.07778113,0.053871337,0.04681119,0.028653247,0.03649146,-0.010020583,0.12370547,-0.08168344,0.020891713,0.037671506,-0.028353158,-0.10441051,-0.006883701,0.008662036,0.065505765,0.023572428,-0.061402448,0.028819356,-0.026682138,0.003299843,-0.01977146,-0.0047153546,-0.080015406,0.051660966,-0.07110659,0.059158154,-0.04213112,0.0116380425,-0.008152062,0.006684732,-0.010169475,0.050583195,-0.037808415,0.035185702,0.04092461,-0.10222809,0.002038579,-0.08382647,0.008745497,0.023936516,-0.07703864,0.015664121,-0.007368038,-0.08053057,-0.09083263,-0.05793912,0.03218225,0.06531559,0.020594815,0.110066056,0.029586775,-0.02198215,-0.022008503,-0.11929659,-0.031882368,0.035049286,0.05765965,0.018512424,0.065363206,-0.07737725,-0.014477934,0.048351698,-0.03242687,0.085828125,-0.09779847,0.009920729,-0.0060982374,-0.015753595,0.013932808,0.045958966,0.08650564,0.03859467,-0.037233897,0.023075398,0.01564159,0.0048128716,-0.01533524,-0.042760648,0.018035743,0.056476705,-0.089269035,0.019218508,0.050113153,0.008731166,0.03892703,0.12084996,-0.01047878,0.029149635,0.029759925,-0.16021836,-0.024508025,0.051826827,-0.045502774,0.093163855,-0.023345936,0.037640553,-0.053759225,-0.036482573,-0.06954465,-0.006680208,-0.025278807,-0.004651624,0.0047221174,0.0064589432,0.029837696,0.060288567,0.16041526,-0.070943005,0.029834619,-0.019565957,-0.076012954,-0.05295838,0.06267645,0.0033648089,0.030245777,0.0346941,0.004191384,0.013434842,0.02460361,-0.01705578,0.05070545,0.0030347307,-0.046119075,-0.04750073,0.041842215,-0.05682957,-0.07873585,0.004314278,-0.017532462,-0.025409443,0.022508575,-0.0033186064,0.053264163,0.10057267,-0.053330023,0.030449351,0.05927446,-0.07343669,-0.017918859,0.018013699,-0.040298868,0.0066268397,0.010920493,0.06925926,-0.04479497,-0.083558194,-0.098356046,0.02229942,-0.020476235,0.10368367,0.15898766,0.05368281,0.009934203,0.025213525,-0.019875308,0.10814144,0.07347198,-0.028258594,-0.01697203,0.064059444,0.005879218,-0.0557178,-0.030106844,0.101556875,-0.011431067,0.0054048263,-0.011735333,-0.053396545,-0.075340524,-0.07399347,-0.034177665,-0.034308568,0.04951636,0.012565429,0.083484836,-0.033989012,-0.020526988,-0.007904954,-0.01703176,-0.0121794725,0.08882993,0.053401593,-0.02977012,-0.036200363,0.10703015,0.030458027,0.03691948,0.0076870644,0.042276986,-0.010602802,-0.023111714,0.040469494,-0.032917764,-0.06563362,-0.019269913,-0.030502865,-0.025423516,-0.013380327,0.09118561,-0.043336034,0.00082317635,-0.036647204,0.046990704,0.007576423,-0.033144597,0.040798016,-0.0038904615,-0.0518597,0.00726789,-0.0050440305,-0.021323966,0.085169,0.015035189,-0.05406078,0.009023354,-0.014248646,-0.020498069,-0.0007906274,0.044012,-0.049339462,-0.008165624,-0.031535387,-0.034983397,0.051281232,-0.02733114,0.016069518,0.036617212,0.027327983,0.06898537,-0.014456532,0.028076991,0.02866949,0.071802475,-0.0842903,0.108311296,0.06028211,0.031909116,0.036531243,-0.033435136,-0.0675237,-0.01748586,0.010814495,-0.043598242,-0.02538142,-0.020034362,0.030083772,0.0010067535,-0.006278464,0.15680279,0.022690518,0.011055524,0.004951961,0.03999737,-0.03901834,-0.0015653592,0.03118591,0.015724495,-0.035778325,0.010790617,0.023176169,0.035150405,0.013094224,-0.068075016,-0.06772033,-0.035928007,0.06044492,-0.043000754,-0.04253785,0.03084923,-0.0070432504,0.07520842,-0.06539778,-0.115713775,-0.054421883,0.029493919,-0.031862438,0.10217876,-0.042130895,0.008877603,-0.017820718,0.08563663,-0.0031581223,-0.0155196125,-0.0015442179,-0.034986544,0.03915452,-0.022302048,0.082444,-0.010970831,0.0035327333,0.06637049,-0.093051076,0.084166564,0.07550524,0.004937466,-0.09335945,-0.121379785,0.07766939,-0.011268286,-0.058206458,0.08122517,0.093905255,0.0022525254,-0.031111702,0.014299387,0.06880076,-0.15027913,0.05702458,0.022047516,-0.024682138,-0.084179476,0.07364748,0.08595212,0.005822493,0.008506772,0.04714945,-0.10980139,-0.05279541,-0.0022530842,0.025455806,0.06205521,-0.01448398,-0.059789754,-0.0004637779,0.10541547,-0.06479878,-0.06088038,0.051567208,0.04670592,0.041014396,0.05427069,0.019069048,-0.008996776,0.096752234,-0.07889434,-0.01964882,-0.12419357,0.02983456,-0.009726946,-0.07156353,0.061642487,-0.0213168,0.018663812,-0.00014104159,-0.096709125,-0.027483,0.086327724,-0.04562474,-0.11502634,-0.0050727227,0.0053924182,-0.02790426,0.015695075,-0.02951586,0.040648777,-0.0479612,-0.0014421501,-0.11704029,0.07275416,0.056125887,-0.0038935984,-0.025112169,0.02406533,0.0045025465,0.020831095,0.007218111,-0.03674341,0.011308939,-0.007231125,-0.044718344,-0.00028415662,-0.08628353,0.06509393,-6.2027397,-0.06333227,0.03348044,-0.02690033,-0.0050975583,-0.02467808,-0.059072323,-0.060966548,0.10958822,-0.03799202,0.07551277,-0.0137653,0.061789602,-0.035447348,0.00370579,0.00011921049,0.029626204,-0.0051994617,-0.019607415,0.0712228,0.05069655,-0.016150074,-0.013426117,0.12948205,0.01803932,0.0029549443,0.035690047,0.014044455,0.046118613,0.13579445,0.016889201,0.008107104,-0.07139633,0.085675105,0.04700219,0.13572587,0.048007395,0.003987714,0.18239173,-0.06426233,0.030052671,-0.07549262,-0.01965164,-0.020123819,0.0069976808,0.02709181,-0.04456789,-0.072370455,0.010046871,0.041829225,0.032372646,0.0004485577,-0.009551709,-0.089683175,0.057355102,-0.0036671166,-0.02676789,0.11159502,0.05881196,0.08146391,0.06259047,0.02716455,-0.046548802,0.045068953,-0.0063717044,-0.03539313,-0.0571236,-0.0057580885,0.0071456092,-0.043804597,0.05260215,0.017550249,-0.002899491,0.07816764,0.027167112,-0.028678278,-0.04261435,-0.068224944,0.1400444,0.027249785,-0.09755777,0.08707129,-0.052619364,0.08541901,0.08507184,-0.036972236,0.05158774,0.10990352,-0.018997883,0.06776553,0.10813501,0.10075613,-0.024608355,0.004730039,0.029266769,-0.010247885,-0.057147715,0.04898345,0.037642587,0.037391152,0.029276805,0.03290651,-0.017242568,0.056989055,0.023507778,-0.004417248,-0.04347401,0.038061302,0.029667465,0.07475012,0.024506683,-0.06959146,-0.06440144,0.0032854911,-0.014451833,0.040822823,0.07470105,-0.11277763,-0.019011686,0.06445373
ERS799798,0.012138576,-0.061864674,-0.01720009,0.061231162,-0.0799505,-0.010017305,-2.3616893e-05,-0.03665511,-0.008844065,0.06783846,-0.015973708,-0.002790261,0.10834349,0.08859254,-0.021164417,0.067236274,0.05929613,0.04533811,-0.013223838,-0.041818917,0.045547783,-0.05943752,0.04024972,0.024842568,-0.004666732,0.0028476529,-0.007618674,-0.010650233,0.0012353299,-0.12962784,-0.0065604653,0.013614885,0.08061087,0.041613545,-0.00903926,0.014248531,-0.01876963,-0.019400103,-0.00888612,-0.015593241,0.03944472,0.04588889,0.14717288,0.013716279,-0.03958853,-0.07921681,-0.07832505,0.02499626,0.008301143,-0.033227738,-0.03373709,0.047152672,0.064087704,0.03964915,0.027663127,0.008672856,0.014163072,0.027303243,0.025586756,0.010373827,-0.14107485,-0.0036673977,-0.054668102,0.08186923,-0.005158418,0.027954092,0.076230705,-0.06194367,0.077452786,-0.04600775,7.2041556e-05,-0.06028354,-0.011358548,-0.071252294,0.011031295,-0.023180278,0.0043710303,0.1677844,0.024190575,0.059612554,-0.005039985,0.014916584,-0.065904476,0.10756249,-0.021063011,0.009039138,0.07293267,0.05411018,0.11124815,0.03364588,0.06338875,0.07271335,0.0022524386,-0.032793596,-0.035026375,-0.025215603,-0.0048678378,0.020714656,0.08330753,0.031151967,0.041909296,-0.016771499,-0.04730963,-0.06700662,-0.004240722,-0.030935053,-0.0440923,0.0045724157,-0.05788024,-0.012969989,-0.021717902,-0.004086827,-0.023664763,0.016221944,-0.031417057,0.025591671,-0.1612678,-0.09592602,-0.0037493345,0.079934865,-0.036019567,0.0034681847,0.06648609,-0.005303251,-0.013014525,-0.06799569,0.044598177,0.01778932,-0.08772187,0.060873833,-0.0021605892,-0.013793568,-0.03653752,-0.043232366,-0.012914016,0.08574441,-0.015586368,0.10173764,0.031176597,-0.029740414,0.05068527,-0.10008208,-0.03246609,-0.005999036,0.036663517,0.18804213,-0.0851859,0.039972007,-0.050881095,0.009067137,0.102841176,-0.007444603,0.01171512,0.029013166,0.030779358,-0.14045495,0.08350889,0.07216209,0.028423898,0.059888124,-0.042690195,0.08003974,0.08250913,-0.055299684,-0.019424688,0.0076677105,0.08248828,0.01980227,0.09890032,0.0069534183,-0.026161067,-0.005331211,0.07652133,-0.046774823,-0.062074848,-0.015231563,0.018168338,0.054101218,0.06846708,-0.008654292,0.004700858,-0.01683966,0.008259754,-0.00012734409,0.0032429239,-0.041112676,-0.07437743,-0.01963919,-0.06399087,-0.02565827,0.015062962,0.08255237,0.05156426,-0.050311998,0.12267227,0.032625586,0.033036567,0.04735475,-0.05951707,-0.029051475,0.04877028,0.024485508,-0.07158016,0.050907515,-0.021246053,0.015321121,-0.0015859982,-0.030113919,-0.11063793,-0.15339,0.08979449,0.020850563,0.005074555,0.060309988,-0.03715186,-0.02682588,0.036202554,0.015819414,0.12199043,0.0111058075,-0.04121791,-0.05286075,0.03209475,-0.06455927,-0.030178212,-0.070946895,-0.1701863,0.05810065,-0.14893578,0.059686568,0.09648466,0.009616342,-0.06266158,0.043126676,-1.2829732,0.027983764,0.19142026,0.01588202,-0.058536164,-0.07109566,-0.021454295,0.053261667,-0.024211679,0.037819996,0.03184043,0.0472329,0.049752682,0.016772974,0.030278347,0.02821158,-0.10509667,-0.009994068,-0.10115929,-0.040793914,-0.015457392,0.075228184,-0.018531665,-0.008375596,-0.036827657,-0.17335767,0.09602438,0.02816434,0.06681254,0.07887879,-0.025226675,-0.05060397,-0.06477838,-0.0767985,-0.013254172,-0.026045648,-0.048188522,0.03929164,-0.004581229,0.01740338,0.008628561,-0.018405966,0.034986846,0.035164643,0.02687072,-0.038240593,0.011836808,0.00987266,0.10302069,0.0033903744,0.016787525,-0.10072482,0.018127128,0.022415299,0.0023660746,0.053378455,-0.0030263434,-0.009062642,-0.064930536,-0.089919545,-0.027775053,-0.016494328,-0.019649366,0.05581477,0.08112294,-0.005670058,0.10369688,0.011465471,-0.091000006,0.046043858,0.028231982,0.025398917,0.008493956,0.058837116,-0.01035879,-0.06739469,-0.011071008,0.014612675,0.03594168,-0.03620539,-0.005388072,0.038602233,-0.043786995,-0.033773687,0.0104877455,-0.02285417,0.025111102,-0.0139849745,-0.0472679,-0.010704391,-0.032912306,0.042192988,0.013221932,0.029647188,-0.040223397,-0.021865927,-0.027941959,-0.023437431,0.10543365,0.017783917,-0.12589422,0.005155366,0.14637598,-0.00044153206,0.04484091,0.034724068,0.028023638,-0.03965089,-0.06425104,-0.026695453,-0.10454043,-0.058194585,-0.03693011,0.031561695,-0.0072984123,-0.068382315,0.07489125,-0.046221178,0.018425293,-0.02372964,0.10714856,-0.01786022,-0.026932277,0.008057795,-0.058575112,-0.0005425554,-0.03318639,-0.019444373,-0.010152192,0.03222661,-0.01511443,0.012733175,0.1111527,-0.019650705,0.0044691,-0.05702434,0.09396315,0.10340638,-0.0398876,-0.023671588,0.036002774,0.06684188,0.016227191,0.1357128,0.07605526,0.050346173,-6.709745e-05,-0.12902859,-0.06992826,0.01033484,0.019662382,-0.013019732,-0.05392138,0.0012276361,-0.0015995452,0.03797726,0.005505403,-0.019920204,0.04244162,0.08732543,-0.030518906,-0.10751021,0.072297424,-0.014102295,-0.004220696,0.007718464,-0.0100851655,-0.00021116412,-0.057517223,0.06546951,-0.0066114706,0.03138857,0.0426411,0.019667868,0.023152605,-0.124321,0.081270605,0.0037741433,0.06006234,-0.06590713,-0.0071169436,0.029918108,0.11678478,0.13989367,0.053567693,0.03888029,-0.042500388,0.012836482,-0.009162817,0.1137658,0.007244375,-0.019621808,0.024511414,0.029193213,0.06713901,0.014888131,-0.060807064,0.08621929,0.014248025,-0.0018975958,0.027218718,0.024770163,0.008766858,-0.006252064,-0.032266285,0.025430597,0.017633276,0.04939317,0.030342562,-0.108433865,0.03720255,-0.004233021,0.06541327,-0.04057932,0.032937624,0.048961718,0.057992857,-0.01647618,-0.028872328,0.0020408994,0.040942978,0.008207199,0.012020586,0.007625478,-0.028337754,0.16067281,0.057379622,0.0139477365,0.038676564,-0.080347784,0.069222264,-0.019510623,0.024029229,0.04070319,0.07971513,0.08343415,-0.054252785,-0.030184839,0.08173388,-0.0058889743,0.046613745,-0.04653994,-0.042502727,0.015830994,-0.042784907,-0.028020803,-0.060009796,-0.028098067,-0.03050501,-0.031579647,0.06931606,-0.034574118,0.007904681,0.0010524051,0.05095127,0.02870294,-0.0051082866,-0.03293533,-0.09048257,0.00040218135,-0.025307113,0.056601446,-0.015164369,-0.04924429,-0.04179899,-0.03433109,-0.07675442,-0.0647903,-0.08446309,0.0003821627,-0.057555668,0.02941785,0.013999977,0.12437545,-0.028376115,-0.011064628,0.04144548,0.020963388,0.027743839,-0.05804989,-0.0062803105,-0.04191064,0.0035139571,-0.078433946,0.0026712029,-0.07490125,0.0022603413,-0.049989935,-0.025128024,0.027960965,-0.04651869,-0.12944025,0.028550198,0.01774485,-0.005330605,-0.040530175,0.020626362,0.10912568,3.7935253e-05,-0.03493621,0.046968836,-0.018622927,0.046245437,-0.033455193,-0.16962737,0.06105109,-0.046157394,-0.018707218,-0.01157625,0.13053316,-0.054958574,-0.03170948,0.057779,-0.04835294,0.003796284,0.025145637,-0.0043733097,0.020615073,-0.10911624,0.15046227,-0.017012406,-0.056261882,-0.1596725,-0.023838622,-0.0038778808,0.022015272,0.015349284,0.024828598,0.008852914,-0.017289631,0.161423,-0.05107738,0.05627438,0.0721409,0.11073955,0.02656998,0.01653584,0.13849896,-0.017972477,0.012259435,-0.020178773,0.109231725,0.008019941,0.038954955,0.03425944,-0.014997657,0.04021781,-0.044790313,0.0069651455,0.0790053,0.025426947,0.06239525,0.02342308,0.012094027,-0.052179918,0.075578064,0.030290995,-0.045675427,0.06409195,0.06496844,0.095338196,0.046520468,-0.0470301,0.016671114,0.050772086,-0.05482535,0.03361679,-0.0060481057,0.030459099,0.019103616,0.036384773,0.09756229,-0.015001278,-0.005181816,-0.036468253,-0.021529129,0.011079564,0.008786775,-0.050062243,-0.054874316,0.014285756,-0.0063976953,-0.0029154595,0.013552096,0.0441633,-0.0059966403,-0.0021596884,0.0010479582,-0.021224253,-0.04754975,0.0023863565,0.096975826,0.039912693,0.006025048,0.046278246,-0.046808176,0.0031475627,0.021037063,1.7695129e-05,-0.0027328273,0.04387467,0.029793127,0.008318884,0.0048749126,-0.026778188,-0.034113824,-0.13784145,-0.04158586,0.043093614,0.015919188,0.0708049,-0.04862888,0.042223398,-0.006275105,-0.052260663,0.033943463,-0.016609935,0.18638653,0.038165227,-0.004271781,0.024043798,0.009507907,0.031911645,0.06540019,-0.07070861,0.13834578,0.0019136015,0.01660808,-0.055484936,0.058298305,0.07061512,-0.00800005,-0.0072614485,0.008737131,0.048798334,0.028393324,0.017823912,-0.08270383,0.017622417,0.023387041,0.0066629513,-0.015041373,-0.01255955,-0.01590886,-0.0041056797,0.00069928105,0.026218388,0.008456045,-0.046508957,0.1562888,0.071697876,-0.07843632,0.0032134585,0.08969008,0.0029871622,-0.012478786,-0.13776775,-0.006391025,-0.04434233,0.012172592,0.0597554,0.029052317,-0.05125798,-0.0874124,0.080364205,-0.08125526,0.12707585,0.04693903,0.020781694,-0.018770281,0.039050035,-0.0003978904,0.084353775,-0.025162434,0.005886268,0.1123585,-0.017611057,-0.0729067,-0.09850422,-0.01170839,0.03446763,-0.025470112,0.007986922,0.061624825,0.01004761,0.05947315,0.030962935,0.01368954,0.005683412,0.03437327,-0.01758148,-0.08610496,0.012926667,0.007750703,0.0068746763,0.034270436,-0.06760995,-0.004475663,0.08360618,0.052216947,-0.011256819,0.060692627,0.048266627,-0.0112662865,-0.013040976,-0.058317576,-0.0243784,0.058398306,-0.02525338,-0.021764018,-0.03268583,-0.072200626,0.052419342,-0.036909476,0.061951816,0.11644403,0.0105381925,0.07769077,0.075406514,-0.053103257,-0.0392935,-0.0023954783,0.06639762,0.0036506515,0.016589938,-0.042102832,-0.091567695,0.066950776,0.07120435,0.010586711,-0.06394246,0.039586052,-0.03416148,-0.027107213,0.01898834,0.032022703,0.05604624,-0.056622498,0.033542097,-0.011185246,-0.0702353,0.09321082,0.017287234,-0.03199252,0.0319526,-0.02819989,-0.026279172,0.041984916,-0.034783166,-0.014720867,-0.030522088,-0.025363892,0.18268286,-0.09132395,0.06027861,0.06239026,0.007963029,0.035744265,-0.0010788515,0.13158447,-0.07159839,0.031663075,0.024773508,-0.039661087,-0.10943973,-0.018576413,-0.0036090256,0.053290382,0.01833992,-0.069364615,0.03991751,-0.023528174,-0.0068685254,-0.024164941,-0.005496449,-0.06416276,0.05163529,-0.065841876,0.05855785,-0.040692683,0.011767416,-0.013151344,0.014603291,-0.017665237,0.04591981,-0.03201528,0.02453549,0.0458693,-0.10254499,0.0040487624,-0.07598054,-0.001024511,0.027704196,-0.06883086,0.025212066,-0.024228849,-0.09593304,-0.08769592,-0.05042861,0.024316557,0.06351712,0.017352609,0.097896256,0.027857754,-0.021457544,-0.028573517,-0.12009813,-0.024887338,0.03481145,0.06445079,0.032143537,0.07287735,-0.06338644,-0.008827093,0.063572355,-0.023736414,0.0782423,-0.11206811,0.002177986,-0.007535215,-0.016856518,0.01036049,0.05433981,0.09184884,0.035794828,-0.03355183,0.03390361,0.030134307,0.007078069,-0.012768518,-0.037733898,0.015414112,0.040087316,-0.07786545,0.01612513,0.05519362,-0.00039209134,0.026391868,0.1125248,-0.0066380994,0.04525122,0.018267445,-0.18856996,-0.03321289,0.06389371,-0.051590938,0.06798439,-0.011685633,0.033291355,-0.068421125,-0.03387959,-0.06329325,-0.0047351858,-0.01920019,0.00038242765,-0.011222922,0.011322946,0.036068514,0.057846326,0.1655506,-0.08430115,0.031226026,-0.01239868,-0.04709791,-0.04296948,0.058885913,-0.0045735,0.032085218,0.02296209,0.010117627,0.02352605,0.02387069,-0.02023047,0.05356476,-0.000701062,-0.049159355,-0.044153497,0.04107654,-0.056675334,-0.07899808,-0.0026575364,-0.0031109483,-0.010003872,0.02578784,-0.012079777,0.06001653,0.10921366,-0.04440203,0.016332114,0.046961308,-0.08330429,-0.011049051,0.020518523,-0.05162336,-0.0022582905,0.013589002,0.068698764,-0.044722334,-0.0781366,-0.09533606,0.026671581,-0.02305708,0.10349876,0.1453438,0.068234675,0.0012679547,0.02512238,-0.0053699673,0.09432943,0.063857965,-0.029043188,-0.021868447,0.046042386,-0.007266084,-0.044162046,-0.030215641,0.119974256,-0.018160393,-0.0034994548,-0.0150171155,-0.050344016,-0.0696301,-0.073907286,-0.035340372,-0.041106164,0.05153659,0.0014863276,0.084745996,-0.043749347,-0.011534844,-0.0051403474,-0.007577421,-0.0004104825,0.09268546,0.05145171,-0.02353055,-0.033348404,0.1065821,0.03826447,0.044654462,0.0012527992,0.04985515,0.008098339,-0.026710268,0.031691182,-0.026212871,-0.052175753,-0.014748011,-0.026164932,-0.032195102,-0.013391024,0.09698877,-0.044342145,0.0023173739,-0.035337362,0.038287308,0.010138355,-0.025306573,0.036422644,-0.009489592,-0.04327156,0.0074497387,-0.01258262,-0.012567487,0.066409074,0.00841124,-0.05374279,0.027116455,-0.026485436,-0.032193948,0.012716002,0.05372681,-0.038697705,0.0012103607,-0.045383256,-0.04822199,0.065571785,-0.029626869,-0.0032782296,0.034479782,0.035207413,0.07766631,-0.012268488,0.018737748,0.0065905484,0.068451084,-0.084379256,0.12003035,0.06283161,0.026782092,0.04664031,-0.023466669,-0.07019843,-0.027851947,0.012574847,-0.034779087,-0.026323173,-0.03687843,0.028992292,-0.010048863,0.009895851,0.16188964,0.0212757,0.010355047,-0.0002745336,0.052847054,-0.019446725,-0.0044610295,0.023191866,0.0145617165,-0.030953534,0.0055249576,0.0116941035,0.029132495,0.01154049,-0.09604555,-0.063062,-0.042301197,0.07947121,-0.046005476,-0.03817123,0.037149116,-0.00044951547,0.08740911,-0.050773926,-0.11103584,-0.050719902,0.008743752,-0.028249403,0.0972118,-0.025951887,0.01206906,-0.029943489,0.09244328,0.0042837067,-0.03399588,-0.013870261,-0.02622036,0.03821766,-0.032427754,0.09353283,-0.0021811826,0.011802766,0.07449233,-0.094059795,0.0812218,0.072383195,-0.000985739,-0.09212546,-0.12936707,0.08708017,-0.013811361,-0.045820277,0.08008478,0.069915995,-0.0062774275,-0.038607016,-0.00012166816,0.060988843,-0.15417641,0.044599414,0.011503827,-0.019504271,-0.07852387,0.07983562,0.06270735,0.015264411,0.00053154386,0.0436341,-0.104740284,-0.047592144,0.004038153,0.014518576,0.062101535,0.009384656,-0.05209785,-0.0015712789,0.11517787,-0.06129769,-0.052280806,0.04933193,0.056808192,0.042008724,0.04530995,0.011431911,-0.0038004916,0.08619336,-0.07490618,-0.028370334,-0.12019417,0.043587044,-0.0063353796,-0.07481453,0.0466279,-0.025654424,0.018756246,-0.0017372374,-0.09123186,-0.019539254,0.08134317,-0.055084117,-0.1108694,0.0071214032,0.007699575,-0.030393269,0.014286276,-0.032855704,0.048550535,-0.042430036,-0.00550742,-0.10481274,0.06208951,0.06427759,0.0037876475,-0.012600523,0.017788986,0.003932598,0.019851921,0.0029987544,-0.04165333,0.0015326329,-0.025316393,-0.05124347,-0.026825875,-0.08879903,0.06730029,-6.3044,-0.04357505,0.048419513,-0.02034333,-0.01585362,-0.02745017,-0.046051133,-0.068323486,0.11493213,-0.045162506,0.0881804,0.00059193827,0.049904577,-0.031611018,0.026726553,0.002020044,0.033680324,0.015568852,-0.018832112,0.08051976,0.052168943,-0.0076242825,-0.013512162,0.11737367,0.0053611705,-0.013838124,0.029782841,0.002403165,0.041106306,0.14434354,0.03041061,0.022109224,-0.077768415,0.08555926,0.03193217,0.13861775,0.0536465,0.0041988255,0.18724495,-0.065300256,0.02622053,-0.07537794,-0.00075085316,-0.016378934,-0.0040140953,0.01781213,-0.027832903,-0.08530345,0.024549155,0.058215097,0.030951222,0.0072475406,-0.007013205,-0.09028993,0.06390037,0.0065801893,-0.038019244,0.11290799,0.056069985,0.06731869,0.08082447,0.014654984,-0.044789482,0.055393185,-0.004619871,-0.028961904,-0.03753135,0.009136944,0.022533529,-0.029119104,0.04897322,0.034225304,0.0015600614,0.0870448,0.011978079,-0.03137442,-0.04779026,-0.07295089,0.13978063,0.028515624,-0.10540757,0.092324644,-0.032625508,0.08566876,0.08505625,-0.042461764,0.056771968,0.099565476,-0.018941112,0.077002056,0.114607744,0.11212395,-0.021295985,0.002778436,0.023284646,-0.02803839,-0.06582075,0.055120215,0.031940855,0.043570116,0.01994645,0.039950274,-0.01953922,0.058426753,0.019344775,-0.0018157284,-0.05262362,0.029188087,0.028668093,0.07906513,0.034043275,-0.064384595,-0.05776815,0.012045335,-0.023292277,0.04866859,0.07146144,-0.09983073,-0.023912665,0.04890488
